{"learner":{"attributes":{"best_iteration":"99","best_ntree_limit":"100","scikit_learn":"{\"use_label_encoder\": false, \"n_estimators\": 100, \"objective\": \"binary:logistic\", \"max_depth\": null, \"learning_rate\": null, \"verbosity\": null, \"booster\": null, \"tree_method\": null, \"gamma\": null, \"min_child_weight\": null, \"max_delta_step\": null, \"subsample\": null, \"colsample_bytree\": null, \"colsample_bylevel\": null, \"colsample_bynode\": null, \"reg_alpha\": null, \"reg_lambda\": null, \"scale_pos_weight\": null, \"base_score\": null, \"missing\": NaN, \"num_parallel_tree\": null, \"random_state\": null, \"n_jobs\": null, \"monotone_constraints\": null, \"interaction_constraints\": null, \"importance_type\": null, \"gpu_id\": null, \"validate_parameters\": null, \"predictor\": null, \"enable_categorical\": false, \"classes_\": [false, true], \"n_classes_\": 2, \"_estimator_type\": \"classifier\"}"},"feature_names":["FILTER_Mutect2","FILTER_Freebayes","FILTER_Vardict","FILTER_Varscan","m2_MQ","f_MQMR","vs_SSC","vs_SPV","vd_SSF","vd_MSI"],"feature_types":["i","i","i","i","float","float","int","float","float","float"],"gradient_booster":{"model":{"gbtree_model_param":{"num_trees":"100","size_leaf_vector":"0"},"tree_info":[0,0,0,0,0,0,0,0,0,0,0,0,0,0,0,0,0,0,0,0,0,0,0,0,0,0,0,0,0,0,0,0,0,0,0,0,0,0,0,0,0,0,0,0,0,0,0,0,0,0,0,0,0,0,0,0,0,0,0,0,0,0,0,0,0,0,0,0,0,0,0,0,0,0,0,0,0,0,0,0,0,0,0,0,0,0,0,0,0,0,0,0,0,0,0,0,0,0,0,0],"trees":[{"base_weights":[-9.313354E-1,-1.899399E0,8.9037E-1,-1.9786153E0,-1.3362507E0,-1.5890229E0,1.6920512E0,-1.9497297E0,-1.9912404E0,-1.884823E0,1.1472081E0,-1.0759702E0,-1.7403717E0,-9.0163666E-1,1.9215583E0,-1.9568818E0,-1.6420504E0,-1.9571089E0,-7.1649957E-1,-4.7713718E-1,1.6669856E0,-1.4870191E0,-5.017422E-1,-1.7838737E0,-2.2900763E-1,-1.3792517E0,7.664937E-1,1.9608995E0,1.45393E0,-1.9908183E0,-1.9087112E0,-1.9022557E0,1.4725275E0,-1.9806904E0,-1.5803403E0,-1.4519427E0,-1.2418301E-1,-1.2546583E0,8.9617485E-1,1.5384616E-1,1.7720914E0,-1.6316683E0,1.8604651E-1,-1.0506858E0,9.7913325E-1,-1.8802248E0,-1.5349941E0,-1.0840579E0,1.3879782E0,-1.615311E0,5E-1,8.774094E-1,-1.8571428E0,1.9630053E0,4.516129E-1,1.1516573E0,1.9895452E0,-1.8418908E0,-1.9716505E0,-1.9093485E0,-2.2222222E-1,-5.714286E-1,1.7530864E0,-1.3303965E0,-1.9892348E0,-1.8160316E0,-9.6345514E-1,-1.812987E0,-1.1111111E-1,-1.2E0,1.237525E-1,-1.6015625E0,8.82353E-2,-1.2631578E0,1.1325301E0,-1.5121951E0,5.497076E-1,9.693251E-1,1.8167388E0,-1.9061686E0,-1.4521158E0,-1.7333333E0,4.3103448E-1,-1.7235773E0,-9.469154E-2,3.94822E-1,1.5345912E0,-1.9680057E0,-1.8121862E0,-1.5876204E0,-9.836066E-2,1.6666666E0,-1.3865814E0,1.831579E0,8.695652E-1,-1.9559882E0,-1.169687E0,-1.1544715E0,1.9160839E0,4.1234222E-1,1.4353741E0,1.7379619E0,1.976415E0,6.506024E-1,-8.5714287E-1,-9.6503496E-1,1.2428135E0,5E-1,1.9916186E0],"categories":[],"categories_nodes":[],"categories_segments":[],"categories_sizes":[],"default_left":[true,true,true,true,true,true,true,true,false,true,true,true,true,true,true,true,true,true,true,true,true,true,true,true,true,true,true,true,true,false,true,true,true,true,true,true,true,true,true,true,true,true,true,true,true,true,true,true,true,true,true,true,false,true,true,true,true,false,false,false,false,false,false,false,false,false,false,false,false,false,false,false,false,false,false,false,false,false,false,false,false,false,false,false,false,false,false,false,false,false,false,false,false,false,false,false,false,false,false,false,false,false,false,false,false,false,false,false,false],"id":0,"left_children":[1,3,5,7,9,11,13,15,-1,17,19,21,23,25,27,29,31,33,35,37,39,41,43,45,47,49,51,53,55,-1,57,59,61,63,65,67,69,71,73,75,77,79,81,83,85,87,89,91,93,95,97,99,-1,101,103,105,107,-1,-1,-1,-1,-1,-1,-1,-1,-1,-1,-1,-1,-1,-1,-1,-1,-1,-1,-1,-1,-1,-1,-1,-1,-1,-1,-1,-1,-1,-1,-1,-1,-1,-1,-1,-1,-1,-1,-1,-1,-1,-1,-1,-1,-1,-1,-1,-1,-1,-1,-1,-1],"loss_changes":[1.2504675E5,2.0629062E3,4.8910617E4,1.0921875E1,7.7853047E3,4.6499805E2,1.107018E4,2.4054688E1,0E0,3.9381836E2,8.740106E2,3.2315393E2,3.047412E2,1.2059033E3,3.1141797E2,1.59921875E1,2.360022E2,3.6021484E1,1.19287155E2,2.6967087E2,1.24374756E2,1.9372827E2,4.6764316E2,1.0529297E2,1.8262581E2,5.224988E2,9.9770065E1,4.91875E1,2.1295703E2,0E0,1.7513672E1,2.7453613E0,1.4047756E1,2.0374023E1,3.6707214E1,5.8979736E1,4.0958687E1,7.514403E1,4.8129395E1,3.5126385E1,2.4501709E1,3.3495117E1,3.1076637E1,2.695321E2,4.994438E1,1.5831055E1,9.5446045E1,7.408467E1,8.928375E0,1.5635767E2,3.1147098E2,8.354814E1,0E0,4.4039062E1,6.6126256E0,1.656405E2,4.8132324E-1,0E0,0E0,0E0,0E0,0E0,0E0,0E0,0E0,0E0,0E0,0E0,0E0,0E0,0E0,0E0,0E0,0E0,0E0,0E0,0E0,0E0,0E0,0E0,0E0,0E0,0E0,0E0,0E0,0E0,0E0,0E0,0E0,0E0,0E0,0E0,0E0,0E0,0E0,0E0,0E0,0E0,0E0,0E0,0E0,0E0,0E0,0E0,0E0,0E0,0E0,0E0,0E0],"parents":[2147483647,0,0,1,1,2,2,3,3,4,4,5,5,6,6,7,7,9,9,10,10,11,11,12,12,13,13,14,14,15,15,16,16,17,17,18,18,19,19,20,20,21,21,22,22,23,23,24,24,25,25,26,26,27,27,28,28,30,30,31,31,32,32,33,33,34,34,35,35,36,36,37,37,38,38,39,39,40,40,41,41,42,42,43,43,44,44,45,45,46,46,47,47,48,48,49,49,50,50,51,51,53,53,54,54,55,55,56,56],"right_children":[2,4,6,8,10,12,14,16,-1,18,20,22,24,26,28,30,32,34,36,38,40,42,44,46,48,50,52,54,56,-1,58,60,62,64,66,68,70,72,74,76,78,80,82,84,86,88,90,92,94,96,98,100,-1,102,104,106,108,-1,-1,-1,-1,-1,-1,-1,-1,-1,-1,-1,-1,-1,-1,-1,-1,-1,-1,-1,-1,-1,-1,-1,-1,-1,-1,-1,-1,-1,-1,-1,-1,-1,-1,-1,-1,-1,-1,-1,-1,-1,-1,-1,-1,-1,-1,-1,-1,-1,-1,-1,-1],"split_conditions":[5.93789E1,5E-1,5E-1,3.1428498E-1,5E-1,1.18495E-1,5E-1,2.65E1,-5.973721E-1,5E-1,1.25E1,5E-1,1.95E1,5E-1,1.24855E-1,4.6575002E-2,5.0099576E-1,5E-1,1.15E1,5E-1,5E-1,1.11080006E-1,5E-1,5E-1,5E-1,2.65E1,6.03598E1,1.155E2,1.95E1,-5.972455E-1,9.5E0,5.929845E1,3.4575E-2,4.5679502E-2,5.1202E-2,5E-1,3.7088654E1,5.7855E1,4.919E1,4.629E1,4.8614998E1,9.384E-2,1.04465E-1,5E-1,2.2578001E-1,5E-1,5E-1,6.2143E-1,6.2162E-1,1.7015E-2,5.009675E-1,5E-1,-5.5714285E-1,5E-1,1.945E2,5E-6,5.8499046E1,-5.5256724E-1,-5.9149516E-1,-5.728046E-1,-6.666667E-2,-1.7142859E-1,5.2592593E-1,-3.99119E-1,-5.9677047E-1,-5.448095E-1,-2.8903654E-1,-5.4389614E-1,-3.3333335E-2,-3.6E-1,3.712575E-2,-4.8046878E-1,2.647059E-2,-3.7894738E-1,3.3975905E-1,-4.5365855E-1,1.6491228E-1,2.9079756E-1,5.4502165E-1,-5.718506E-1,-4.3563476E-1,-5.2000004E-1,1.2931035E-1,-5.170732E-1,-2.8407462E-2,1.184466E-1,4.6037737E-1,-5.904017E-1,-5.436559E-1,-4.7628614E-1,-2.9508198E-2,5E-1,-4.1597444E-1,5.494737E-1,2.6086956E-1,-5.8679646E-1,-3.5090613E-1,-3.4634146E-1,5.748252E-1,1.2370267E-1,4.3061227E-1,5.213886E-1,5.9292454E-1,1.9518073E-1,-2.5714287E-1,-2.895105E-1,3.7284404E-1,1.5E-1,5.974856E-1],"split_indices":[4,0,2,8,2,7,0,6,0,1,6,0,6,3,7,8,7,3,6,3,1,7,1,3,1,6,4,6,6,0,6,4,8,7,7,3,5,4,4,4,4,8,8,3,8,0,0,8,8,8,7,1,0,1,6,8,5,0,0,0,0,0,0,0,0,0,0,0,0,0,0,0,0,0,0,0,0,0,0,0,0,0,0,0,0,0,0,0,0,0,0,0,0,0,0,0,0,0,0,0,0,0,0,0,0,0,0,0,0],"split_type":[0,0,0,0,0,0,0,0,0,0,0,0,0,0,0,0,0,0,0,0,0,0,0,0,0,0,0,0,0,0,0,0,0,0,0,0,0,0,0,0,0,0,0,0,0,0,0,0,0,0,0,0,0,0,0,0,0,0,0,0,0,0,0,0,0,0,0,0,0,0,0,0,0,0,0,0,0,0,0,0,0,0,0,0,0,0,0,0,0,0,0,0,0,0,0,0,0,0,0,0,0,0,0,0,0,0,0,0,0],"sum_hessian":[7.090525E4,4.630075E4,2.46045E4,4.058875E4,5.712E3,6.0115E3,1.8593E4,1.2392E4,2.819675E4,4.67875E3,1.03325E3,1.37125E3,4.64025E3,1.51125E3,1.708175E4,1.210525E4,2.8675E2,4.4055E3,2.7325E2,2.505E2,7.8275E2,7.9825E2,5.73E2,4.51025E3,1.3E2,1.175E3,3.3625E2,1.575325E4,1.3285E3,7.07825E3,5.027E3,2.65E2,2.175E1,4.142E3,2.635E2,1.2125E2,1.52E2,1.6E2,9.05E1,5.1E1,7.3175E2,7.3475E2,6.35E1,4.1825E2,1.5475E2,3.24675E3,1.2635E3,8.525E1,4.475E1,1.044E3,1.31E2,3.2325E2,1.3E1,1.5731E4,2.225E1,8.5125E2,4.7725E2,2.453E3,2.574E3,2.6375E2,1.25E0,2.5E0,1.925E1,5.575E1,4.08625E3,1.8925E2,7.425E1,9.525E1,2.6E1,2.775E1,1.2425E2,1.27E2,3.3E1,8.5E0,8.2E1,9.25E0,4.175E1,3.975E1,6.92E2,2.8675E2,4.48E2,6.5E0,5.7E1,2.45E2,1.7325E2,7.625E1,7.85E1,1.4055E3,1.84125E3,1.21875E3,4.475E1,8E0,7.725E1,2.275E1,2.2E1,5.8975E2,4.5425E2,6.05E1,7.05E1,1.7725E2,1.46E2,8.92E2,1.4839E4,1.975E1,2.5E0,3.475E1,8.165E2,1E0,4.7625E2],"tree_param":{"num_deleted":"0","num_feature":"10","num_nodes":"109","size_leaf_vector":"0"}},{"base_weights":[-7.167509E-1,-1.4665737E0,6.814002E-1,-1.529373E0,-1.0241485E0,-1.1999635E0,1.2988148E0,-1.5034834E0,-1.5406941E0,-1.4498016E0,8.6112356E-1,-7.9803336E-1,-1.3213524E0,-6.7223805E-1,1.4786153E0,-1.5364453E0,-1.4532722E0,-1.5104228E0,-5.243507E-1,-6.0158396E-1,1.2091414E0,-1.112466E0,-3.676487E-1,-1.3556577E0,-1.6079266E-1,-1.0356262E0,5.523382E-1,1.5122957E0,1.0680264E0,-1.541003E0,-1.4349363E0,-1.4639655E0,-3.4078237E-1,-4.776397E-1,-1.5181324E0,2.072429E-2,-1.0020945E0,-1.0903407E0,2.8480056E-1,4.3428174E-1,1.3876983E0,-1.2248228E0,1.244542E-1,-1.0548396E0,3.3957532E-1,-1.4398082E0,-1.1436107E0,1.4302324E0,-6.4707446E-1,-1.2140164E0,3.793119E-1,-6.801034E-1,7.718527E-1,1.3135557E0,1.5250292E0,7.9363203E-1,1.5405129E0,-2.9920673E-1,-1.4555165E0,-1.4022555E0,-1.5236667E0,-1.4368097E0,1.336574E0,-1.4517485E0,-1.5407704E-1,-1.5361162E0,-1.2291927E0,-4.8582673E-1,5.07848E-1,-1.1874788E0,1.7998492E0,-1.2085588E0,4.5906833E-1,4.1081983E-1,-1.2313572E0,-3.1486574E-1,9.78877E-1,8.611816E-1,1.4145312E0,-1.4644359E0,-1.073448E0,-6.9711924E-1,5.585345E-1,-1.3027836E0,6.582647E-2,-6.646227E-2,1.0395963E0,-1.519588E0,-1.3788382E0,-8.566209E-1,-1.3385884E0,9.1331095E-2,1.4932929E0,-1.0242542E0,6.3160634E-1,-1.5261654E0,-8.624343E-1,-8.454133E-1,1.481641E0,-2.8441057E-1,-1.4409986E0,3.965649E-1,1.3266174E0,2.1934594E-1,1.432593E0,4.348107E-1,1.5273842E0,-6.0688317E-1,8.730963E-1,1.545048E0,5.411762E-1],"categories":[],"categories_nodes":[],"categories_segments":[],"categories_sizes":[],"default_left":[true,true,true,true,true,true,true,true,false,true,true,true,true,true,true,true,true,true,true,true,true,true,true,true,true,true,true,true,true,false,true,true,true,true,true,true,true,true,true,true,true,true,true,true,true,true,true,true,true,true,true,true,true,true,true,true,true,false,false,false,false,false,false,false,false,false,false,false,false,false,false,false,false,false,false,false,false,false,false,false,false,false,false,false,false,false,false,false,false,false,false,false,false,false,false,false,false,false,false,false,false,false,false,false,false,false,false,false,false,false,false],"id":1,"left_children":[1,3,5,7,9,11,13,15,-1,17,19,21,23,25,27,29,31,33,35,37,39,41,43,45,47,49,51,53,55,-1,57,59,61,63,65,67,69,71,73,75,77,79,81,83,85,87,89,91,93,95,97,99,101,103,105,107,109,-1,-1,-1,-1,-1,-1,-1,-1,-1,-1,-1,-1,-1,-1,-1,-1,-1,-1,-1,-1,-1,-1,-1,-1,-1,-1,-1,-1,-1,-1,-1,-1,-1,-1,-1,-1,-1,-1,-1,-1,-1,-1,-1,-1,-1,-1,-1,-1,-1,-1,-1,-1,-1,-1],"loss_changes":[6.843875E4,1.1790391E3,2.6472855E4,8.59375E0,4.242175E3,2.7369922E2,6.081955E3,1.6572266E1,0E0,2.4110742E2,4.9656512E2,1.7670404E2,1.7191992E2,6.391699E2,2.1583594E2,9.5410156E-1,5.3286133E1,3.1492188E1,6.944739E1,8.170422E1,1.08307495E2,1.05186584E2,2.6960513E2,7.3285645E1,9.7843666E1,2.7988293E2,8.954586E1,3.476953E1,1.5377063E2,0E0,6.7755737E0,1.4360352E1,8.345018E1,9.685678E0,1.8979492E1,3.1216427E1,7.594919E1,2.277475E1,1.3415949E1,6.104765E1,7.8137207E0,2.3561401E1,2.3157284E1,7.822821E1,7.78872E1,1.2508789E1,6.588391E1,2.365818E0,4.7251934E1,1.0659802E2,1.6960924E2,1.472827E1,5.7721283E1,1.1458301E2,3.4376953E1,8.4927185E1,1.1496582E0,0E0,0E0,0E0,0E0,0E0,0E0,0E0,0E0,0E0,0E0,0E0,0E0,0E0,0E0,0E0,0E0,0E0,0E0,0E0,0E0,0E0,0E0,0E0,0E0,0E0,0E0,0E0,0E0,0E0,0E0,0E0,0E0,0E0,0E0,0E0,0E0,0E0,0E0,0E0,0E0,0E0,0E0,0E0,0E0,0E0,0E0,0E0,0E0,0E0,0E0,0E0,0E0,0E0,0E0],"parents":[2147483647,0,0,1,1,2,2,3,3,4,4,5,5,6,6,7,7,9,9,10,10,11,11,12,12,13,13,14,14,15,15,16,16,17,17,18,18,19,19,20,20,21,21,22,22,23,23,24,24,25,25,26,26,27,27,28,28,30,30,31,31,32,32,33,33,34,34,35,35,36,36,37,37,38,38,39,39,40,40,41,41,42,42,43,43,44,44,45,45,46,46,47,47,48,48,49,49,50,50,51,51,52,52,53,53,54,54,55,55,56,56],"right_children":[2,4,6,8,10,12,14,16,-1,18,20,22,24,26,28,30,32,34,36,38,40,42,44,46,48,50,52,54,56,-1,58,60,62,64,66,68,70,72,74,76,78,80,82,84,86,88,90,92,94,96,98,100,102,104,106,108,110,-1,-1,-1,-1,-1,-1,-1,-1,-1,-1,-1,-1,-1,-1,-1,-1,-1,-1,-1,-1,-1,-1,-1,-1,-1,-1,-1,-1,-1,-1,-1,-1,-1,-1,-1,-1,-1,-1,-1,-1,-1,-1,-1,-1,-1,-1,-1,-1,-1,-1,-1,-1,-1,-1],"split_conditions":[5.93789E1,5E-1,5E-1,3.08855E-1,5E-1,1.18495E-1,5E-1,5.0245002E-2,-4.6220824E-1,5E-1,5E-1,5E-1,1.95E1,5E-1,1.4978E-1,5.801945E1,2.65E1,1.3104E-3,5.6754E-2,5.5445E1,1.55E1,1.11080006E-1,5E-1,5E-1,6.2162E-1,2.65E1,2.0245E-2,5E-1,1.95E1,-4.6230093E-1,5.642855E1,9.5E0,5.00982E-1,4.22E-10,5E-1,5.4385002E1,1.95E1,2.65E1,5.935E1,5E-1,4.834E1,9.384E-2,2.0353E-1,5E-1,5E-1,5E-1,2.6672E-1,1.416E-2,5E-1,1.219E-2,8.470001E-3,2.69855E-2,5E-1,5E-1,1.76415E-11,1.5E-5,8.5E0,-8.9762025E-2,-4.3665496E-1,-4.2067668E-1,-4.5710003E-1,-4.310429E-1,4.0097222E-1,-4.3552455E-1,-4.622311E-2,-4.608349E-1,-3.6875784E-1,-1.4574802E-1,1.5235442E-1,-3.5624364E-1,5.399548E-1,-3.6256766E-1,1.3772051E-1,1.23245955E-1,-3.6940718E-1,-9.445973E-2,2.936631E-1,2.5835449E-1,4.2435938E-1,-4.393308E-1,-3.220344E-1,-2.0913579E-1,1.6756035E-1,-3.908351E-1,1.974794E-2,-1.9938681E-2,3.1187892E-1,-4.558764E-1,-4.1365147E-1,-2.569863E-1,-4.0157652E-1,2.739933E-2,4.4798788E-1,-3.0727628E-1,1.8948191E-1,-4.5784962E-1,-2.5873032E-1,-2.5362402E-1,4.4449234E-1,-8.532317E-2,-4.3229958E-1,1.1896948E-1,3.9798522E-1,6.580379E-2,4.2977792E-1,1.3044322E-1,4.5821527E-1,-1.8206495E-1,2.619289E-1,4.6351442E-1,1.6235286E-1],"split_indices":[4,0,2,8,2,7,0,8,0,1,1,0,6,3,7,4,6,7,7,4,6,7,3,3,8,6,8,1,6,0,5,6,7,7,3,4,6,6,5,3,4,8,8,1,1,0,8,8,1,8,8,7,1,3,7,8,9,0,0,0,0,0,0,0,0,0,0,0,0,0,0,0,0,0,0,0,0,0,0,0,0,0,0,0,0,0,0,0,0,0,0,0,0,0,0,0,0,0,0,0,0,0,0,0,0,0,0,0,0,0,0],"split_type":[0,0,0,0,0,0,0,0,0,0,0,0,0,0,0,0,0,0,0,0,0,0,0,0,0,0,0,0,0,0,0,0,0,0,0,0,0,0,0,0,0,0,0,0,0,0,0,0,0,0,0,0,0,0,0,0,0,0,0,0,0,0,0,0,0,0,0,0,0,0,0,0,0,0,0,0,0,0,0,0,0,0,0,0,0,0,0,0,0,0,0,0,0,0,0,0,0,0,0,0,0,0,0,0,0,0,0,0,0,0,0],"sum_hessian":[6.5279418E4,4.2491402E4,2.2788018E4,3.7207574E4,5.2838286E3,5.6303804E3,1.7157637E4,1.1360869E4,2.5846705E4,4.31078E3,9.730486E2,1.3077781E3,4.322602E3,1.4340632E3,1.5723573E4,6.840638E3,4.5202314E3,4.045171E3,2.6560895E2,1.8687794E2,7.861706E2,7.547697E2,5.5300836E2,4.198334E3,1.24268036E2,1.1060127E3,3.280505E2,1.4529078E4,1.1944955E3,6.5331245E3,3.0751395E2,4.476884E3,4.334755E1,3.0439796E1,4.0147312E3,1.245089E2,1.4110005E2,1.2030892E2,6.656903E1,1.4787766E2,6.3829297E2,6.919277E2,6.2842052E1,2.8022733E2,2.7278104E2,3.0014302E3,1.196904E3,2.8635794E1,9.563224E1,9.823088E2,1.2370398E2,4.927921E1,2.787713E2,8.811171E2,1.3647961E4,7.573484E2,4.371471E2,5.749734E0,3.017642E2,2.2134487E3,2.263435E3,2.6303549E1,1.7043999E1,6.720496E0,2.3719301E1,3.7754302E3,2.3930083E2,6.1038624E1,6.347028E1,1.3288426E2,8.21579E0,1.1198461E2,8.324306E0,6.213367E1,4.435358E0,6.2426018E1,8.5451645E1,3.2556858E1,6.057361E2,2.6452814E2,4.2739954E2,2.1515055E1,4.1327E1,2.2932693E2,5.0900383E1,1.7321507E2,9.956598E1,1.2897992E3,1.711631E3,4.8638373E2,7.105204E2,1.398169E0,2.7237625E1,7.400233E1,2.1629913E1,5.1856494E2,4.6374384E2,5.8709164E1,6.499481E1,3.3323547E1,1.5955661E1,1.6730649E2,1.1146483E2,8.67293E1,7.943878E2,2.9816841E1,1.3618144E4,4.030781E1,7.170406E2,4.3462863E2,2.518467E0],"tree_param":{"num_deleted":"0","num_feature":"10","num_nodes":"111","size_leaf_vector":"0"}},{"base_weights":[-6.132098E-1,-1.2648135E0,5.7554793E-1,-1.3221588E0,-8.686882E-1,-9.834548E-1,1.1050556E0,-1.2926925E0,-1.3351738E0,-1.2588879E0,6.1767006E-1,-7.4112195E-1,-1.1582375E0,-5.361014E-1,1.265221E0,-1.3316612E0,-1.2387196E0,-1.3006326E0,-4.5548037E-1,-3.9680597E-1,9.891001E-1,-8.7076396E-1,-1.887342E-1,-1.2010746E0,-1.1826559E-1,-1.1565102E0,-3.793842E-2,1.3029894E0,8.60082E-1,-1.129027E0,-1.334544E0,-1.2480538E0,-3.213595E-1,-1.3247627E0,-9.518002E-1,-1.0496687E0,-6.277288E-3,-8.1379E-1,7.453781E-2,3.283614E-1,1.1564355E0,-9.092066E-1,1.7456124E-2,-6.517183E-1,4.7029194E-1,-1.135504E0,-1.3008654E0,1.2163634E0,-4.989429E-1,-1.3163028E0,-4.1033536E-1,-3.2858786E-1,1.0199703E0,1.086205E0,1.3167131E0,6.331167E-1,1.3355172E0,-1.2475053E0,-5.842459E-1,-1.1795957E0,-1.314007E0,-1.2394458E0,1.1551625E0,-7.3109466E-1,-1.3337308E0,-1.1960199E0,-3.740477E-1,-1.1733158E0,3.2525474E-1,-2.811607E-1,6.288073E-1,-1.2484645E0,6.331321E-1,-3.4181422E-1,7.2776634E-1,-2.8399485E-1,8.959582E-1,1.0109036E0,1.2696084E0,-1.0117047E0,-6.520407E-1,7.067231E-1,-7.219507E-1,-1.3271527E0,-2.5327513E-1,3.770546E-2,9.9037015E-1,-1.0613712E0,-1.2622342E0,-2.2090429E-1,-1.305184E0,7.573609E-2,1.2781587E0,-7.981799E-1,4.6787646E-1,-1.3213004E0,-3.3433187E-1,-8.741603E-2,-1.3539636E0,1.5154806E-1,-7.883424E-1,1.0768074E0,-6.2659293E-1,1.7102599E-1,1.2070665E0,4.4603485E-1,1.3198335E0,-3.2718828E-1,7.053973E-1,1.3401482E0,4.4431388E-1],"categories":[],"categories_nodes":[],"categories_segments":[],"categories_sizes":[],"default_left":[true,true,true,true,true,true,true,true,false,true,true,true,true,true,true,true,true,true,true,true,true,true,true,true,true,true,true,true,true,true,false,true,true,true,true,true,true,true,true,true,true,true,true,true,true,true,true,true,true,true,true,true,true,true,true,true,true,false,false,false,false,false,false,false,false,false,false,false,false,false,false,false,false,false,false,false,false,false,false,false,false,false,false,false,false,false,false,false,false,false,false,false,false,false,false,false,false,false,false,false,false,false,false,false,false,false,false,false,false,false,false],"id":2,"left_children":[1,3,5,7,9,11,13,15,-1,17,19,21,23,25,27,29,31,33,35,37,39,41,43,45,47,49,51,53,55,57,-1,59,61,63,65,67,69,71,73,75,77,79,81,83,85,87,89,91,93,95,97,99,101,103,105,107,109,-1,-1,-1,-1,-1,-1,-1,-1,-1,-1,-1,-1,-1,-1,-1,-1,-1,-1,-1,-1,-1,-1,-1,-1,-1,-1,-1,-1,-1,-1,-1,-1,-1,-1,-1,-1,-1,-1,-1,-1,-1,-1,-1,-1,-1,-1,-1,-1,-1,-1,-1,-1,-1,-1],"loss_changes":[4.2727977E4,8.082344E2,1.6123973E4,1.02109375E1,2.6157168E3,2.0889844E2,3.8330469E3,1.847168E1,0E0,1.1918945E2,3.539056E2,1.4864087E2,1.2795386E2,4.0083228E2,2.0213672E2,1.7304688E0,3.406787E1,2.73125E1,4.7489502E1,4.961916E1,7.5581726E1,5.7471436E1,1.2121059E2,1.659253E1,5.8964077E1,6.833148E1,2.2185689E2,3.471289E1,1.21703125E2,4.707802E0,0E0,1.6439941E1,5.822094E1,1.5915039E1,3.1042389E1,1.3404739E1,1.8043242E1,8.4989456E1,3.26888E1,4.8994396E1,7.7389526E0,4.1854126E1,3.6586533E1,6.2413208E1,3.687938E1,1.4390625E1,4.786743E0,1.7204666E0,2.6434305E1,1.8907471E0,3.136867E1,1.2504413E2,1.5228943E1,8.0430725E1,3.0439453E1,5.3720184E1,9.1534424E-1,0E0,0E0,0E0,0E0,0E0,0E0,0E0,0E0,0E0,0E0,0E0,0E0,0E0,0E0,0E0,0E0,0E0,0E0,0E0,0E0,0E0,0E0,0E0,0E0,0E0,0E0,0E0,0E0,0E0,0E0,0E0,0E0,0E0,0E0,0E0,0E0,0E0,0E0,0E0,0E0,0E0,0E0,0E0,0E0,0E0,0E0,0E0,0E0,0E0,0E0,0E0,0E0,0E0,0E0],"parents":[2147483647,0,0,1,1,2,2,3,3,4,4,5,5,6,6,7,7,9,9,10,10,11,11,12,12,13,13,14,14,15,15,16,16,17,17,18,18,19,19,20,20,21,21,22,22,23,23,24,24,25,25,26,26,27,27,28,28,29,29,31,31,32,32,33,33,34,34,35,35,36,36,37,37,38,38,39,39,40,40,41,41,42,42,43,43,44,44,45,45,46,46,47,47,48,48,49,49,50,50,51,51,52,52,53,53,54,54,55,55,56,56],"right_children":[2,4,6,8,10,12,14,16,-1,18,20,22,24,26,28,30,32,34,36,38,40,42,44,46,48,50,52,54,56,58,-1,60,62,64,66,68,70,72,74,76,78,80,82,84,86,88,90,92,94,96,98,100,102,104,106,108,110,-1,-1,-1,-1,-1,-1,-1,-1,-1,-1,-1,-1,-1,-1,-1,-1,-1,-1,-1,-1,-1,-1,-1,-1,-1,-1,-1,-1,-1,-1,-1,-1,-1,-1,-1,-1,-1,-1,-1,-1,-1,-1,-1,-1,-1,-1,-1,-1,-1,-1,-1,-1,-1,-1],"split_conditions":[5.936995E1,5E-1,5E-1,3.13945E-1,5E-1,2.43745E-1,5E-1,4.5105E-2,-4.0055218E-1,5E-1,5E-1,5E-1,1.95E1,2.0365E-2,1.24855E-1,4.6898E-4,2.65E1,5E-1,5.1620003E1,5E-1,1.55E1,2.38045E-1,5E-1,9.5E0,6.2162E-1,5E-1,5E-1,5E-1,1.95E1,5.47E1,-4.003632E-1,9.5E0,5.00982E-1,4.5679502E-2,5.1202E-2,2.65E1,1.25E1,1.55E1,4.64945E-2,5.6575E1,5.6785E1,5E-1,2.43815E-1,5E-1,2.2578001E-1,5E-1,4E-5,1.416E-2,5E-1,5.05E1,6.003145E1,9.5E0,6.007E1,5E-1,3.184E-10,1.05E-4,8.5E0,-3.742516E-1,-1.7527378E-1,-3.5387874E-1,-3.9420214E-1,-3.7183374E-1,3.4654874E-1,-2.193284E-1,-4.0011927E-1,-3.5880598E-1,-1.1221431E-1,-3.5199475E-1,9.7576424E-2,-8.434822E-2,1.886422E-1,-3.7453935E-1,1.8993963E-1,-1.0254427E-1,2.183299E-1,-8.519846E-2,2.6878747E-1,3.0327109E-1,3.8088253E-1,-3.035114E-1,-1.9561222E-1,2.1201694E-1,-2.1658522E-1,-3.9814582E-1,-7.598254E-2,1.1311638E-2,2.9711106E-1,-3.1841138E-1,-3.7867028E-1,-6.627129E-2,-3.9155522E-1,2.2720829E-2,3.8344762E-1,-2.3945399E-1,1.4036295E-1,-3.9639014E-1,-1.0029957E-1,-2.622481E-2,-4.061891E-1,4.546442E-2,-2.3650274E-1,3.230422E-1,-1.879779E-1,5.13078E-2,3.6211997E-1,1.3381046E-1,3.9595008E-1,-9.815649E-2,2.116192E-1,4.0204448E-1,1.3329417E-1],"split_indices":[4,0,2,8,1,7,0,8,0,2,2,1,6,8,7,7,6,3,4,3,6,7,0,6,8,1,1,1,6,4,0,6,7,7,7,6,6,6,7,4,4,0,8,3,8,1,8,8,1,6,5,6,5,3,7,8,9,0,0,0,0,0,0,0,0,0,0,0,0,0,0,0,0,0,0,0,0,0,0,0,0,0,0,0,0,0,0,0,0,0,0,0,0,0,0,0,0,0,0,0,0,0,0,0,0,0,0,0,0,0,0],"split_type":[0,0,0,0,0,0,0,0,0,0,0,0,0,0,0,0,0,0,0,0,0,0,0,0,0,0,0,0,0,0,0,0,0,0,0,0,0,0,0,0,0,0,0,0,0,0,0,0,0,0,0,0,0,0,0,0,0,0,0,0,0,0,0,0,0,0,0,0,0,0,0,0,0,0,0,0,0,0,0,0,0,0,0,0,0,0,0,0,0,0,0,0,0,0,0,0,0,0,0,0,0,0,0,0,0,0,0,0,0,0,0],"sum_hessian":[5.5159477E4,3.5629508E4,1.9529967E4,3.112181E4,4.5076978E3,4.9512856E3,1.4578682E4,9.565585E3,2.1556225E4,3.5705166E3,9.371813E2,2.0769175E3,2.8743684E3,1.2960623E3,1.3282619E4,5.5411675E3,4.0244167E3,3.3935696E3,1.7694713E2,2.5115114E2,6.860301E2,1.6816648E3,3.9525272E2,2.7605063E3,1.1386211E2,5.766209E2,7.1944135E2,1.2147935E4,1.1346842E3,8.3230736E1,5.457937E3,3.9835237E3,4.089307E1,3.1713938E3,2.2217572E2,7.5604164E1,1.0134297E2,1.3287447E2,1.1827668E2,1.3923003E2,5.468001E2,1.6118782E3,6.978662E1,2.3216293E2,1.630898E2,1.6733564E3,1.0871499E3,2.4782185E1,8.907992E1,4.7428848E2,1.02332436E2,5.6492377E2,1.5451753E2,7.280225E2,1.1419912E4,7.696142E2,3.6507E2,6.73037E1,1.5927032E1,1.9639086E3,2.0196152E3,2.5313784E1,1.5579288E1,4.8422653E1,3.1229712E3,1.5541197E2,6.676374E1,6.9500595E1,6.103571E0,7.1118195E1,3.0224773E1,1.0228413E2,3.059034E1,7.252667E1,4.575001E1,6.721464E1,7.201539E1,2.4354805E2,3.0325204E2,1.1504225E3,4.6145572E2,3.614078E1,3.364584E1,8.527511E1,1.4688782E2,8.96194E1,7.34704E1,1.0616831E3,6.116733E2,4.5377417E0,1.082612E3,1.3879921E0,2.3394192E1,6.815876E1,2.0921162E1,4.7154303E2,2.7454386E0,7.7055786E1,2.5276648E1,2.7666467E2,2.8825912E2,1.4969626E2,4.821276E0,8.52108E1,6.4281177E2,4.1294983E1,1.1378617E4,5.3625828E1,7.159884E2,3.6268164E2,2.388359E0],"tree_param":{"num_deleted":"0","num_feature":"10","num_nodes":"111","size_leaf_vector":"0"}},{"base_weights":[-5.4836434E-1,-1.1368852E0,5.2154565E-1,-1.2013898E0,-7.234189E-1,-8.1449056E-1,9.857157E-1,-1.1644464E0,-1.2180012E0,-1.1248469E0,5.5628985E-1,-1.0056055E0,-5.447693E-1,-4.119216E-1,1.1351601E0,-1.2113507E0,-1.0964417E0,-1.1741557E0,-3.4131962E-1,-2.9804552E-1,8.580905E-1,-1.077448E0,-4.9343628E-1,-7.3028475E-1,3.5831237E-1,-6.9553506E-1,4.1381168E-1,7.4860334E-1,1.1843865E0,-1.218145E0,-1.0883552E0,-1.1482835E0,-9.3828815E-1,-1.2047975E0,-7.7096575E-1,-7.3838776E-1,1.17627725E-1,-2.5916651E-3,-7.34493E-1,9.678591E-1,-5.592923E-2,-1.1891304E0,-9.9803835E-1,-1.2455753E0,-1.251347E-1,-7.9126185E-1,-1.6504055E-1,-4.7020566E-1,5.286754E-1,-8.5283405E-1,4.3126893E-1,-1.7418334E-1,6.3812697E-1,1.0002342E0,4.4339448E-1,8.7272084E-1,1.1988367E0,-1.2215239E0,-1.1077931E0,-3.3455172E-1,-1.1235743E0,-1.0812145E0,-1.2094284E0,-1.1034955E0,2.5402287E-1,-5.912262E-1,-1.2161641E0,-1.0312039E0,-2.485496E-1,-3.3841E-1,-1.0192554E0,-2.3486298E-1,5.1386267E-1,-9.759884E-1,1.58514E-1,-8.352602E-1,6.113159E-1,1.5182018E-1,1.0166718E0,-3.684493E-1,1.1893908E0,-1.0105896E0,-1.2233793E0,-9.113011E-1,-1.1244469E0,-3.6082798E-1,-1.2591435E0,-4.773629E-2,-1.071277E0,-1.0963994E0,-7.5003254E-1,-9.648076E-1,4.379381E-1,-1.3405159E0,2.0809615E-1,3.6224046E-1,9.850139E-1,-1.1969684E0,-5.698834E-1,-4.6298155E-1,1.2757812E0,-1.680994E-2,-1.3808204E0,8.708659E-1,1.8907885E-1,-1.4001536E0,1.0088485E0,-6.372642E-1,5.0654477E-1,3.8698238E-1,1.1305715E0,4.0295812E-1,1.2028332E0],"categories":[],"categories_nodes":[],"categories_segments":[],"categories_sizes":[],"default_left":[true,true,true,true,true,true,true,true,false,true,true,true,true,true,true,true,true,true,true,true,true,true,true,true,true,true,true,true,true,true,true,true,true,true,true,true,true,true,true,true,true,true,true,true,true,true,true,true,true,true,true,true,true,true,true,true,true,false,false,false,false,false,false,false,false,false,false,false,false,false,false,false,false,false,false,false,false,false,false,false,false,false,false,false,false,false,false,false,false,false,false,false,false,false,false,false,false,false,false,false,false,false,false,false,false,false,false,false,false,false,false,false,false],"id":3,"left_children":[1,3,5,7,9,11,13,15,-1,17,19,21,23,25,27,29,31,33,35,37,39,41,43,45,47,49,51,53,55,57,59,61,63,65,67,69,71,73,75,77,79,81,83,85,87,89,91,93,95,97,99,101,103,105,107,109,111,-1,-1,-1,-1,-1,-1,-1,-1,-1,-1,-1,-1,-1,-1,-1,-1,-1,-1,-1,-1,-1,-1,-1,-1,-1,-1,-1,-1,-1,-1,-1,-1,-1,-1,-1,-1,-1,-1,-1,-1,-1,-1,-1,-1,-1,-1,-1,-1,-1,-1,-1,-1,-1,-1,-1,-1],"loss_changes":[2.831761E4,7.729219E2,9.898106E3,1.3984375E1,2.0133308E3,2.1160254E2,2.4745176E3,2.3573242E1,0E0,1.148374E2,2.4164896E2,8.805835E1,2.8657666E2,2.68418E2,2.0274121E2,2.5273438E0,2.5136475E1,3.373462E1,3.252559E1,3.1608227E1,6.949118E1,1.7531738E1,8.240018E1,4.874597E1,4.145135E1,1.5148566E2,3.8801304E1,9.260089E1,4.1695312E1,2.7294922E-1,6.281067E0,8.548828E0,1.5683344E2,1.745459E1,2.7063133E1,1.0391994E1,1.1773568E1,2.3235786E1,1.3929863E1,2.4459839E1,2.9685318E1,4.0948486E0,1.2568359E1,7.203064E-1,1.4680517E1,1.5277405E1,6.7620804E1,2.9981953E1,1.8068405E1,7.220044E1,7.996602E1,1.5507961E1,2.204898E1,1.5126892E1,3.7807068E1,5.269287E1,2.8356445E1,0E0,0E0,0E0,0E0,0E0,0E0,0E0,0E0,0E0,0E0,0E0,0E0,0E0,0E0,0E0,0E0,0E0,0E0,0E0,0E0,0E0,0E0,0E0,0E0,0E0,0E0,0E0,0E0,0E0,0E0,0E0,0E0,0E0,0E0,0E0,0E0,0E0,0E0,0E0,0E0,0E0,0E0,0E0,0E0,0E0,0E0,0E0,0E0,0E0,0E0,0E0,0E0,0E0,0E0,0E0,0E0],"parents":[2147483647,0,0,1,1,2,2,3,3,4,4,5,5,6,6,7,7,9,9,10,10,11,11,12,12,13,13,14,14,15,15,16,16,17,17,18,18,19,19,20,20,21,21,22,22,23,23,24,24,25,25,26,26,27,27,28,28,29,29,30,30,31,31,32,32,33,33,34,34,35,35,36,36,37,37,38,38,39,39,40,40,41,41,42,42,43,43,44,44,45,45,46,46,47,47,48,48,49,49,50,50,51,51,52,52,53,53,54,54,55,55,56,56],"right_children":[2,4,6,8,10,12,14,16,-1,18,20,22,24,26,28,30,32,34,36,38,40,42,44,46,48,50,52,54,56,58,60,62,64,66,68,70,72,74,76,78,80,82,84,86,88,90,92,94,96,98,100,102,104,106,108,110,112,-1,-1,-1,-1,-1,-1,-1,-1,-1,-1,-1,-1,-1,-1,-1,-1,-1,-1,-1,-1,-1,-1,-1,-1,-1,-1,-1,-1,-1,-1,-1,-1,-1,-1,-1,-1,-1,-1,-1,-1,-1,-1,-1,-1,-1,-1,-1,-1,-1,-1,-1,-1,-1,-1,-1,-1],"split_conditions":[5.955955E1,5E-1,5E-1,3.1415498E-1,5E-1,5E-1,5E-1,4.98E-2,-3.6540037E-1,5E-1,5E-1,1.25E1,5E-1,5E-1,1.15E1,5.801945E1,5E-1,5E-1,5.4605003E1,5.6405E-2,1.37855E-1,5E-1,7.4577997E-7,5E-1,5.3460002E-2,2.65E1,4.4864997E-2,2.43415E-1,5E-1,2.65E1,5.78301E1,9.5E0,5E-1,4.5679502E-2,5.1202E-2,1.7629999E-1,5E-1,9.15E-3,2.65E1,4.8614998E1,1.95E1,2.5834E-1,9.5E0,3.554E-2,6.0010002E1,9.793E-2,4.5295E-2,5E-1,5E-1,1.219E-2,8.470001E-3,1.17495E-1,1.20189995E-1,1.5E-5,5E-6,5E-1,7.9999496E-10,-3.6645716E-1,-3.3233795E-1,-1.0036552E-1,-3.3707228E-1,-3.2436436E-1,-3.6282855E-1,-3.3104867E-1,7.620686E-2,-1.7736787E-1,-3.6484924E-1,-3.0936116E-1,-7.456488E-2,-1.01523004E-1,-3.0577663E-1,-7.04589E-2,1.541588E-1,-2.9279652E-1,4.75542E-2,-2.5057808E-1,1.8339477E-1,4.5546055E-2,3.0500156E-1,-1.10534795E-1,3.5681725E-1,-3.0317688E-1,-3.6701378E-1,-2.7339032E-1,-3.3733407E-1,-1.082484E-1,-3.7774307E-1,-1.4320888E-2,-3.2138312E-1,-3.2891983E-1,-2.2500977E-1,-2.894423E-1,1.3138144E-1,-4.0215477E-1,6.2428847E-2,1.0867214E-1,2.9550418E-1,-3.5909054E-1,-1.7096503E-1,-1.3889447E-1,3.8273436E-1,-5.0429823E-3,-4.1424614E-1,2.6125976E-1,5.6723658E-2,-4.2004612E-1,3.0265456E-1,-1.9117926E-1,1.5196344E-1,1.16094716E-1,3.3917147E-1,1.2088744E-1,3.6084998E-1],"split_indices":[4,0,2,8,1,3,0,8,0,2,2,6,0,3,6,4,2,3,4,8,7,0,7,1,8,6,8,7,1,6,5,6,3,7,7,7,3,8,6,4,6,8,6,8,5,8,7,1,1,8,8,7,7,8,8,3,7,0,0,0,0,0,0,0,0,0,0,0,0,0,0,0,0,0,0,0,0,0,0,0,0,0,0,0,0,0,0,0,0,0,0,0,0,0,0,0,0,0,0,0,0,0,0,0,0,0,0,0,0,0,0,0,0],"split_type":[0,0,0,0,0,0,0,0,0,0,0,0,0,0,0,0,0,0,0,0,0,0,0,0,0,0,0,0,0,0,0,0,0,0,0,0,0,0,0,0,0,0,0,0,0,0,0,0,0,0,0,0,0,0,0,0,0,0,0,0,0,0,0,0,0,0,0,0,0,0,0,0,0,0,0,0,0,0,0,0,0,0,0,0,0,0,0,0,0,0,0,0,0,0,0,0,0,0,0,0,0,0,0,0,0,0,0,0,0,0,0,0,0],"sum_hessian":[4.4970613E4,2.901203E4,1.5958584E4,2.5095057E4,3.916972E3,4.11461E3,1.1843975E4,7.8059575E3,1.72891E4,2.981755E3,9.3521686E2,2.40663E3,1.7079802E3,1.1439302E3,1.0700044E4,4.609719E3,3.1962383E3,2.8047485E3,1.7700655E2,2.4413458E2,6.910823E2,2.1096086E3,2.970212E2,1.4170701E3,2.9091013E2,8.515925E2,2.9233768E2,1.2105154E3,9.489528E3,4.35997E3,2.4974895E2,2.4024656E3,7.9377277E2,2.6048E3,1.9994836E2,9.457451E1,8.243204E1,1.4618224E2,9.7952354E1,6.1693317E2,7.414909E1,8.7085583E2,1.2387528E3,9.685127E1,2.0016994E2,1.2787247E3,1.3834541E2,4.9315662E1,2.4159448E2,7.474882E2,1.0410431E2,8.078925E1,2.1154843E2,6.622462E2,5.4826917E2,4.232016E2,9.066327E3,4.2206665E3,1.393038E2,1.1616506E1,2.3813245E2,1.1546409E3,1.2478247E3,6.972376E2,9.653514E1,4.8341553E1,2.5564585E3,1.3281403E2,6.713434E1,3.9924183E1,5.4650322E1,4.3839592E1,3.859245E1,2.0040419E1,1.2614182E2,9.148202E1,6.4703345E0,3.5052044E1,5.8188116E2,5.9836838E1,1.4312258E1,1.4507559E2,7.257802E2,7.39525E2,4.992278E2,1.8796084E0,9.4971664E1,1.8600444E2,1.4165489E1,1.49165E2,1.1295597E3,5.921066E1,7.913476E1,2.117295E1,2.814271E1,1.7834326E2,6.3251213E1,3.3582092E2,4.116673E2,5.07826E1,5.332171E1,7.23651E1,8.424152E0,1.387143E2,7.283414E1,1.7904639E0,6.6045575E2,2.9768291E1,5.185009E2,1.4761868E2,2.7558292E2,4.5808064E1,9.020519E3],"tree_param":{"num_deleted":"0","num_feature":"10","num_nodes":"113","size_leaf_vector":"0"}},{"base_weights":[-5.013525E-1,-1.0746795E0,4.3574178E-1,-1.1236749E0,-7.41798E-1,-7.0436E-1,8.8196576E-1,-1.080015E0,-1.14326E0,-1.0451722E0,3.2363287E-1,-8.9572E-1,-4.499029E-1,-3.5383478E-1,1.0355418E0,-1.1393919E0,-1.0002611E0,-1.1579599E0,-1.1365707E0,-1.094286E0,-3.2516795E-1,-2.7525255E-1,6.982348E-1,-9.779528E-1,-3.7788305E-1,-6.1410254E-1,2.7886635E-1,-9.36881E-1,-2.6949665E-2,6.005011E-1,1.0981146E0,-8.364973E-1,-1.1431736E0,-1.0124536E0,1.8352862E-2,-1.19935796E-1,-1.1366755E0,-1.128422E0,-6.9139403E-1,-9.020627E-1,-8.133156E-2,-7.8291005E-1,2.6248455E-1,1.1724659E-1,8.331067E-1,-1.1054841E0,-8.930004E-1,-1.1026486E0,-9.87598E-2,-1.0157148E0,-5.5315214E-1,-4.733248E-2,5.7878417E-1,-1.1214402E0,-2.7315024E-1,-2.2917607E-1,7.7129847E-1,9.107551E-1,3.5844493E-1,7.4057835E-1,1.1162162E0,-1.1057745E0,-2.6097998E-1,-9.1589046E-1,-1.113077E0,-9.922472E-1,1.1192317E0,-1.1264697E0,-1.1522726E0,-5.3664786E-1,-1.139832E0,-9.2004156E-1,-2.4934673E-1,-1.0990537E0,-3.89234E-1,-5.7275504E-1,2.4860653E-1,-3.4597898E-1,-1.0080458E0,-3.070869E-1,5.704607E-1,-1.13280326E-1,1.172283E0,3.375787E-1,9.005646E-1,-9.381857E-1,-1.1422106E0,-1.1080341E0,-8.1623054E-1,3.8320872E-1,-1.128731E0,-3.422306E-1,2.3484303E-1,-1.0984824E0,-8.3832586E-1,-6.2688774E-1,1.9028053E-1,1.0572135E0,-1.698865E-1,1.1155155E0,4.3632358E-1,-4.3512878E-1,-1.1330763E0,-1.0204334E-3,-1.2002968E0,1.4366493E-1,-6.099198E-1,8.248042E-1,-7.9913014E-1,-1.2644957E0,9.2477083E-1,-3.1341216E-1,4.180261E-1,3.0035105E-1,1.018205E0,3.2603028E-1,1.1214622E0],"categories":[],"categories_nodes":[],"categories_segments":[],"categories_sizes":[],"default_left":[true,true,true,true,true,true,true,true,true,true,true,true,true,true,true,true,true,false,true,true,true,true,true,true,true,true,true,true,true,true,true,true,false,true,true,false,true,true,true,true,true,true,true,true,true,true,true,true,true,true,true,true,true,true,true,true,true,true,true,true,true,false,false,false,false,false,false,false,false,false,false,false,false,false,false,false,false,false,false,false,false,false,false,false,false,false,false,false,false,false,false,false,false,false,false,false,false,false,false,false,false,false,false,false,false,false,false,false,false,false,false,false,false,false,false,false,false],"id":4,"left_children":[1,3,5,7,9,11,13,15,17,19,21,23,25,27,29,31,33,-1,35,37,39,41,43,45,47,49,51,53,55,57,59,61,-1,63,65,-1,67,69,71,73,75,77,79,81,83,85,87,89,91,93,95,97,99,101,103,105,107,109,111,113,115,-1,-1,-1,-1,-1,-1,-1,-1,-1,-1,-1,-1,-1,-1,-1,-1,-1,-1,-1,-1,-1,-1,-1,-1,-1,-1,-1,-1,-1,-1,-1,-1,-1,-1,-1,-1,-1,-1,-1,-1,-1,-1,-1,-1,-1,-1,-1,-1,-1,-1,-1,-1,-1,-1,-1,-1],"loss_changes":[1.9364676E4,3.638789E2,6.9610737E3,1.5431641E1,9.286323E2,1.8702307E2,1.8666763E3,2.752832E1,3.90625E-3,7.870288E1,1.4316489E2,9.314099E1,1.9811813E2,2.0728038E2,2.3744531E2,3.010254E0,3.2206787E1,0E0,8.535156E-1,2.7998291E1,2.0209238E1,6.734657E1,3.064592E1,1.9536865E1,6.1098637E1,3.2492126E1,2.9852903E1,4.755603E1,1.12850914E2,8.24393E1,4.865625E1,6.9067993E0,0E0,2.3865723E1,3.6309273E1,0E0,1.8066406E-1,1.2403076E1,1.6551353E1,3.8897781E0,1.6753437E1,1.2120926E1,2.1257479E1,1.8394136E1,1.0334534E1,3.5561523E0,1.7951233E1,3.6889496E0,1.7911472E1,1.6739197E0,6.450781E1,2.0072687E1,1.166362E1,1.9458618E0,2.178011E1,7.925342E1,1.2533287E1,1.5875244E1,2.497908E1,4.508777E1,2.9792969E1,0E0,0E0,0E0,0E0,0E0,0E0,0E0,0E0,0E0,0E0,0E0,0E0,0E0,0E0,0E0,0E0,0E0,0E0,0E0,0E0,0E0,0E0,0E0,0E0,0E0,0E0,0E0,0E0,0E0,0E0,0E0,0E0,0E0,0E0,0E0,0E0,0E0,0E0,0E0,0E0,0E0,0E0,0E0,0E0,0E0,0E0,0E0,0E0,0E0,0E0,0E0,0E0,0E0,0E0,0E0,0E0],"parents":[2147483647,0,0,1,1,2,2,3,3,4,4,5,5,6,6,7,7,8,8,9,9,10,10,11,11,12,12,13,13,14,14,15,15,16,16,18,18,19,19,20,20,21,21,22,22,23,23,24,24,25,25,26,26,27,27,28,28,29,29,30,30,31,31,33,33,34,34,36,36,37,37,38,38,39,39,40,40,41,41,42,42,43,43,44,44,45,45,46,46,47,47,48,48,49,49,50,50,51,51,52,52,53,53,54,54,55,55,56,56,57,57,58,58,59,59,60,60],"right_children":[2,4,6,8,10,12,14,16,18,20,22,24,26,28,30,32,34,-1,36,38,40,42,44,46,48,50,52,54,56,58,60,62,-1,64,66,-1,68,70,72,74,76,78,80,82,84,86,88,90,92,94,96,98,100,102,104,106,108,110,112,114,116,-1,-1,-1,-1,-1,-1,-1,-1,-1,-1,-1,-1,-1,-1,-1,-1,-1,-1,-1,-1,-1,-1,-1,-1,-1,-1,-1,-1,-1,-1,-1,-1,-1,-1,-1,-1,-1,-1,-1,-1,-1,-1,-1,-1,-1,-1,-1,-1,-1,-1,-1,-1,-1,-1,-1,-1],"split_conditions":[5.9006798E1,5E-1,5E-1,3.1415498E-1,5E-1,5E-1,5E-1,4.6575002E-2,5.1562E-2,5E-1,1.55E1,1.25E1,5E-1,1.1975E-2,1.15E1,3.13995E-4,2.65E1,-3.47388E-1,5.1609002E-2,5E-1,4.9245003E1,5E-1,5E-1,5E-1,7.4577997E-7,9.508E-2,4.81375E-2,5E-1,5E-1,1.4794E-1,5E-1,4.62988E1,-3.4295207E-1,9.5E0,5.00982E-1,-3.598074E-2,2.4842E-1,4.5679502E-2,5.4222003E-2,1.25E1,4.136E-2,1.8679999E-2,4.64945E-2,2.3826E-2,5E-6,2.1751499E-1,5.9995003E1,5.907E1,5E-1,6.305E-2,5E-1,1.03675E-3,6.0472E-2,2.2737001E-4,6.003145E1,9.5E0,6.5E0,1.93E-3,1.05E-4,5E-1,1.3063E-9,-3.3173236E-1,-7.8293994E-2,-2.7476716E-1,-3.3392313E-1,-2.9767418E-1,3.3576953E-1,-3.3794093E-1,-3.456818E-1,-1.6099437E-1,-3.419496E-1,-2.7601248E-1,-7.480402E-2,-3.2971615E-1,-1.1677021E-1,-1.7182651E-1,7.4581966E-2,-1.03793696E-1,-3.0241376E-1,-9.212608E-2,1.7113821E-1,-3.39841E-2,3.5168493E-1,1.0127362E-1,2.701694E-1,-2.8145573E-1,-3.426632E-1,-3.3241025E-1,-2.4486917E-1,1.1496262E-1,-3.3861932E-1,-1.0266918E-1,7.045291E-2,-3.2954472E-1,-2.5149778E-1,-1.8806633E-1,5.708416E-2,3.1716406E-1,-5.0965954E-2,3.3465466E-1,1.3089707E-1,-1.3053864E-1,-3.399229E-1,-3.0613004E-4,-3.6008903E-1,4.3099478E-2,-1.8297595E-1,2.4744126E-1,-2.3973905E-1,-3.7934873E-1,2.7743125E-1,-9.402365E-2,1.2540783E-1,9.010532E-2,3.0546153E-1,9.780909E-2,3.364387E-1],"split_indices":[4,0,2,8,1,3,0,8,7,2,6,6,0,8,6,7,6,0,7,3,4,3,2,0,7,8,7,1,1,7,1,4,0,6,7,0,7,7,7,6,8,8,7,7,8,8,4,5,1,8,1,7,7,7,5,6,9,8,8,3,7,0,0,0,0,0,0,0,0,0,0,0,0,0,0,0,0,0,0,0,0,0,0,0,0,0,0,0,0,0,0,0,0,0,0,0,0,0,0,0,0,0,0,0,0,0,0,0,0,0,0,0,0,0,0,0,0],"split_type":[0,0,0,0,0,0,0,0,0,0,0,0,0,0,0,0,0,0,0,0,0,0,0,0,0,0,0,0,0,0,0,0,0,0,0,0,0,0,0,0,0,0,0,0,0,0,0,0,0,0,0,0,0,0,0,0,0,0,0,0,0,0,0,0,0,0,0,0,0,0,0,0,0,0,0,0,0,0,0,0,0,0,0,0,0,0,0,0,0,0,0,0,0,0,0,0,0,0,0,0,0,0,0,0,0,0,0,0,0,0,0,0,0,0,0,0,0],"sum_hessian":[3.604143E4,2.2360703E4,1.3680729E4,1.9489723E4,2.8709814E3,3.8481445E3,9.832584E3,6.052779E3,1.3436943E4,2.2346882E3,6.3629333E2,2.1949502E3,1.6531942E3,1.0867097E3,8.745874E3,3.4620112E3,2.5907676E3,4.1484443E3,9.288499E3,2.0915002E3,1.4318782E2,2.4495035E2,3.9134296E2,1.8933904E3,3.0155988E2,1.3493323E3,3.038619E2,3.897209E2,6.9698883E2,1.1010901E3,7.6447837E3,4.54297E1,3.4165815E3,2.5601296E3,3.0637926E1,1.0756245E0,9.287423E3,1.9264742E3,1.6502606E2,4.173861E1,1.0144921E2,1.2576468E2,1.1918566E2,7.408332E1,3.1725964E2,7.5218695E2,1.1412034E3,8.302598E1,2.185339E2,1.7573306E2,1.1735992E3,1.4595714E2,1.5790479E2,3.0439124E2,8.532964E1,5.566749E2,1.403139E2,4.8135443E2,6.1973566E2,3.7041226E2,7.2743716E3,3.0321362E1,1.51083355E1,1.3115779E3,1.2485519E3,1.602539E1,1.46125345E1,5.6582627E3,3.6291606E3,3.735058E1,1.8891237E3,1.080541E2,5.6971962E1,2.932932E1,1.2409287E1,4.045617E1,6.0993042E1,4.3628887E1,8.2135796E1,4.182933E1,7.735633E1,6.1531284E1,1.2552041E1,3.8734024E1,2.7852563E2,1.4017935E2,6.1200757E2,2.9670227E2,8.4450116E2,1.1960759E0,8.18299E1,1.263182E2,9.22157E1,1.16283905E2,5.944916E1,1.0678445E3,1.057548E2,1.3815478E1,1.3214166E2,3.1687881E1,1.262169E2,5.714928E0,2.986763E2,6.674129E1,1.8588354E1,2.8157095E2,2.75104E2,1.3614995E2,4.163943E0,2.5104525E0,4.78844E2,5.0135105E1,5.696005E2,1.4406036E2,2.263519E2,4.8392967E1,7.2259785E3],"tree_param":{"num_deleted":"0","num_feature":"10","num_nodes":"117","size_leaf_vector":"0"}},{"base_weights":[-4.6233347E-1,-1.0124869E0,3.8927403E-1,-1.0657607E0,-6.687321E-1,-5.935779E-1,8.0023724E-1,-1.0101295E0,-1.0911698E0,-9.6832806E-1,2.6223904E-1,-7.911108E-1,-3.5552338E-1,-2.8406683E-1,9.5512575E-1,-1.0858608E0,-9.122115E-1,-1.1097292E0,-1.0827694E0,-1.0278101E0,-2.5127107E-1,-1.4564991E-1,6.53977E-1,-8.8037884E-1,-2.9799026E-1,-4.9478447E-1,1.9949326E-1,-7.136726E-1,7.881317E-2,4.8564368E-1,1.0322366E0,-7.36232E-1,-1.0906311E0,-9.8022765E-1,-7.2073275E-1,-1.0290747E-1,-1.0828983E0,-1.0715971E0,-5.7224274E-1,-3.678597E-1,8.359696E-1,-5.828125E-1,2.0268363E-1,-8.269859E-2,7.164346E-1,-1.0402085E0,-7.8049415E-1,-7.7195264E-2,-1.0233388E0,-9.0346175E-1,-4.3147936E-1,3.6229305E-2,5.762622E-1,-9.408441E-1,-8.24006E-2,4.1099244E-1,-5.6454283E-1,8.0661976E-1,2.700357E-1,6.234128E-1,1.0552695E0,-1.0397452E0,-1.9900458E-1,-1.094987E0,-9.4316983E-1,-8.7895304E-1,-1.0783606E0,-9.215029E-1,4.2916137E-1,-1.070131E0,-1.1025352E0,-1.10156E0,-7.3676825E-1,-6.177785E-1,1.5807877E0,5.5704817E-2,-8.257152E-1,-1.0294491E0,1.1835908E0,-2.2876824E-1,-8.786514E-1,-1.693331E-1,6.4695954E-1,3.1373405E-1,-1.1243347E0,-3.038766E-1,7.527921E-1,-8.4558725E-1,-1.0883425E0,-1.0272678E0,-6.982024E-1,-3.604854E-2,-1.1968809E0,3.1580126E-1,-1.0538929E0,-1.1293503E0,-7.02182E-1,-1.9173448E-1,-6.25519E-1,-7.7182066E-1,2.1710384E-1,-1.1832337E0,6.830628E-1,-1.0565132E0,-6.33689E-1,2.2810698E-1,-7.644595E-1,1.9379105E-1,9.945383E-1,-1.803709E-1,-1.029264E0,6.082182E-1,9.681387E-1,-2.2492695E-1,3.338782E-1,2.2212403E-1,9.246194E-1,1.4441206E-1,1.061226E0],"categories":[],"categories_nodes":[],"categories_segments":[],"categories_sizes":[],"default_left":[true,true,true,true,true,true,true,true,true,true,true,true,true,true,true,true,true,false,true,true,true,true,true,true,true,true,true,true,true,true,true,true,true,true,true,false,true,true,true,true,true,true,true,true,true,true,true,true,true,true,true,true,true,true,true,true,true,true,true,true,true,false,false,false,false,false,false,false,false,false,false,false,false,false,false,false,false,false,false,false,false,false,false,false,false,false,false,false,false,false,false,false,false,false,false,false,false,false,false,false,false,false,false,false,false,false,false,false,false,false,false,false,false,false,false,false,false,false,false],"id":5,"left_children":[1,3,5,7,9,11,13,15,17,19,21,23,25,27,29,31,33,-1,35,37,39,41,43,45,47,49,51,53,55,57,59,61,63,65,67,-1,69,71,73,75,77,79,81,83,85,87,89,91,93,95,97,99,101,103,105,107,109,111,113,115,117,-1,-1,-1,-1,-1,-1,-1,-1,-1,-1,-1,-1,-1,-1,-1,-1,-1,-1,-1,-1,-1,-1,-1,-1,-1,-1,-1,-1,-1,-1,-1,-1,-1,-1,-1,-1,-1,-1,-1,-1,-1,-1,-1,-1,-1,-1,-1,-1,-1,-1,-1,-1,-1,-1,-1,-1,-1,-1],"loss_changes":[1.3453469E4,3.187578E2,4.552734E3,2.0246094E1,6.538833E2,1.5600635E2,1.3350596E3,3.4223145E1,4.1308594E-1,7.536963E1,9.138587E1,7.96593E1,1.1673445E2,1.5504227E2,2.5126807E2,3.6542969E0,2.6346558E1,0E0,7.939453E-1,3.2041504E1,1.7691872E1,4.2864796E1,1.3476891E1,2.3721924E1,4.4732193E1,3.0827179E1,1.8642021E1,6.5219925E1,1.1560045E2,6.781093E1,5.558203E1,6.16029E0,6.594238E-1,1.42578125E1,1.2696411E2,0E0,6.171875E-1,1.415979E1,1.5259979E1,2.4201347E1,1.0029519E1,1.2864532E1,2.6053488E1,1.0134603E1,1.0204971E1,4.588318E0,1.8569641E1,9.889294E0,3.0011215E0,6.523773E0,4.8572495E1,3.1260963E1,1.8031996E1,1.1223236E1,2.59254E1,4.5004772E1,3.270746E1,1.2052612E1,1.8703732E1,3.859256E1,3.0515137E1,0E0,0E0,0E0,0E0,0E0,0E0,0E0,0E0,0E0,0E0,0E0,0E0,0E0,0E0,0E0,0E0,0E0,0E0,0E0,0E0,0E0,0E0,0E0,0E0,0E0,0E0,0E0,0E0,0E0,0E0,0E0,0E0,0E0,0E0,0E0,0E0,0E0,0E0,0E0,0E0,0E0,0E0,0E0,0E0,0E0,0E0,0E0,0E0,0E0,0E0,0E0,0E0,0E0,0E0,0E0,0E0,0E0,0E0],"parents":[2147483647,0,0,1,1,2,2,3,3,4,4,5,5,6,6,7,7,8,8,9,9,10,10,11,11,12,12,13,13,14,14,15,15,16,16,18,18,19,19,20,20,21,21,22,22,23,23,24,24,25,25,26,26,27,27,28,28,29,29,30,30,31,31,32,32,33,33,34,34,36,36,37,37,38,38,39,39,40,40,41,41,42,42,43,43,44,44,45,45,46,46,47,47,48,48,49,49,50,50,51,51,52,52,53,53,54,54,55,55,56,56,57,57,58,58,59,59,60,60],"right_children":[2,4,6,8,10,12,14,16,18,20,22,24,26,28,30,32,34,-1,36,38,40,42,44,46,48,50,52,54,56,58,60,62,64,66,68,-1,70,72,74,76,78,80,82,84,86,88,90,92,94,96,98,100,102,104,106,108,110,112,114,116,118,-1,-1,-1,-1,-1,-1,-1,-1,-1,-1,-1,-1,-1,-1,-1,-1,-1,-1,-1,-1,-1,-1,-1,-1,-1,-1,-1,-1,-1,-1,-1,-1,-1,-1,-1,-1,-1,-1,-1,-1,-1,-1,-1,-1,-1,-1,-1,-1,-1,-1,-1,-1,-1,-1,-1,-1,-1,-1],"split_conditions":[5.9006798E1,5E-1,5E-1,3.13855E-1,5E-1,5E-1,5E-1,4.6575002E-2,5.1562E-2,5E-1,1.85E1,1.25E1,5E-1,4.1975E-2,1.15E1,3.13995E-4,5E-1,-3.3291876E-1,5.1609002E-2,5E-1,2.65E1,5E-1,4.7879997E1,5E-1,6.35E1,4.5330502E-2,5E-1,5E-1,1.2494E-1,1.4636E-1,5E-1,4.62988E1,5.809465E1,9.5E0,5E-1,-3.0872243E-2,2.4842E-1,1.25E1,3.65E1,2.61825E-1,4.4265E1,2.5090002E-2,5.5065002E1,8.46E-3,1.1605E-7,2.5834E-1,5.9995003E1,6.03802E1,5.907E1,5.999635E1,2.6672E-1,1.09945E-1,4.94E-3,1.2915E-2,8.4148005E-2,1.1078E-1,9.5E0,1.04915E-1,5.9807602E1,5E-1,3.184E-10,-3.1192356E-1,-5.9701376E-2,-3.2849613E-1,-2.8295097E-1,-2.636859E-1,-3.2350817E-1,-2.7645087E-1,1.2874842E-1,-3.210393E-1,-3.307606E-1,-3.30468E-1,-2.2103049E-1,-1.8533355E-1,4.742363E-1,1.6711446E-2,-2.4771456E-1,-3.0883473E-1,3.5507724E-1,-6.863048E-2,-2.6359543E-1,-5.0799932E-2,1.9408788E-1,9.412022E-2,-3.3730042E-1,-9.116299E-2,2.2583765E-1,-2.5367618E-1,-3.2650277E-1,-3.0818036E-1,-2.0946072E-1,-1.0814562E-2,-3.5906428E-1,9.474038E-2,-3.1616786E-1,-3.388051E-1,-2.106546E-1,-5.7520345E-2,-1.876557E-1,-2.3154621E-1,6.513116E-2,-3.5497013E-1,2.0491885E-1,-3.1695396E-1,-1.901067E-1,6.843209E-2,-2.2933786E-1,5.8137316E-2,2.983615E-1,-5.4111272E-2,-3.087792E-1,1.8246546E-1,2.9044163E-1,-6.747809E-2,1.0016346E-1,6.663721E-2,2.7738583E-1,4.3323617E-2,3.183678E-1],"split_indices":[4,0,2,8,1,3,0,8,7,2,6,6,0,8,6,7,2,0,7,3,6,3,4,0,6,7,1,1,8,7,1,4,4,6,3,0,7,6,6,7,4,8,4,8,7,8,4,5,5,5,8,8,8,8,7,8,6,7,5,3,7,0,0,0,0,0,0,0,0,0,0,0,0,0,0,0,0,0,0,0,0,0,0,0,0,0,0,0,0,0,0,0,0,0,0,0,0,0,0,0,0,0,0,0,0,0,0,0,0,0,0,0,0,0,0,0,0,0,0],"split_type":[0,0,0,0,0,0,0,0,0,0,0,0,0,0,0,0,0,0,0,0,0,0,0,0,0,0,0,0,0,0,0,0,0,0,0,0,0,0,0,0,0,0,0,0,0,0,0,0,0,0,0,0,0,0,0,0,0,0,0,0,0,0,0,0,0,0,0,0,0,0,0,0,0,0,0,0,0,0,0,0,0,0,0,0,0,0,0,0,0,0,0,0,0,0,0,0,0,0,0,0,0,0,0,0,0,0,0,0,0,0,0,0,0,0,0,0,0,0,0],"sum_hessian":[2.8713295E4,1.7443984E4,1.1269312E4,1.5101514E4,2.3424697E3,3.3225999E3,7.9467114E3,4.7476597E3,1.0353854E4,1.7721378E3,5.7033203E2,1.8145768E3,1.508023E3,9.931671E2,6.9535444E3,2.6714382E3,2.0762217E3,3.1853406E3,7.168513E3,1.6359939E3,1.3614392E2,2.7971396E2,2.906181E2,1.535775E3,2.788018E2,1.2056243E3,3.0239874E2,4.5432953E2,5.388375E2,9.820035E2,5.971541E3,3.8049294E1,2.633389E3,1.5289836E3,5.47238E2,1.0478635E0,7.1674653E3,1.4913042E3,1.446897E2,1.2355621E2,1.2587709E1,1.2374252E2,1.5597144E2,2.2688416E1,2.679297E2,5.870301E2,9.4874493E2,2.1458795E2,6.421383E1,1.599255E2,1.0456987E3,2.1174164E2,9.0657104E1,3.3373883E2,1.2059071E2,3.555963E2,1.8324126E2,3.9348312E2,5.885203E2,3.199868E2,5.651554E3,2.3715527E1,1.4333766E1,2.5515916E3,8.179733E1,7.57347E2,7.7163666E2,4.660626E2,8.1175354E1,4.377123E3,2.7903425E3,1.3667114E3,1.2459274E2,1.4239125E2,2.2984543E0,6.4637794E1,5.8918423E1,1.6691641E0,1.0918546E1,5.7137127E1,6.660539E1,8.522592E1,7.0745514E1,1.6940063E1,5.7483525E0,8.965669E0,2.5896402E2,1.2007919E2,4.669509E2,2.3438785E2,7.1435706E2,2.0797731E2,6.610651E0,1.2241774E0,6.298965E1,7.318357E1,8.674194E1,4.6864914E2,5.7704956E2,3.8130035E1,1.736116E2,4.611167E0,8.604594E1,2.4066795E2,9.307088E1,8.33233E1,3.7267406E1,2.6011215E2,9.548415E1,1.0107419E2,8.216706E1,1.7871922E2,2.1476392E2,6.694913E1,5.215712E2,1.3794464E2,1.8204216E2,3.6881935E1,5.6146724E3],"tree_param":{"num_deleted":"0","num_feature":"10","num_nodes":"119","size_leaf_vector":"0"}},{"base_weights":[-4.265451E-1,-9.619642E-1,3.423301E-1,-1.0191923E0,-6.113604E-1,-4.9578488E-1,7.229557E-1,-9.488393E-1,-1.0520716E0,-8.22965E-3,-1.0122715E0,-6.9453716E-1,-2.7775723E-1,-5.622508E-3,9.331893E-1,-1.0452888E0,-8.3063245E-1,-1.0762036E0,-1.0412256E0,-2.6427904E-1,6.432001E-1,2.513788E-1,-1.0331337E0,-7.922395E-1,-2.2804327E-1,-3.937399E-1,1.5504746E-1,-7.569267E-1,1.9869003E-1,4.7864914E-1,9.861002E-1,-1.0556067E0,-7.648519E-1,-8.472933E-1,2.9013723E-1,-1.0247782E0,-1.0668027E0,-6.249165E-1,1.1731107E-1,5.1913744E-1,1.9962196E0,8.466624E-1,-3.9404333E-1,-1.0475262E0,-4.606236E-1,-9.862315E-1,-6.796931E-1,-1.0155493E0,-6.454489E-2,-8.5487E-1,-3.3238953E-1,-9.169176E-2,3.7293202E-1,-9.398043E-2,-1.0636829E0,6.326438E-2,9.2000973E-1,-2.9999205E-1,5.974672E-1,3.2450393E-1,1.004393E0,-1.0602394E0,-8.8042873E-1,-8.3454186E-1,1.4785937E0,-7.128053E-1,-1.0038915E0,-8.2270944E-1,1.0914803E0,-1.0366018E0,-8.064101E-1,3.2473394E-1,-8.235773E-1,-9.0645653E-1,2.9667652E-1,-5.0080806E-1,6.218858E-1,2.948612E0,1.0910484E0,8.1126206E-2,1.5652629E0,-9.2414767E-1,1.3491971E-2,-5.018254E-1,-1.0543981E0,-7.7770317E-1,6.07876E-1,-7.548741E-1,-1.0447156E0,-9.6345663E-1,-5.8838683E-1,-1.073373E0,1.4556345E-1,-2.5465494E-1,1.9450398E-1,-8.795711E-1,-2.6217425E-1,-4.9564164E-2,-5.1146305E-1,-6.7944056E-1,1.1456169E-1,8.4381473E-1,2.6954708E-1,-6.160503E-1,2.5759143E-1,-1.129238E0,-3.073384E-1,-2.437633E-1,4.2977586E-1,-1.1839019E0,9.437343E-1,-7.272109E-1,4.6855316E-1,8.6872476E-1,4.2923698E-1,5.480652E-1,-1.0036747E0,2.0888855E-1,1.0136452E0],"categories":[],"categories_nodes":[],"categories_segments":[],"categories_sizes":[],"default_left":[true,true,true,true,true,true,true,true,true,true,true,true,true,true,true,true,true,false,true,true,true,true,true,true,true,true,true,true,true,true,true,true,true,true,true,true,false,true,true,true,true,true,true,true,true,true,true,true,true,true,true,true,true,true,true,true,true,true,true,true,true,false,false,false,false,false,false,false,false,false,false,false,false,false,false,false,false,false,false,false,false,false,false,false,false,false,false,false,false,false,false,false,false,false,false,false,false,false,false,false,false,false,false,false,false,false,false,false,false,false,false,false,false,false,false,false,false,false,false],"id":6,"left_children":[1,3,5,7,9,11,13,15,17,19,21,23,25,27,29,31,33,-1,35,37,39,41,43,45,47,49,51,53,55,57,59,61,63,65,67,69,-1,71,73,75,77,79,81,83,85,87,89,91,93,95,97,99,101,103,105,107,109,111,113,115,117,-1,-1,-1,-1,-1,-1,-1,-1,-1,-1,-1,-1,-1,-1,-1,-1,-1,-1,-1,-1,-1,-1,-1,-1,-1,-1,-1,-1,-1,-1,-1,-1,-1,-1,-1,-1,-1,-1,-1,-1,-1,-1,-1,-1,-1,-1,-1,-1,-1,-1,-1,-1,-1,-1,-1,-1,-1,-1],"loss_changes":[9.432799E3,2.7039062E2,3.001107E3,2.5857422E1,4.58899E2,1.2713574E2,9.908965E2,4.1407227E1,9.482422E-1,1.2673987E2,3.0314087E1,6.9847046E1,7.0483154E1,2.2267596E2,1.20270996E2,5.0895996E0,3.1447632E1,0E0,1.2133789E0,7.513229E1,3.4952026E1,7.756589E0,8.760376E0,2.7057251E1,3.437316E1,3.1024445E1,1.6012373E1,6.2972992E1,1.113537E2,4.8789223E1,5.4087402E1,6.599121E-1,1.3109108E1,3.3965942E1,2.3389227E1,7.8461914E0,0E0,5.319909E1,4.908763E1,2.1034138E1,1.2003784E1,5.5766225E0,2.1624799E0,3.571289E0,1.0397106E1,5.4904175E0,2.0339935E1,3.239067E0,1.1009934E1,1.6625443E0,4.9525696E1,1.7071012E1,7.4658413E0,1.8368177E1,1.0161407E1,1.0828039E2,1.0112259E1,2.3399174E1,2.0444809E1,3.6907948E1,3.1986328E1,0E0,0E0,0E0,0E0,0E0,0E0,0E0,0E0,0E0,0E0,0E0,0E0,0E0,0E0,0E0,0E0,0E0,0E0,0E0,0E0,0E0,0E0,0E0,0E0,0E0,0E0,0E0,0E0,0E0,0E0,0E0,0E0,0E0,0E0,0E0,0E0,0E0,0E0,0E0,0E0,0E0,0E0,0E0,0E0,0E0,0E0,0E0,0E0,0E0,0E0,0E0,0E0,0E0,0E0,0E0,0E0,0E0,0E0],"parents":[2147483647,0,0,1,1,2,2,3,3,4,4,5,5,6,6,7,7,8,8,9,9,10,10,11,11,12,12,13,13,14,14,15,15,16,16,18,18,19,19,20,20,21,21,22,22,23,23,24,24,25,25,26,26,27,27,28,28,29,29,30,30,31,31,32,32,33,33,34,34,35,35,37,37,38,38,39,39,40,40,41,41,42,42,43,43,44,44,45,45,46,46,47,47,48,48,49,49,50,50,51,51,52,52,53,53,54,54,55,55,56,56,57,57,58,58,59,59,60,60],"right_children":[2,4,6,8,10,12,14,16,18,20,22,24,26,28,30,32,34,-1,36,38,40,42,44,46,48,50,52,54,56,58,60,62,64,66,68,70,-1,72,74,76,78,80,82,84,86,88,90,92,94,96,98,100,102,104,106,108,110,112,114,116,118,-1,-1,-1,-1,-1,-1,-1,-1,-1,-1,-1,-1,-1,-1,-1,-1,-1,-1,-1,-1,-1,-1,-1,-1,-1,-1,-1,-1,-1,-1,-1,-1,-1,-1,-1,-1,-1,-1,-1,-1,-1,-1,-1,-1,-1,-1,-1,-1,-1,-1,-1,-1,-1,-1,-1,-1,-1,-1],"split_conditions":[5.89197E1,5E-1,5E-1,3.13855E-1,1.18015E-1,5E-1,5E-1,4.6575002E-2,5.1562E-2,2.25E1,1.33825E-3,1.25E1,5E-1,1.7935E-2,1.15E1,2.65E1,2.65E1,-3.2286108E-1,2.4842E-1,5E-1,5.0247926E-1,5.15E1,5E-1,5E-1,4.7794998E-8,9.508E-2,4.77475E-2,1.7013501E-2,1.25E1,4.35E-4,5E-1,5.809465E1,5.0099576E-1,9.5E0,5.00982E-1,2.389E-1,-3.2004082E-1,4.5165002E-2,4.8655E1,5E-1,5E-1,5.3315002E1,1.78565E-10,1.20395E-2,5.6415E1,2.1751499E-1,5.9995003E1,5E-1,5E-1,1.7537999E-1,2.43815E-1,5.9995003E1,5.7381E-2,5E-1,5E-1,5E-1,7.1988497E-3,9.5E0,1.18259996E-1,6.004895E1,3.5613499E-9,-3.1807184E-1,-2.6412863E-1,-2.5036258E-1,4.4357812E-1,-2.1384159E-1,-3.0116746E-1,-2.4681284E-1,3.2744408E-1,-3.1098056E-1,-2.4192303E-1,9.7420186E-2,-2.4707319E-1,-2.7193698E-1,8.900296E-2,-1.5024242E-1,1.8656574E-1,8.8458365E-1,3.2731453E-1,2.4337864E-2,4.695789E-1,-2.772443E-1,4.0475917E-3,-1.5054762E-1,-3.1631944E-1,-2.3331095E-1,1.8236281E-1,-2.2646224E-1,-3.134147E-1,-2.89037E-1,-1.7651606E-1,-3.220119E-1,4.3669038E-2,-7.639649E-2,5.8351196E-2,-2.6387134E-1,-7.865228E-2,-1.4869249E-2,-1.5343893E-1,-2.0383218E-1,3.4368508E-2,2.5314444E-1,8.0864124E-2,-1.848151E-1,7.727743E-2,-3.387714E-1,-9.2201516E-2,-7.312899E-2,1.2893276E-1,-3.5517058E-1,2.831203E-1,-2.1816327E-1,1.4056595E-1,2.6061743E-1,1.287711E-1,1.6441956E-1,-3.0110243E-1,6.2666565E-2,3.0409357E-1],"split_indices":[4,0,2,8,8,3,1,8,7,6,7,6,0,8,6,6,6,0,7,3,7,6,2,0,7,8,7,7,6,8,0,4,7,6,7,7,0,7,4,2,1,4,7,7,4,8,4,1,1,7,8,5,7,0,3,3,7,6,7,5,7,0,0,0,0,0,0,0,0,0,0,0,0,0,0,0,0,0,0,0,0,0,0,0,0,0,0,0,0,0,0,0,0,0,0,0,0,0,0,0,0,0,0,0,0,0,0,0,0,0,0,0,0,0,0,0,0,0,0],"split_type":[0,0,0,0,0,0,0,0,0,0,0,0,0,0,0,0,0,0,0,0,0,0,0,0,0,0,0,0,0,0,0,0,0,0,0,0,0,0,0,0,0,0,0,0,0,0,0,0,0,0,0,0,0,0,0,0,0,0,0,0,0,0,0,0,0,0,0,0,0,0,0,0,0,0,0,0,0,0,0,0,0,0,0,0,0,0,0,0,0,0,0,0,0,0,0,0,0,0,0,0,0,0,0,0,0,0,0,0,0,0,0,0,0,0,0,0,0,0,0],"sum_hessian":[2.291167E4,1.3506171E4,9.405499E3,1.1609306E4,1.8968651E3,2.9373425E3,6.4681562E3,3.7070386E3,7.902267E3,7.578205E2,1.1390446E3,1.5354513E3,1.4018912E3,1.4486697E3,5.0194863E3,2.0370707E3,1.6699678E3,2.4198774E3,5.4823896E3,5.444246E2,2.1339587E2,1.8320118E1,1.1207245E3,1.2689786E3,2.6647275E2,1.1056818E3,2.9620947E2,3.0914984E2,1.1395199E3,5.2441907E2,4.4950674E3,1.9621161E3,7.49546E1,1.645747E3,2.4220861E1,3.3617175E3,2.1206719E3,2.7956885E2,2.6485574E2,1.9673985E2,1.6656021E1,9.368031E0,8.952087E0,1.0924318E3,2.829273E1,4.630588E2,8.059198E2,4.4916527E1,2.2155623E2,1.2831189E2,9.773698E2,1.3917854E2,1.5703093E2,9.820989E1,2.1093996E2,9.603118E2,1.7920802E2,6.922796E1,4.5519113E2,1.2144619E2,4.373621E3,1.9066409E3,5.5475292E1,7.330546E1,1.6491363E0,8.883637E2,7.573832E2,1.012849E1,1.4092372E1,3.1854932E3,1.7622437E2,4.825634E1,2.3131252E2,3.8880886E1,2.2597485E2,1.7650974E1,1.7908888E2,7.016239E0,9.639782E0,5.0747333E0,4.2932973E0,3.3399603E0,5.6121273E0,1.4505999E1,1.0779258E3,2.2028023E1,6.2647085E0,9.6242065E1,3.6681674E2,1.9386629E2,6.120535E2,4.285777E1,2.0587587E0,1.2779059E2,9.376563E1,1.2271369E2,5.5981956E0,3.794114E2,5.9795844E2,3.5557667E1,1.0362087E2,2.6980803E1,1.3005013E2,3.9219006E1,5.899089E1,1.9366159E2,1.7278374E1,5.227433E2,4.3756857E2,1.4529974E0,1.7775502E2,4.452898E1,2.4698982E1,1.7264734E2,2.825438E2,1.04452E2,1.6994183E1,5.055411E1,4.323067E3],"tree_param":{"num_deleted":"0","num_feature":"10","num_nodes":"119","size_leaf_vector":"0"}},{"base_weights":[-3.9098746E-1,-9.126298E-1,3.0020082E-1,-9.7768086E-1,-5.4367596E-1,-4.05882E-1,6.466495E-1,-8.893792E-1,-1.0202284E0,-7.435016E-3,-9.6229833E-1,-6.0022104E-1,-2.1363394E-1,-6.0547637E-3,8.682676E-1,-1.0113432E0,-7.4884677E-1,-1.0519506E0,-1.0061177E0,-2.1116899E-1,5.360427E-1,-6.992543E-2,-9.9532694E-1,-6.940916E-1,-1.3364881E-1,-3.0393335E-1,2.701825E-1,-7.513656E-1,1.3885057E-1,3.8369718E-1,9.3406755E-1,-1.0274899E0,-7.2971785E-1,-8.4300226E-1,-5.070579E-1,-9.848901E-1,-1.0395381E0,-5.2727413E-1,8.594015E-2,4.2651045E-1,1.7925196E0,-2.528818E-1,4.9074537E-1,-1.0156511E0,-3.4595844E-1,-9.3802625E-1,-5.6562585E-1,2.7247863E-2,-9.7132856E-1,-7.1990913E-1,-2.547477E-1,4.510979E-1,-1.1911101E0,-1.064116E0,-6.3874654E-2,-1.6279563E-1,3.8343626E-1,1.7250578E-1,6.88096E-1,2.37255E-1,9.580511E-1,-1.033143E0,-8.233747E-1,-7.837449E-1,9.9100345E-1,-7.0333284E-1,-9.990384E-1,-7.659337E-1,5.5737764E-1,-9.998731E-1,-7.248341E-1,2.1897225E-1,-7.123582E-1,-5.2003622E-2,1.0269475E0,-5.741573E-1,5.155299E-1,2.4748974E0,1.0172379E0,-1.027695E-1,-7.239393E-1,-9.804966E-1,1.0061423E0,-1.0374019E0,-6.932559E-1,-6.2307537E-1,4.964799E-1,-7.022506E-1,-1.0115316E0,-1.0526633E0,-5.1059306E-1,-1.8714657E-1,3.6112967E-1,-1.0259069E0,4.335962E-3,-9.4381696E-1,-4.1959447E-1,-9.567756E-3,-3.9721838E-1,-1.5432239E-1,7.6538765E-1,-6.3569725E-1,-1.2544653E0,-1.1085511E0,-4.316665E-1,-5.6493926E-1,2.5229558E-1,-6.473042E-2,-1.0544107E0,2.852714E-1,7.45659E-1,-9.04424E-2,6.3006985E-1,-1.9722056E-1,7.6832354E-1,-2.3013702E-1,7.391144E-1,1.8291917E-1,9.7057855E-1],"categories":[],"categories_nodes":[],"categories_segments":[],"categories_sizes":[],"default_left":[true,true,true,true,true,true,true,true,true,true,true,true,true,true,true,true,true,false,true,true,true,true,true,true,true,true,true,true,true,true,true,true,true,true,true,true,false,true,true,true,true,true,true,true,true,true,true,true,true,true,true,true,true,true,true,true,true,true,true,true,true,false,false,false,false,false,false,false,false,false,false,false,false,false,false,false,false,false,false,false,false,false,false,false,false,false,false,false,false,false,false,false,false,false,false,false,false,false,false,false,false,false,false,false,false,false,false,false,false,false,false,false,false,false,false,false,false,false,false],"id":7,"left_children":[1,3,5,7,9,11,13,15,17,19,21,23,25,27,29,31,33,-1,35,37,39,41,43,45,47,49,51,53,55,57,59,61,63,65,67,69,-1,71,73,75,77,79,81,83,85,87,89,91,93,95,97,99,101,103,105,107,109,111,113,115,117,-1,-1,-1,-1,-1,-1,-1,-1,-1,-1,-1,-1,-1,-1,-1,-1,-1,-1,-1,-1,-1,-1,-1,-1,-1,-1,-1,-1,-1,-1,-1,-1,-1,-1,-1,-1,-1,-1,-1,-1,-1,-1,-1,-1,-1,-1,-1,-1,-1,-1,-1,-1,-1,-1,-1,-1,-1,-1],"loss_changes":[6.6378887E3,2.5128125E2,1.937359E3,3.259668E1,3.5351218E2,9.727756E1,7.684817E2,4.9078613E1,1.6323242E0,7.667121E1,2.5996887E1,5.6667053E1,5.7408604E1,1.4564505E2,1.2609668E2,6.315796E0,3.0415955E1,0E0,1.9443359E0,4.734413E1,2.5219852E1,3.472309E0,1.0903137E1,3.3271606E1,2.944944E1,2.2450645E1,5.5238968E1,4.7130188E1,8.336498E1,3.0472443E1,5.8117188E1,8.421631E-1,8.930229E0,2.0515198E1,1.05751465E2,9.318359E0,0E0,3.3877487E1,3.3864025E1,1.5882925E1,5.3264503E0,1.712469E0,7.333791E0,5.0755615E0,6.705142E0,5.712158E0,1.8467896E1,1.32460575E1,1.8789444E0,7.432831E0,3.4606827E1,3.528965E1,1.4312744E-2,3.759781E0,1.1184536E1,4.419857E1,2.1968712E1,3.4019127E1,1.3972031E1,2.7729836E1,3.259204E1,0E0,0E0,0E0,0E0,0E0,0E0,0E0,0E0,0E0,0E0,0E0,0E0,0E0,0E0,0E0,0E0,0E0,0E0,0E0,0E0,0E0,0E0,0E0,0E0,0E0,0E0,0E0,0E0,0E0,0E0,0E0,0E0,0E0,0E0,0E0,0E0,0E0,0E0,0E0,0E0,0E0,0E0,0E0,0E0,0E0,0E0,0E0,0E0,0E0,0E0,0E0,0E0,0E0,0E0,0E0,0E0,0E0,0E0],"parents":[2147483647,0,0,1,1,2,2,3,3,4,4,5,5,6,6,7,7,8,8,9,9,10,10,11,11,12,12,13,13,14,14,15,15,16,16,18,18,19,19,20,20,21,21,22,22,23,23,24,24,25,25,26,26,27,27,28,28,29,29,30,30,31,31,32,32,33,33,34,34,35,35,37,37,38,38,39,39,40,40,41,41,42,42,43,43,44,44,45,45,46,46,47,47,48,48,49,49,50,50,51,51,52,52,53,53,54,54,55,55,56,56,57,57,58,58,59,59,60,60],"right_children":[2,4,6,8,10,12,14,16,18,20,22,24,26,28,30,32,34,-1,36,38,40,42,44,46,48,50,52,54,56,58,60,62,64,66,68,70,-1,72,74,76,78,80,82,84,86,88,90,92,94,96,98,100,102,104,106,108,110,112,114,116,118,-1,-1,-1,-1,-1,-1,-1,-1,-1,-1,-1,-1,-1,-1,-1,-1,-1,-1,-1,-1,-1,-1,-1,-1,-1,-1,-1,-1,-1,-1,-1,-1,-1,-1,-1,-1,-1,-1,-1,-1,-1,-1,-1,-1,-1,-1,-1,-1,-1,-1,-1,-1,-1,-1,-1,-1,-1,-1],"split_conditions":[5.892545E1,5E-1,5E-1,3.13855E-1,1.18015E-1,5E-1,5E-1,4.6575002E-2,5.1562E-2,2.25E1,1.20395E-2,1.95E1,5E-1,1.13699995E-2,1.15E1,2.35E1,5E-1,-3.155852E-1,2.4842E-1,5E-1,5.0247926E-1,5.7035E1,5E-1,5E-1,7.45E1,9.793E-2,6.000705E1,1.95E1,5E-1,5E-1,5E-1,5.809465E1,5.0198644E-1,9.5E0,5E-1,2.389E-1,-3.1186146E-1,4.5165002E-2,1.04975E-1,5E-1,5E-1,5.4785E1,1.19715E-7,5E-1,5.654E1,2.5834E-1,6.5E0,5E-1,5E-1,6.3801E-2,1.1935E-1,9.982E-2,5.3525E-2,5E-1,5E-1,2.6345E-1,1.25E1,9.5E0,1.6195E-2,8.16E-3,8.40585E-9,-3.0994293E-1,-2.4701242E-1,-2.3512347E-1,2.9730105E-1,-2.1099986E-1,-2.9971153E-1,-2.2978012E-1,1.6721329E-1,-2.9996195E-1,-2.1745023E-1,6.569168E-2,-2.1370746E-1,-1.5601087E-2,3.0808425E-1,-1.722472E-1,1.5465897E-1,7.4246925E-1,3.0517137E-1,-3.083085E-2,-2.171818E-1,-2.9414898E-1,3.018427E-1,-3.112206E-1,-2.0797677E-1,-1.8692261E-1,1.4894398E-1,-2.106752E-1,-3.034595E-1,-3.15799E-1,-1.5317792E-1,-5.6143973E-2,1.0833891E-1,-3.077721E-1,1.3007886E-3,-2.831451E-1,-1.2587835E-1,-2.8703269E-3,-1.1916552E-1,-4.6296716E-2,2.296163E-1,-1.9070919E-1,-3.763396E-1,-3.3256537E-1,-1.2949996E-1,-1.6948178E-1,7.5688675E-2,-1.9419126E-2,-3.1632322E-1,8.558142E-2,2.236977E-1,-2.713272E-2,1.8902096E-1,-5.916617E-2,2.3049708E-1,-6.904111E-2,2.2173433E-1,5.4875754E-2,2.9117358E-1],"split_indices":[4,0,2,8,8,3,1,8,7,6,7,6,1,8,6,6,2,0,7,3,7,4,2,0,6,8,5,6,0,3,0,4,7,6,3,7,0,7,7,1,1,5,7,3,4,8,6,1,1,7,7,8,8,3,0,8,6,6,8,8,7,0,0,0,0,0,0,0,0,0,0,0,0,0,0,0,0,0,0,0,0,0,0,0,0,0,0,0,0,0,0,0,0,0,0,0,0,0,0,0,0,0,0,0,0,0,0,0,0,0,0,0,0,0,0,0,0,0,0],"split_type":[0,0,0,0,0,0,0,0,0,0,0,0,0,0,0,0,0,0,0,0,0,0,0,0,0,0,0,0,0,0,0,0,0,0,0,0,0,0,0,0,0,0,0,0,0,0,0,0,0,0,0,0,0,0,0,0,0,0,0,0,0,0,0,0,0,0,0,0,0,0,0,0,0,0,0,0,0,0,0,0,0,0,0,0,0,0,0,0,0,0,0,0,0,0,0,0,0,0,0,0,0,0,0,0,0,0,0,0,0,0,0,0,0,0,0,0,0,0,0],"sum_hessian":[1.8408535E4,1.0490782E4,7.9177524E3,8.916963E3,1.5738195E3,2.6061313E3,5.311621E3,2.9066008E3,6.010362E3,6.9042566E2,8.8339386E2,1.2949623E3,1.3111691E3,1.3466053E3,3.9650159E3,1.5527866E3,1.3538143E3,1.8277755E3,4.1825864E3,5.0261963E2,1.8780602E2,3.1640512E1,8.5175336E2,1.0776583E3,2.173039E2,1.105256E3,2.0591298E2,2.1851302E2,1.1280923E3,4.748571E2,3.490159E3,1.4660815E3,8.6704994E1,9.725896E2,3.8122473E2,2.576531E3,1.6060554E3,2.4314944E2,2.5947018E2,1.73979E2,1.3827018E1,2.4269823E1,7.3706894E0,8.2535693E2,2.6396404E1,3.6958255E2,7.080758E2,1.8310216E2,3.420173E1,1.1542662E2,9.898294E2,1.8384352E2,2.2069456E1,1.4981296E2,6.8700066E1,5.0527448E2,6.228179E2,2.812754E2,1.9358171E2,1.16492935E2,3.373666E3,1.4226198E3,4.3461823E1,8.459346E1,2.1115317E0,5.1611633E2,4.5647327E2,3.0687234E2,7.4352394E1,2.4334827E3,1.430483E2,4.8284897E1,1.9486455E2,2.271209E2,3.234928E1,1.3767596E1,1.602114E2,6.1881514E0,7.638866E0,1.9328547E1,4.9412775E0,1.6780758E0,5.6926136E0,7.7111487E2,5.424205E1,2.0058596E1,6.337808E0,9.034523E1,2.792373E2,7.004578E1,6.3803E2,1.1177069E2,7.133147E1,3.2341084E1,1.860646E0,6.489765E1,5.0528973E1,3.6417773E2,6.256517E2,6.2998226E1,1.208453E2,3.3894234E0,1.8680033E1,1.3927487E2,1.0538075E1,2.6274145E1,4.2425922E1,4.5617426E2,4.9100204E1,4.914257E2,1.3139217E2,1.7913454E2,1.0214084E2,1.596363E1,1.7761807E2,6.05981E1,5.5894836E1,5.390522E1,3.3197607E3],"tree_param":{"num_deleted":"0","num_feature":"10","num_nodes":"119","size_leaf_vector":"0"}},{"base_weights":[-3.5472363E-1,-8.776807E-1,2.4552947E-1,-9.5037264E-1,-5.5097365E-1,-3.3988848E-1,5.671514E-1,-8.521535E-1,-9.947938E-1,-7.464295E-1,-1.349169E-2,-5.288074E-1,-1.664598E-1,-1.4184339E-2,7.9962444E-1,-9.773135E-1,-7.161589E-1,-9.7147316E-1,-1.0234948E0,-4.7360823E-1,-9.089194E-1,-5.0813496E-1,3.8802415E-1,-6.1808926E-1,-6.407675E-2,-2.6072058E-1,1.476707E-1,-2.3814885E-1,3.589737E-1,3.0646223E-1,8.8038564E-1,-1.0126162E0,-5.1742715E-1,-7.361178E-1,3.6734366E-1,-9.361192E-1,-1.0228409E0,-7.950824E-1,-2.0307986E-1,-1.5323746E-2,-9.2777234E-1,-9.657074E-1,-1.443697E-1,5.3988695E-1,-4.7695857E-1,-8.962581E-1,-4.8437452E-1,-9.0638006E-1,8.416821E-2,-7.52835E-1,-2.0041329E-1,7.5244457E-1,8.445529E-2,-3.482796E-1,6.8318135E-1,5.1724005E-1,-1.2079297E-2,-6.073005E-1,3.8217112E-1,1.0582125E-2,9.0157217E-1,-1.0200543E0,-8.0669016E-1,-7.3965967E-1,2.9538514E-2,-5.83549E-1,-9.317461E-1,-7.415644E-1,1.1388842E0,-9.613533E-1,-6.5382713E-1,-8.647034E-1,9.8665977E-1,-1.0507317E0,-1.2012235E-1,-7.7279E-1,2.292502E-1,-9.953509E-1,-7.5598717E-1,5.4502714E-1,-1.0060327E0,-5.235181E-1,1.328675E-1,3.474068E-1,1.0226916E0,-2.5027852E0,1.928209E-1,-6.839951E-1,-9.808439E-1,-5.510632E-1,1.6168539E-1,-9.8926705E-1,1.0666298E-1,7.122113E-1,-7.445769E-2,-1.011494E0,-4.818695E-1,7.450591E-2,-3.2638398E-1,-3.866496E-1,9.425478E-1,-3.6559588E-1,1.7532942E-1,-4.3559287E-2,-8.0936E-1,7.707567E-3,1.0479581E0,4.311196E-1,9.4576627E-1,-7.6745266E-1,3.2095063E-1,-1.3156611E0,-3.0929735E-1,7.0360464E-1,2.4951433E-1,-8.021741E-1,1.8997926E-1,9.1011417E-1,-9.1684806E-1],"categories":[],"categories_nodes":[],"categories_segments":[],"categories_sizes":[],"default_left":[true,true,true,true,true,true,true,true,true,true,true,true,true,true,true,true,true,true,false,true,true,true,true,true,true,true,true,true,true,true,true,true,true,true,true,true,false,true,true,true,true,true,true,true,true,true,true,true,true,true,true,true,true,true,true,true,true,true,true,true,true,false,false,false,false,false,false,false,false,false,false,false,false,false,false,false,false,false,false,false,false,false,false,false,false,false,false,false,false,false,false,false,false,false,false,false,false,false,false,false,false,false,false,false,false,false,false,false,false,false,false,false,false,false,false,false,false,false,false],"id":8,"left_children":[1,3,5,7,9,11,13,15,17,19,21,23,25,27,29,31,33,35,-1,37,39,41,43,45,47,49,51,53,55,57,59,61,63,65,67,69,-1,71,73,75,77,79,81,83,85,87,89,91,93,95,97,99,101,103,105,107,109,111,113,115,117,-1,-1,-1,-1,-1,-1,-1,-1,-1,-1,-1,-1,-1,-1,-1,-1,-1,-1,-1,-1,-1,-1,-1,-1,-1,-1,-1,-1,-1,-1,-1,-1,-1,-1,-1,-1,-1,-1,-1,-1,-1,-1,-1,-1,-1,-1,-1,-1,-1,-1,-1,-1,-1,-1,-1,-1,-1,-1],"loss_changes":[4.697574E3,1.8940186E2,1.312147E3,2.7687988E1,1.5314792E2,8.0883545E1,6.078417E2,3.408716E1,2.015625E0,4.6963257E1,7.761473E1,4.9020386E1,3.82346E1,1.0754307E2,1.2769263E2,1.6710266E1,2.1533295E1,3.5844727E0,0E0,3.4725876E1,1.1255432E1,2.9002537E1,2.8594475E1,3.6453613E1,2.4008919E1,2.930729E1,1.1343641E1,8.182908E1,2.8350452E1,3.1614777E1,5.0855957E1,6.855469E-1,9.469358E0,2.8281616E1,1.663087E1,1.0008179E1,0E0,2.3550255E1,1.528632E1,2.9260876E0,6.852661E0,5.261528E0,1.0445806E1,1.6741447E1,4.491747E1,5.088562E0,2.9039963E1,2.5212326E0,1.6380913E1,7.0818596E0,3.0693943E1,6.4516172E0,1.1158288E1,1.0097373E2,2.1230003E1,1.2079628E1,3.6796215E1,7.0016413E0,1.7713871E1,9.869754E0,4.2688965E1,0E0,0E0,0E0,0E0,0E0,0E0,0E0,0E0,0E0,0E0,0E0,0E0,0E0,0E0,0E0,0E0,0E0,0E0,0E0,0E0,0E0,0E0,0E0,0E0,0E0,0E0,0E0,0E0,0E0,0E0,0E0,0E0,0E0,0E0,0E0,0E0,0E0,0E0,0E0,0E0,0E0,0E0,0E0,0E0,0E0,0E0,0E0,0E0,0E0,0E0,0E0,0E0,0E0,0E0,0E0,0E0,0E0,0E0],"parents":[2147483647,0,0,1,1,2,2,3,3,4,4,5,5,6,6,7,7,8,8,9,9,10,10,11,11,12,12,13,13,14,14,15,15,16,16,17,17,19,19,20,20,21,21,22,22,23,23,24,24,25,25,26,26,27,27,28,28,29,29,30,30,31,31,32,32,33,33,34,34,35,35,37,37,38,38,39,39,40,40,41,41,42,42,43,43,44,44,45,45,46,46,47,47,48,48,49,49,50,50,51,51,52,52,53,53,54,54,55,55,56,56,57,57,58,58,59,59,60,60],"right_children":[2,4,6,8,10,12,14,16,18,20,22,24,26,28,30,32,34,36,-1,38,40,42,44,46,48,50,52,54,56,58,60,62,64,66,68,70,-1,72,74,76,78,80,82,84,86,88,90,92,94,96,98,100,102,104,106,108,110,112,114,116,118,-1,-1,-1,-1,-1,-1,-1,-1,-1,-1,-1,-1,-1,-1,-1,-1,-1,-1,-1,-1,-1,-1,-1,-1,-1,-1,-1,-1,-1,-1,-1,-1,-1,-1,-1,-1,-1,-1,-1,-1,-1,-1,-1,-1,-1,-1,-1,-1,-1,-1,-1,-1,-1,-1,-1,-1,-1,-1],"split_conditions":[5.8308853E1,4.88575E1,5E-1,3.69285E-1,5E-1,5E-1,5E-1,5.0245002E-2,9.5E0,1.1799E-1,5E-1,2.65E1,5E-1,5E-1,1.15E1,5E-1,2.65E1,2.4842E-1,-3.0704847E-1,5E-1,1.3018E-3,1.2305001E-2,5.605945E1,5E-1,4.7794998E-8,4.04E-2,5.9385002E1,2.65E1,1.21005E-1,5E-6,2.24065E-8,2.55E1,2.35E1,9.5E0,5.00982E-1,2.38085E-1,-3.0685228E-1,1.10665E-1,8.845E-3,5E-1,5E-1,4.48741E1,5E-1,5.6364998E1,5.6745E1,2.5834E-1,5E-1,5E-1,4.04715E-1,5.99963E1,1.18845E-1,5.7107597E1,5.9995003E1,9.5E0,4.165E-3,1.11725E-1,1.12015E-1,5.98545E1,1.18259996E-1,5.971115E1,6.03648E1,-3.0601633E-1,-2.4200706E-1,-2.2189792E-1,8.861555E-3,-1.7506471E-1,-2.7952385E-1,-2.2246933E-1,3.4166527E-1,-2.88406E-1,-1.9614814E-1,-2.5941104E-1,2.9599795E-1,-3.1521952E-1,-3.6036707E-2,-2.3183702E-1,6.877506E-2,-2.986053E-1,-2.2679617E-1,1.6350815E-1,-3.0180982E-1,-1.5705544E-1,3.9860252E-2,1.04222044E-1,3.068075E-1,-7.508356E-1,5.7846274E-2,-2.0519854E-1,-2.9425317E-1,-1.6531897E-1,4.850562E-2,-2.9678014E-1,3.1998895E-2,2.136634E-1,-2.2337308E-2,-3.0344823E-1,-1.4456086E-1,2.2351773E-2,-9.7915195E-2,-1.15994886E-1,2.8276435E-1,-1.0967877E-1,5.2598827E-2,-1.3067787E-2,-2.4280801E-1,2.3122702E-3,3.1438744E-1,1.2933588E-1,2.8372988E-1,-2.302358E-1,9.6285194E-2,-3.9469835E-1,-9.278921E-2,2.110814E-1,7.48543E-2,-2.4065223E-1,5.699378E-2,2.7303427E-1,-2.7505443E-1],"split_indices":[4,4,2,8,2,3,1,8,6,8,1,6,0,3,6,0,6,7,0,0,7,8,5,0,7,7,4,6,7,8,7,6,6,6,7,7,0,8,8,0,3,5,0,4,4,8,1,1,8,4,7,5,5,6,8,7,8,5,7,5,4,0,0,0,0,0,0,0,0,0,0,0,0,0,0,0,0,0,0,0,0,0,0,0,0,0,0,0,0,0,0,0,0,0,0,0,0,0,0,0,0,0,0,0,0,0,0,0,0,0,0,0,0,0,0,0,0,0,0],"split_type":[0,0,0,0,0,0,0,0,0,0,0,0,0,0,0,0,0,0,0,0,0,0,0,0,0,0,0,0,0,0,0,0,0,0,0,0,0,0,0,0,0,0,0,0,0,0,0,0,0,0,0,0,0,0,0,0,0,0,0,0,0,0,0,0,0,0,0,0,0,0,0,0,0,0,0,0,0,0,0,0,0,0,0,0,0,0,0,0,0,0,0,0,0,0,0,0,0,0,0,0,0,0,0,0,0,0,0,0,0,0,0,0,0,0,0,0,0,0,0],"sum_hessian":[1.496319E4,7.9962095E3,6.966981E3,6.539312E3,1.4568973E3,2.4703608E3,4.4966206E3,2.0427616E3,4.496551E3,1.0680948E3,3.8880255E2,1.181396E3,1.2889647E3,1.284775E3,3.2118455E3,1.0605332E3,9.8222833E2,2.500037E3,1.9965135E3,4.0015207E2,6.6794275E2,1.7408043E2,2.1472212E2,9.907314E2,1.9066466E2,9.9158954E2,2.9737515E2,8.0311676E2,4.8165823E2,4.5263834E2,2.759207E3,9.838102E2,7.672303E1,9.6477704E2,1.7451279E1,1.4922292E3,1.00780786E3,1.8197206E2,2.1818E2,1.3838482E1,6.5410425E2,7.6366234E1,9.771419E1,1.8297374E2,3.1748384E1,3.1978174E2,6.7094965E2,2.776941E1,1.6289525E2,1.0699717E2,8.845924E2,2.7110413E1,2.7026474E2,7.1792224E2,8.5194496E1,3.373664E2,1.4429185E2,3.4096134E1,4.185422E2,6.5645744E1,2.6935613E3,9.456975E2,3.811268E1,5.4306126E1,2.2416908E1,5.442805E2,4.2049652E2,7.1761303E0,1.0275148E1,1.3675759E3,1.24653275E2,1.7562428E2,6.347776E0,1.8409334E1,1.9977066E2,2.8505003E0,1.0987982E1,4.6599313E2,1.8811111E2,1.6600178E0,7.4706215E1,4.089628E1,5.681791E1,1.3204915E2,5.092458E1,7.2085495E0,2.4539835E1,9.370959E1,2.2607216E2,6.0830524E2,6.2644447E1,2.5690857E1,2.0785522E0,3.2142895E1,1.3075235E2,5.3343483E1,5.365369E1,2.7809177E2,6.065006E2,3.7294915E0,2.3380922E1,4.4895943E1,2.2536879E2,4.3291226E2,2.8500998E2,3.0232584E1,5.4961914E1,2.825822E2,5.4784187E1,4.375132E1,1.0054053E2,9.085281E0,2.5010853E1,1.21014496E2,2.975277E2,1.1242094E1,5.440365E1,2.6814646E3,1.209664E1],"tree_param":{"num_deleted":"0","num_feature":"10","num_nodes":"119","size_leaf_vector":"0"}},{"base_weights":[-3.165808E-1,-8.3531487E-1,1.989035E-1,-6.1556715E-1,-9.579713E-1,6.096985E-1,-1.457676E-1,-7.7234936E-1,-1.6598257E-1,-9.3181103E-1,-9.895367E-1,-1.8339157E-1,7.654802E-1,3.8295425E-2,-4.518123E-1,-8.039117E-1,1.151808E0,-4.6013248E-1,7.772291E-2,-7.3055005E-1,-9.4529456E-1,-9.962194E-1,-6.9775873E-1,-2.6021138E-1,7.688497E-1,3.7093792E-2,8.1763375E-1,-2.4348991E-2,1.0284084E0,5.0473143E-3,-5.2721864E-1,-9.62763E-1,-6.095757E-1,2.0614598E0,-5.3206867E-1,-5.2528965E-1,7.822376E-1,1.9293754E-1,-1.2805612E0,-8.739975E-1,-3.0153748E-1,-8.048716E-1,-9.546466E-1,-1.0025734E0,-8.3992034E-1,-9.994913E-1,1.4587533E-1,-6.2088597E-1,-4.4481967E-2,1.3801792E-1,1.3015642E0,-3.017212E-1,6.9842017E-1,3.3068275E-1,8.5978025E-1,-1.0566093E0,2.0149127E-2,1.0492308E0,-3.54006E-1,-1.9507076E-1,1.6113055E0,-8.901031E-1,-4.5225447E-1,-9.856354E-1,-6.484651E-1,-7.785114E-1,-2.8599808E-1,3.2970294E-1,5.6878743E0,-8.048917E-1,3.3869886E-1,-7.886083E-1,-9.538434E-2,-3.2596856E-1,2.4158459E0,-8.3742915E-3,6.978384E-1,-2.2672286E0,-3.5468015E-1,-8.9142644E-1,4.4509196E-1,8.491619E-1,-3.6205763E-1,-6.615393E-1,-9.458678E-1,-9.13494E-1,-1.0033119E0,-4.0139288E-1,-1.0031329E0,5.5956227E-1,-9.0737665E-1,-3.9627597E-1,9.1838104E-1,-9.164414E-1,-3.5004044E-1,-8.5327387E-1,3.5362393E-2,-4.1525233E-1,8.5468745E-1,1.445321E0,-3.9695466E-1,-1.3366322E-1,-7.3082185E-1,3.050713E0,5.777804E-1,-6.385459E-2,6.67384E-1,4.5244437E-1,9.114662E-1,-1.1228199E0,-6.746384E-1,6.816993E-2,-8.7784964E-1,1.1946775E-1,1.0561556E0,-1.1383892E0,-1.2907424E-2,1.8724549E0,-3.2897394E-2,5.4898806E-2,-9.031005E-1,-6.590519E-1,-2.4242046E-1],"categories":[],"categories_nodes":[],"categories_segments":[],"categories_sizes":[],"default_left":[true,true,true,true,true,true,true,true,true,true,true,true,true,true,true,true,true,true,true,true,true,true,true,true,true,true,true,true,true,true,true,true,true,true,true,true,true,true,true,true,true,true,true,true,true,false,true,true,true,true,true,true,true,true,true,true,true,true,false,true,true,true,true,false,false,false,false,false,false,false,false,false,false,false,false,false,false,false,false,false,false,false,false,false,false,false,false,false,false,false,false,false,false,false,false,false,false,false,false,false,false,false,false,false,false,false,false,false,false,false,false,false,false,false,false,false,false,false,false,false,false,false,false],"id":9,"left_children":[1,3,5,7,9,11,13,15,17,19,21,23,25,27,29,31,33,35,37,39,41,43,45,47,49,51,53,55,57,59,61,63,65,67,69,71,73,75,77,79,81,83,85,87,89,-1,91,93,95,97,99,101,103,105,107,109,111,113,-1,115,117,119,121,-1,-1,-1,-1,-1,-1,-1,-1,-1,-1,-1,-1,-1,-1,-1,-1,-1,-1,-1,-1,-1,-1,-1,-1,-1,-1,-1,-1,-1,-1,-1,-1,-1,-1,-1,-1,-1,-1,-1,-1,-1,-1,-1,-1,-1,-1,-1,-1,-1,-1,-1,-1,-1,-1,-1,-1,-1,-1,-1,-1],"loss_changes":[3.3042166E3,1.6541406E2,8.7770703E2,1.5558057E2,2.3405762E0,3.4954932E2,1.8992433E2,1.00378845E2,4.1072E1,5.218628E0,2.7645264E0,3.4223503E1,8.9772705E1,1.3065422E2,4.3622314E1,4.9169067E1,4.2207916E1,2.1419083E1,4.9374054E1,8.421486E0,1.9071045E0,8.781738E-1,1.1108265E1,3.351848E1,1.1573381E1,3.583808E1,4.4989746E1,9.104921E1,3.979538E0,5.8292408E1,2.9162018E1,5.723694E0,3.955298E1,1.08848274E2,2.6977994E0,2.7907005E1,2.4927692E1,2.9507097E1,2.1739094E1,2.8161774E0,2.8765059E0,2.0740585E0,2.8983154E0,1.5563965E-1,7.477928E0,0E0,5.480918E0,1.2589985E1,1.7521276E1,7.147503E0,5.17465E0,7.5345707E0,1.3608767E1,2.3601753E1,4.2318726E1,1.3141861E0,8.2027794E1,6.7048645E-1,0E0,2.7699188E1,8.687916E0,2.3223267E0,3.9013855E1,0E0,0E0,0E0,0E0,0E0,0E0,0E0,0E0,0E0,0E0,0E0,0E0,0E0,0E0,0E0,0E0,0E0,0E0,0E0,0E0,0E0,0E0,0E0,0E0,0E0,0E0,0E0,0E0,0E0,0E0,0E0,0E0,0E0,0E0,0E0,0E0,0E0,0E0,0E0,0E0,0E0,0E0,0E0,0E0,0E0,0E0,0E0,0E0,0E0,0E0,0E0,0E0,0E0,0E0,0E0,0E0,0E0,0E0,0E0,0E0],"parents":[2147483647,0,0,1,1,2,2,3,3,4,4,5,5,6,6,7,7,8,8,9,9,10,10,11,11,12,12,13,13,14,14,15,15,16,16,17,17,18,18,19,19,20,20,21,21,22,22,23,23,24,24,25,25,26,26,27,27,28,28,29,29,30,30,31,31,32,32,33,33,34,34,35,35,36,36,37,37,38,38,39,39,40,40,41,41,42,42,43,43,44,44,46,46,47,47,48,48,49,49,50,50,51,51,52,52,53,53,54,54,55,55,56,56,57,57,59,59,60,60,61,61,62,62],"right_children":[2,4,6,8,10,12,14,16,18,20,22,24,26,28,30,32,34,36,38,40,42,44,46,48,50,52,54,56,58,60,62,64,66,68,70,72,74,76,78,80,82,84,86,88,90,-1,92,94,96,98,100,102,104,106,108,110,112,114,-1,116,118,120,122,-1,-1,-1,-1,-1,-1,-1,-1,-1,-1,-1,-1,-1,-1,-1,-1,-1,-1,-1,-1,-1,-1,-1,-1,-1,-1,-1,-1,-1,-1,-1,-1,-1,-1,-1,-1,-1,-1,-1,-1,-1,-1,-1,-1,-1,-1,-1,-1,-1,-1,-1,-1,-1,-1,-1,-1,-1,-1,-1,-1],"split_conditions":[5.778975E1,2.4361E-1,5.7112E-2,5E-1,9.5E0,5E-1,2.5959998E-1,2.36755E-1,5E-1,1.18434995E-1,3.65E1,5.2487E-2,5E-1,1.95E1,1.18745E-1,4.98E-2,2.43415E-1,2.65E1,5.547725E1,1.1427E-1,3.89745E-1,5.5345E1,5E-1,5E-1,7.5505E-1,1.7E-2,5E-1,4.5E0,6.03E1,1.16275E-1,5.97593E1,2.25E1,5E-1,2.37555E-1,5.2265E1,5E-1,5.0099736E-1,5.5065002E1,5.6765E1,5.6440002E1,1.14295E-1,5.5E0,2.4842E-1,2.49155E-1,4.8338E-3,-2.998474E-1,1.02075E-5,5.99963E1,1.1605E-7,5E-1,6.0059998E1,1.0532999E-2,5.93089E1,5E-1,5E-6,1.47315E-1,1.15E1,5.63889E1,-1.06201805E-1,8.23295E-1,1.18025E-1,5.754855E1,5E-1,-2.9569063E-1,-1.9453953E-1,-2.3355342E-1,-8.5799426E-2,9.891089E-2,1.7063624E0,-2.4146752E-1,1.0160966E-1,-2.365825E-1,-2.8615301E-2,-9.779058E-2,7.247538E-1,-2.5122876E-3,2.0935154E-1,-6.801686E-1,-1.0640405E-1,-2.6742795E-1,1.3352759E-1,2.5474858E-1,-1.0861729E-1,-1.984618E-1,-2.8376034E-1,-2.740482E-1,-3.0099356E-1,-1.2041787E-1,-3.009399E-1,1.6786869E-1,-2.72213E-1,-1.188828E-1,2.7551433E-1,-2.749324E-1,-1.0501213E-1,-2.5598216E-1,1.0608718E-2,-1.24575704E-1,2.5640625E-1,4.335963E-1,-1.190864E-1,-4.009897E-2,-2.1924657E-1,9.1521394E-1,1.7333414E-1,-1.9156378E-2,2.0021522E-1,1.3573332E-1,2.7343985E-1,-3.36846E-1,-2.0239152E-1,2.045098E-2,-2.633549E-1,3.5840325E-2,3.1684667E-1,-3.415168E-1,-3.8722274E-3,5.6173646E-1,-9.869219E-3,1.6469643E-2,-2.7093017E-1,-1.9771558E-1,-7.2726145E-2],"split_indices":[4,8,7,0,6,2,8,8,1,7,6,7,0,6,7,8,7,6,5,7,8,4,0,0,8,8,1,6,4,7,5,6,2,7,4,3,7,4,4,5,7,6,7,8,7,0,7,4,7,0,4,7,4,3,8,8,6,5,0,8,7,5,0,0,0,0,0,0,0,0,0,0,0,0,0,0,0,0,0,0,0,0,0,0,0,0,0,0,0,0,0,0,0,0,0,0,0,0,0,0,0,0,0,0,0,0,0,0,0,0,0,0,0,0,0,0,0,0,0,0,0,0,0],"split_type":[0,0,0,0,0,0,0,0,0,0,0,0,0,0,0,0,0,0,0,0,0,0,0,0,0,0,0,0,0,0,0,0,0,0,0,0,0,0,0,0,0,0,0,0,0,0,0,0,0,0,0,0,0,0,0,0,0,0,0,0,0,0,0,0,0,0,0,0,0,0,0,0,0,0,0,0,0,0,0,0,0,0,0,0,0,0,0,0,0,0,0,0,0,0,0,0,0,0,0,0,0,0,0,0,0,0,0,0,0,0,0,0,0,0,0,0,0,0,0,0,0,0,0],"sum_hessian":[1.2355242E4,6.1579E3,6.1973423E3,2.2080461E3,3.949854E3,2.827102E3,3.37024E3,1.6366013E3,5.714447E2,2.1765376E3,1.7733163E3,4.641124E2,2.3629897E3,2.1050715E3,1.2651685E3,1.610762E3,2.5839441E1,2.585226E2,3.1292206E2,1.4012651E2,2.0364111E3,1.7312505E3,4.2065746E1,4.301387E2,3.3973686E1,1.5800291E2,2.2049868E3,1.9807264E3,1.243451E2,1.7936914E2,1.0857993E3,8.8412164E2,7.2664026E2,1.6630953E1,9.2084875E0,2.4618825E2,1.2334367E1,2.8924518E2,2.3676882E1,1.0423618E2,3.5890324E1,1.3259113E2,1.9038201E3,1.6584169E3,7.283371E1,3.0847975E1,1.1217772E1,1.6028413E2,2.6985458E2,1.6130865E1,1.7842821E1,1.0483628E2,5.3166634E1,1.7634807E2,2.0286387E3,8.0915535E1,1.8998109E3,1.227374E2,1.6077032E0,1.6027908E2,1.9090054E1,1.8403825E2,9.017611E2,8.221551E2,6.196654E1,4.7647354E2,2.5016672E2,1.1994176E1,4.636777E0,7.06925E0,2.139237E0,1.5215706E2,9.403117E1,7.825899E0,4.5084677E0,2.074965E2,8.174867E1,1.0760839E1,1.2916041E1,1.0319687E2,1.0393138E0,1.1421927E0,3.474813E1,6.85734E1,6.401772E1,1.0422435E3,8.615766E2,2.2101612E0,1.6562067E3,3.0137506E0,6.981996E1,6.8778563E0,4.339915E0,7.550596E1,8.477817E1,2.3376198E1,2.4647838E2,9.340534E0,6.7903295E0,1.6587944E1,1.2548772E0,7.627467E1,2.8561607E1,1.4088278E0,5.175781E1,8.157319E1,9.477487E1,2.2952316E2,1.7991155E3,6.7308754E1,1.3606785E1,1.804252E3,9.555892E1,1.042309E0,1.2169508E2,2.509214E1,1.3518695E2,1.6353758E1,2.7362964E0,2.4531486E0,1.815851E2,4.5308856E2,4.4867255E2],"tree_param":{"num_deleted":"0","num_feature":"10","num_nodes":"123","size_leaf_vector":"0"}},{"base_weights":[-2.7744988E-1,-7.9250157E-1,1.5256262E-1,-5.645603E-1,-9.280295E-1,-1.05227865E-1,5.54247E-1,-7.1109617E-1,-1.668109E-1,-8.92274E-1,-9.7229093E-1,-3.2418194E-1,1.1539717E-1,-1.7199348E-1,7.209613E-1,-8.663196E-1,-3.609068E-1,-2.805722E-1,2.572582E-1,-6.5249354E-1,-9.094704E-1,-9.7913253E-1,-6.7949486E-1,-1.037908E0,-2.5434473E-1,-1.787306E-2,5.344895E-1,-5.343952E-1,-3.632172E-2,7.654057E-2,7.734288E-1,-9.353232E-1,-6.710363E-1,3.8512295E-1,-5.273377E-1,-8.5009225E-2,-6.0722315E-1,4.0642565E-1,-1.0076572E0,-8.507246E-1,-2.861696E-1,-7.3937416E-1,-9.2124206E-1,-9.89483E-1,-8.823185E-1,-9.881535E-1,9.566732E-2,-6.9833267E-1,-1.1010554E0,-5.0685626E-2,-5.406257E-1,-1.3933815E-1,2.5563863E-1,5.854077E-1,-8.265197E-1,-7.698163E-1,3.9135394E-1,-2.1294658E-1,3.4551632E-1,-2.6196712E-1,6.812968E-1,3.5574937E-1,8.335109E-1,-9.638282E-1,-5.7686144E-1,-9.0788394E-1,-3.6986423E-1,9.8889893E-1,-3.3290395E-1,-6.3764673E-1,3.5938877E-1,-1.865776E-1,9.635679E-1,5.0014E-1,-6.5482306E-1,3.1427902E-1,1.3528605E0,-1.4847683E0,9.766472E-1,-8.6174047E-1,-2.95908E-2,-3.4098735E-1,9.656366E-1,-7.5543964E-1,3.8935336E-1,-8.7004274E-1,-9.8453057E-1,-2.1863051E-1,-9.412217E-1,5.7624346E-1,-1.0993294E0,-1.0649383E0,1.3900085E-1,-6.8853986E-1,9.043238E-2,-1.6816561E-1,-7.533047E-1,-5.6065565E-1,-8.198316E-2,-6.191563E-1,3.511588E-1,-1.1453484E0,6.168938E-1,-1.1026144E0,7.331907E-1,-9.143869E-1,-5.348849E-1,1.5174103E0,8.106547E-2,1.2302666E-1,-4.1755205E-1,2.2929503E-1,1.1100448E0,1.6658962E-1,-4.868703E-1,7.7190053E-1,-6.840958E-1,4.7606233E-1,-8.473668E0,3.4278443E-1,8.745326E-1],"categories":[],"categories_nodes":[],"categories_segments":[],"categories_sizes":[],"default_left":[true,true,true,true,true,true,true,true,true,true,true,true,true,true,true,true,true,true,true,true,true,true,true,true,true,true,true,true,true,true,true,true,true,true,true,true,true,true,true,true,true,true,true,false,true,false,true,true,false,true,true,true,true,true,true,true,true,true,true,true,true,true,true,false,false,false,false,false,false,false,false,false,false,false,false,false,false,false,false,false,false,false,false,false,false,false,false,false,false,false,false,false,false,false,false,false,false,false,false,false,false,false,false,false,false,false,false,false,false,false,false,false,false,false,false,false,false,false,false,false,false],"id":10,"left_children":[1,3,5,7,9,11,13,15,17,19,21,23,25,27,29,31,33,35,37,39,41,43,45,47,49,51,53,55,57,59,61,63,65,67,69,71,73,75,77,79,81,83,85,-1,87,-1,89,91,-1,93,95,97,99,101,103,105,107,109,111,113,115,117,119,-1,-1,-1,-1,-1,-1,-1,-1,-1,-1,-1,-1,-1,-1,-1,-1,-1,-1,-1,-1,-1,-1,-1,-1,-1,-1,-1,-1,-1,-1,-1,-1,-1,-1,-1,-1,-1,-1,-1,-1,-1,-1,-1,-1,-1,-1,-1,-1,-1,-1,-1,-1,-1,-1,-1,-1,-1,-1],"loss_changes":[2.3079382E3,1.4594849E2,5.8819073E2,1.030733E2,3.8356934E0,1.6719391E2,2.68953E2,6.999982E1,2.3130592E1,6.2351074E0,1.9725342E0,8.63159E1,9.631705E1,2.040225E1,6.100415E1,1.1439941E1,4.9741615E1,2.405359E1,1.9583778E1,8.060909E0,2.407837E0,4.140625E-1,8.070237E0,2.543869E0,9.2296906E1,4.3531807E1,2.93171E1,2.4942696E1,2.0527575E1,2.8241035E1,4.1610474E1,6.1795044E0,1.6595367E1,3.212903E1,3.2178185E1,2.5441849E1,7.7675247E0,7.5645294E0,1.1870882E1,6.4113235E-1,3.1881275E0,2.1966896E0,3.805542E0,0E0,5.005234E0,0E0,6.608976E0,8.423434E0,0E0,8.3447815E1,5.2006805E1,2.1877983E1,3.38907E1,2.2594131E1,7.448303E0,2.5839386E0,8.118077E0,1.4348467E1,8.30219E0,8.62162E0,6.648205E0,2.289755E2,2.9074097E1,0E0,0E0,0E0,0E0,0E0,0E0,0E0,0E0,0E0,0E0,0E0,0E0,0E0,0E0,0E0,0E0,0E0,0E0,0E0,0E0,0E0,0E0,0E0,0E0,0E0,0E0,0E0,0E0,0E0,0E0,0E0,0E0,0E0,0E0,0E0,0E0,0E0,0E0,0E0,0E0,0E0,0E0,0E0,0E0,0E0,0E0,0E0,0E0,0E0,0E0,0E0,0E0,0E0,0E0,0E0,0E0,0E0,0E0],"parents":[2147483647,0,0,1,1,2,2,3,3,4,4,5,5,6,6,7,7,8,8,9,9,10,10,11,11,12,12,13,13,14,14,15,15,16,16,17,17,18,18,19,19,20,20,21,21,22,22,23,23,24,24,25,25,26,26,27,27,28,28,29,29,30,30,31,31,32,32,33,33,34,34,35,35,36,36,37,37,38,38,39,39,40,40,41,41,42,42,44,44,46,46,47,47,49,49,50,50,51,51,52,52,53,53,54,54,55,55,56,56,57,57,58,58,59,59,60,60,61,61,62,62],"right_children":[2,4,6,8,10,12,14,16,18,20,22,24,26,28,30,32,34,36,38,40,42,44,46,48,50,52,54,56,58,60,62,64,66,68,70,72,74,76,78,80,82,84,86,-1,88,-1,90,92,-1,94,96,98,100,102,104,106,108,110,112,114,116,118,120,-1,-1,-1,-1,-1,-1,-1,-1,-1,-1,-1,-1,-1,-1,-1,-1,-1,-1,-1,-1,-1,-1,-1,-1,-1,-1,-1,-1,-1,-1,-1,-1,-1,-1,-1,-1,-1,-1,-1,-1,-1,-1,-1,-1,-1,-1,-1,-1,-1,-1,-1,-1,-1,-1,-1,-1,-1,-1],"split_conditions":[5.68481E1,2.4361E-1,1.45E1,5E-1,9.5E0,5E-1,5E-1,1.02555E-1,2.25E1,1.18434995E-1,3.65E1,8.5E0,5E-1,5E-1,5E-1,5.0245002E-2,1.18664995E-1,1.1768E-1,5.389E1,1.1194E-1,3.89745E-1,4.9785E1,4.0989998E1,1.7906001E-1,9.5E0,5E-1,6.000705E1,3.1217E-2,5E-1,9.3600005E-3,5E-6,2.25E1,5E-1,9.5E0,2.36755E-1,1.0521E-1,1.3850001E-3,5.024668E-1,3.5047499E-3,5.508E1,5.0535347E1,5.643E1,2.4842E-1,-2.968449E-1,9.8407995E-3,-2.9644606E-1,5.475275E1,1.6525501E-1,-3.3031663E-1,5.98522E1,5.7520002E-2,5.97468E1,4.028E-2,2.08E-3,5E-1,7.9309E-1,5.982145E1,3.3742501E-3,3.0790001E-2,2.16885E-4,6.03802E1,2.8253498E-4,5E-1,-2.8914848E-1,-1.7305844E-1,-2.7236518E-1,-1.1095927E-1,2.966697E-1,-9.987119E-2,-1.9129403E-1,1.0781664E-1,-5.5973284E-2,2.890704E-1,1.5004201E-1,-1.9644693E-1,9.428371E-2,4.0585816E-1,-4.454305E-1,2.9299417E-1,-2.5852215E-1,-8.87724E-3,-1.0229621E-1,2.89691E-1,-2.266319E-1,1.16806015E-1,-2.6101282E-1,-2.953592E-1,-6.558915E-2,-2.823665E-1,1.7287305E-1,-3.2979882E-1,-3.194815E-1,4.1700255E-2,-2.0656197E-1,2.7129715E-2,-5.0449684E-2,-2.2599143E-1,-1.6819671E-1,-2.4594948E-2,-1.857469E-1,1.0534764E-1,-3.4360453E-1,1.8506816E-1,-3.3078432E-1,2.1995722E-1,-2.743161E-1,-1.6046548E-1,4.552231E-1,2.4319641E-2,3.6908E-2,-1.2526563E-1,6.878851E-2,3.3301347E-1,4.997689E-2,-1.460611E-1,2.3157017E-1,-2.0522875E-1,1.428187E-1,-2.5421004E0,1.02835335E-1,2.623598E-1],"split_indices":[4,8,6,0,6,3,2,8,6,7,6,6,1,0,0,8,8,7,5,7,8,4,4,7,6,0,5,7,1,8,8,6,2,6,8,7,8,7,7,4,5,5,7,0,7,0,4,7,0,5,8,5,8,8,0,8,5,7,7,7,4,7,1,0,0,0,0,0,0,0,0,0,0,0,0,0,0,0,0,0,0,0,0,0,0,0,0,0,0,0,0,0,0,0,0,0,0,0,0,0,0,0,0,0,0,0,0,0,0,0,0,0,0,0,0,0,0,0,0,0,0],"split_type":[0,0,0,0,0,0,0,0,0,0,0,0,0,0,0,0,0,0,0,0,0,0,0,0,0,0,0,0,0,0,0,0,0,0,0,0,0,0,0,0,0,0,0,0,0,0,0,0,0,0,0,0,0,0,0,0,0,0,0,0,0,0,0,0,0,0,0,0,0,0,0,0,0,0,0,0,0,0,0,0,0,0,0,0,0,0,0,0,0,0,0,0,0,0,0,0,0,0,0,0,0,0,0,0,0,0,0,0,0,0,0,0,0,0,0,0,0,0,0,0,0],"sum_hessian":[1.0419045E4,4.740373E3,5.678672E3,1.7694845E3,2.9708887E3,3.4593135E3,2.2193582E3,1.2925172E3,4.769673E2,1.6550549E3,1.3158337E3,1.7359961E3,1.7233174E3,4.1434717E2,1.805011E3,8.9453546E2,3.9798178E2,3.763465E2,1.00620804E2,1.1335865E2,1.5416963E3,1.2834989E3,3.233481E1,1.534899E2,1.5825062E3,1.3082537E3,4.1506375E2,1.1206476E2,3.022824E2,1.3608134E2,1.6689297E3,6.5817786E2,2.3635759E2,7.235135E1,3.2563043E2,2.3619745E2,1.4014905E2,9.061371E1,1.0007095E1,7.2697235E1,4.066141E1,1.0391886E2,1.4377773E3,1.1512023E3,1.3229662E2,2.2929737E1,9.405069E0,2.5958248E1,1.27531654E2,9.253751E2,6.5713104E2,9.062731E2,4.0198053E2,4.0064468E2,1.4419066E1,8.9478516E1,2.258624E1,2.0698209E2,9.530032E1,8.760945E1,4.8471897E1,2.107508E2,1.4581788E3,6.081303E2,5.004755E1,1.311803E2,1.0517729E2,3.9097614E1,3.325373E1,2.8985345E2,3.5776978E1,2.1608853E2,2.0108927E1,5.38419E0,1.3476485E2,8.378802E1,6.825692E0,8.270306E0,1.7367896E0,7.168608E1,1.0111547E0,3.965259E1,1.0088207E0,1.0278659E2,1.1322746E0,8.029513E2,6.348261E2,1.1168459E1,1.2112817E2,7.0768514E0,2.328218E0,1.7864779E1,8.09347E0,1.669375E2,7.584377E2,2.3949663E2,4.1763443E2,1.0753906E2,7.98734E2,3.9032284E1,3.6294824E2,6.5262885E0,3.941184E2,1.249951E1,1.9195564E0,5.3601433E1,3.5877083E1,4.038813E0,1.8547428E1,7.849226E1,1.2848982E2,8.3853134E1,1.1447184E1,3.0242033E1,5.7367416E1,4.586321E1,2.608689E0,2.08851E2,1.8998002E0,1.1321294E2,1.344966E3],"tree_param":{"num_deleted":"0","num_feature":"10","num_nodes":"121","size_leaf_vector":"0"}},{"base_weights":[-2.3845777E-1,-7.673721E-1,1.0257569E-1,-5.5814517E-1,-9.0288264E-1,-2.250983E-1,3.4787056E-1,-7.5300705E-1,-3.3136293E-1,-8.6081296E-1,-9.5594215E-1,-3.9682877E-1,-8.563765E-2,-1.577846E-1,5.090422E-1,-8.737801E-1,5.3930636E-3,-5.2334625E-1,2.9508543E-1,-7.918662E-1,-9.6335065E-1,-9.6395624E-1,-6.229285E-1,-6.666516E-1,-2.3425645E-1,-1.4761257E-1,1.6480742E-1,-5.0748867E-1,1.0057645E-1,2.4654078E-1,6.9116265E-1,-9.7046345E-1,-7.608341E-1,-3.65583E-1,1.365019E0,-8.812007E-1,-2.0903617E-1,-1.6890313E-1,5.984328E-1,-8.437831E-1,-2.5570098E-1,-9.692319E-1,-1.5119515E-1,-9.721381E-1,-8.235027E-1,-9.628453E-1,3.2441586E-1,-8.201265E-1,-1.3190602E-1,-6.7779756E-1,-7.966444E-2,-4.7285333E-1,-6.931924E-2,2.3234878E-1,-9.7803813E-1,-8.458653E-2,-8.176346E-1,3.438905E-2,1.0302049E0,4.7012284E-1,1.1375438E-1,-2.7096593E-1,7.212172E-1,-1.0020486E0,-6.026971E-1,-1.0312247E0,-6.44659E-1,-8.6825603E-1,7.682465E-2,3.074584E0,8.9502347E-1,-9.546836E-1,-5.8416706E-1,-3.398626E-1,4.179715E-1,-8.053335E-1,1.9634522E-1,8.571163E-1,-2.4796095E-1,-5.9885657E-1,-8.83326E-1,-1.7405766E-1,-4.4450957E-1,-5.8806723E-1,2.0224209E-1,-7.450595E-2,-9.058897E-1,-5.682645E-2,5.404064E-1,-8.726484E-1,-5.460691E-1,3.3927983E-1,-3.6282256E-1,-1.7753805E-1,-8.4291875E-1,-9.0142614E-1,-3.1178813E-2,-8.677086E-1,-1.628464E-1,-2.3368686E-2,-5.381325E-1,2.99162E-3,6.192557E-1,-4.5330393E-1,-1.0755131E0,1.967675E0,-1.4369674E-1,-9.5915943E-1,-5.5567443E-1,2.7258348E-1,-4.5416474E-1,1.1163697E-1,1.0710725E0,-1.1748371E0,5.2640337E-1,1.5210731E-1,-1.1395073E0,-1.393017E-1,-1.4078451E0,2.3807496E-1,7.658825E-1],"categories":[],"categories_nodes":[],"categories_segments":[],"categories_sizes":[],"default_left":[true,true,true,true,true,true,true,true,true,true,true,true,true,true,true,true,true,true,true,true,true,true,true,true,true,true,true,true,true,true,true,true,true,true,true,true,true,true,true,true,true,false,true,false,true,false,true,true,true,true,true,true,true,true,true,true,true,true,true,true,true,true,true,false,false,false,false,false,false,false,false,false,false,false,false,false,false,false,false,false,false,false,false,false,false,false,false,false,false,false,false,false,false,false,false,false,false,false,false,false,false,false,false,false,false,false,false,false,false,false,false,false,false,false,false,false,false,false,false,false,false],"id":11,"left_children":[1,3,5,7,9,11,13,15,17,19,21,23,25,27,29,31,33,35,37,39,41,43,45,47,49,51,53,55,57,59,61,63,65,67,69,71,73,75,77,79,81,-1,83,-1,85,-1,87,89,91,93,95,97,99,101,103,105,107,109,111,113,115,117,119,-1,-1,-1,-1,-1,-1,-1,-1,-1,-1,-1,-1,-1,-1,-1,-1,-1,-1,-1,-1,-1,-1,-1,-1,-1,-1,-1,-1,-1,-1,-1,-1,-1,-1,-1,-1,-1,-1,-1,-1,-1,-1,-1,-1,-1,-1,-1,-1,-1,-1,-1,-1,-1,-1,-1,-1,-1,-1],"loss_changes":[1.6121157E3,9.883081E1,4.3688147E2,6.0726166E1,3.9199219E0,5.5700638E1,2.5339725E2,6.79082E1,7.7061295E1,7.6865234E0,1.8831787E0,4.558017E1,1.9977213E1,6.799729E1,1.1252252E2,6.2451477E0,5.2367367E1,5.4909714E1,2.130383E1,1.9833221E1,2.126587E0,2.4157715E-1,8.264785E0,3.201996E1,4.466404E1,2.622167E1,1.9947643E1,4.186283E1,2.6627659E1,2.8658504E1,4.0422363E1,3.3563538E0,8.745865E0,1.8208778E1,1.5129803E1,4.4348755E0,2.1640938E1,1.418268E1,2.0204517E1,5.826721E0,9.249096E-1,0E0,8.301792E-1,0E0,3.4166489E0,0E0,6.2928486E-1,3.899002E0,9.751324E0,1.3762871E1,1.9285938E1,2.4324192E1,1.7914135E1,2.1476097E1,2.5146675E-1,1.6826536E1,6.3005066E0,4.7320236E1,9.603443E-1,3.395002E1,2.9400978E1,6.220441E0,2.8934753E1,0E0,0E0,0E0,0E0,0E0,0E0,0E0,0E0,0E0,0E0,0E0,0E0,0E0,0E0,0E0,0E0,0E0,0E0,0E0,0E0,0E0,0E0,0E0,0E0,0E0,0E0,0E0,0E0,0E0,0E0,0E0,0E0,0E0,0E0,0E0,0E0,0E0,0E0,0E0,0E0,0E0,0E0,0E0,0E0,0E0,0E0,0E0,0E0,0E0,0E0,0E0,0E0,0E0,0E0,0E0,0E0,0E0,0E0],"parents":[2147483647,0,0,1,1,2,2,3,3,4,4,5,5,6,6,7,7,8,8,9,9,10,10,11,11,12,12,13,13,14,14,15,15,16,16,17,17,18,18,19,19,20,20,21,21,22,22,23,23,24,24,25,25,26,26,27,27,28,28,29,29,30,30,31,31,32,32,33,33,34,34,35,35,36,36,37,37,38,38,39,39,40,40,42,42,44,44,46,46,47,47,48,48,49,49,50,50,51,51,52,52,53,53,54,54,55,55,56,56,57,57,58,58,59,59,60,60,61,61,62,62],"right_children":[2,4,6,8,10,12,14,16,18,20,22,24,26,28,30,32,34,36,38,40,42,44,46,48,50,52,54,56,58,60,62,64,66,68,70,72,74,76,78,80,82,-1,84,-1,86,-1,88,90,92,94,96,98,100,102,104,106,108,110,112,114,116,118,120,-1,-1,-1,-1,-1,-1,-1,-1,-1,-1,-1,-1,-1,-1,-1,-1,-1,-1,-1,-1,-1,-1,-1,-1,-1,-1,-1,-1,-1,-1,-1,-1,-1,-1,-1,-1,-1,-1,-1,-1,-1,-1,-1,-1,-1,-1,-1,-1,-1,-1,-1,-1,-1,-1,-1,-1,-1,-1],"split_conditions":[5.4039253E1,3.08495E-1,5E-1,5E-1,9.5E0,5E-1,5E-1,1.25E1,5E-1,2.4842E-1,3.65E1,5.9995003E1,5E-1,4.4864997E-2,1.45E1,3.688E-2,4.3312E-2,4.98005E-2,1.9515E-2,2.38085E-1,5E-1,4.9785E1,5E-1,1.25E1,5E-1,5.218E-2,6.000705E1,5.7677E-2,1.25E1,1.18395E-1,3.6669499E-9,5E-1,9.9891E-1,4.7885E1,4.5165002E-2,5E-1,4.873955E1,5E-1,1.7636001E-1,1.1913E-1,2.4293E-1,-2.9076958E-1,3.44755E-1,-2.9164144E-1,9.8407995E-3,-2.8885362E-1,4.753E1,5.971965E1,2.85115E-1,2.5834E-1,6.5E0,7.9718E-1,3.5E0,2.3394E-1,6.0345352E1,5.461405E1,2.119E-2,9.5E0,5.5405E1,7.22E-3,1.1E1,1.755E2,5E-1,-3.006146E-1,-1.8080913E-1,-3.0936742E-1,-1.933977E-1,-2.6047683E-1,2.3047395E-2,9.2237526E-1,2.6850706E-1,-2.864051E-1,-1.7525013E-1,-1.0195879E-1,1.2539145E-1,-2.4160005E-1,5.890357E-2,2.5713488E-1,-7.438829E-2,-1.7965698E-1,-2.649978E-1,-5.22173E-2,-1.3335288E-1,-1.7642018E-1,6.067263E-2,-2.2351785E-2,-2.7176693E-1,-1.7047936E-2,1.6212192E-1,-2.6179454E-1,-1.6382073E-1,1.0178395E-1,-1.08846776E-1,-5.3261418E-2,-2.5287563E-1,-2.7042785E-1,-9.353644E-3,-2.603126E-1,-4.8853923E-2,-7.010606E-3,-1.6143975E-1,8.9748605E-4,1.8577673E-1,-1.3599119E-1,-3.2265395E-1,5.903025E-1,-4.3109022E-2,-2.8774783E-1,-1.6670233E-1,8.177505E-2,-1.3624942E-1,3.349109E-2,3.2132176E-1,-3.5245115E-1,1.5792102E-1,4.5632195E-2,-3.418522E-1,-4.179051E-2,-4.2235357E-1,7.142249E-2,2.2976476E-1],"split_indices":[4,8,2,3,6,3,0,6,2,7,6,4,1,8,6,8,7,7,8,7,2,4,0,6,0,7,5,7,6,7,7,0,7,4,7,1,4,1,7,7,7,0,8,0,7,0,4,4,8,8,6,8,9,8,5,5,8,6,5,8,6,6,1,0,0,0,0,0,0,0,0,0,0,0,0,0,0,0,0,0,0,0,0,0,0,0,0,0,0,0,0,0,0,0,0,0,0,0,0,0,0,0,0,0,0,0,0,0,0,0,0,0,0,0,0,0,0,0,0,0,0],"split_type":[0,0,0,0,0,0,0,0,0,0,0,0,0,0,0,0,0,0,0,0,0,0,0,0,0,0,0,0,0,0,0,0,0,0,0,0,0,0,0,0,0,0,0,0,0,0,0,0,0,0,0,0,0,0,0,0,0,0,0,0,0,0,0,0,0,0,0,0,0,0,0,0,0,0,0,0,0,0,0,0,0,0,0,0,0,0,0,0,0,0,0,0,0,0,0,0,0,0,0,0,0,0,0,0,0,0,0,0,0,0,0,0,0,0,0,0,0,0,0,0,0],"sum_hessian":[8.93602E3,3.5025725E3,5.433447E3,1.3788152E3,2.1237573E3,2.3261592E3,3.1072874E3,7.403508E2,6.3846436E2,1.1941587E3,9.2959875E2,1.0416439E3,1.2845154E3,7.5103455E2,2.356253E3,6.385167E2,1.0183407E2,4.8882278E2,1.4964156E2,7.192528E2,4.7490585E2,9.059032E2,2.3695562E1,3.9047238E2,6.511715E2,1.0300345E3,2.5448083E2,3.186977E2,4.3233685E2,9.661029E2,1.3901499E3,3.3993503E2,2.9858173E2,8.057906E1,2.1255009E1,2.277345E2,2.6108832E2,5.9332314E1,9.030924E1,6.5523285E2,6.401996E1,4.7129953E2,3.6063194E0,8.5044104E2,5.5462135E1,1.7426422E1,6.2691402E0,3.029814E2,8.7490974E1,1.6742546E2,4.8374606E2,1.9886862E2,8.311659E2,2.4103267E2,1.3448168E1,1.3537654E2,1.8332114E2,4.0456946E2,2.776742E1,3.5903287E2,6.0707007E2,4.1866676E1,1.3482833E3,3.1146094E2,2.8474092E1,8.736604E1,2.1121568E2,3.7269775E1,4.3309288E1,3.3883753E0,1.7866634E1,1.8079395E2,4.6940548E1,2.16395E2,4.46933E1,2.1195364E1,3.8136948E1,6.915938E1,2.1149866E1,9.332548E1,5.6190735E2,4.6035484E1,1.798447E1,1.3159122E0,2.2904074E0,5.6848E0,4.9777336E1,2.533751E0,3.7353895E0,2.5242168E2,5.055974E1,2.8620827E1,5.8870144E1,4.2063362E1,1.2536209E2,2.5971684E1,4.5777438E2,8.66736E1,1.1219502E2,7.5792773E2,7.323817E1,1.5195938E2,8.907329E1,2.9919834E0,1.0456184E1,2.8860726E0,1.3249048E2,1.1729217E2,6.602896E1,2.722675E2,1.3230197E2,1.3417151E0,2.6425705E1,1.1220054E1,3.4781284E2,5.8989636E2,1.717367E1,3.8527287E1,3.339391E0,1.1463308E2,1.2336501E3],"tree_param":{"num_deleted":"0","num_feature":"10","num_nodes":"121","size_leaf_vector":"0"}},{"base_weights":[-2.036093E-1,-7.6002216E-1,5.4023463E-2,-5.8072734E-1,-8.683451E-1,-9.3064226E-2,4.3817997E-1,-7.816845E-1,-3.6378804E-1,-8.081053E-1,-9.497835E-1,-2.8378826E-1,7.698048E-2,-4.1955985E-2,5.863322E-1,-8.3213943E-1,4.1477844E-2,-5.256393E-1,2.2309186E-1,-7.2466195E-1,-9.4901156E-1,-9.532669E-1,-5.410964E-1,-9.915433E-1,-2.2770502E-1,-4.2405352E-2,3.584477E-1,-5.9604245E-1,3.2940287E-2,-5.3360805E-2,6.581293E-1,-9.648371E-1,-6.665045E-1,-5.5444473E-1,8.9707124E-1,-9.068804E-1,-2.7052477E-1,4.3770877E-1,-6.684847E-1,-7.8493774E-1,-1.6737057E-1,-9.517165E-1,-2.767878E-1,-9.840051E-1,-8.8845485E-1,6.74085E-1,-8.9108235E-1,-6.9017774E-1,-1.062388E0,-6.3329495E-2,-4.4418436E-1,-1.2518817E-1,1.5088965E-1,-9.31488E-1,3.897707E-1,-1.5975508E-1,-8.572302E-1,-1.3676055E-1,3.7029865E-1,-7.7872354E-1,6.273513E-2,3.0290192E-1,7.441331E-1,-2.3127456E-1,-9.776581E-1,-4.9639428E-1,-9.163346E-1,-7.07698E-1,2.4588989E-1,1.0546454E0,-1.8728486E-1,-9.1927356E-1,-1.9960907E-1,-1.8298714E-1,-8.0031896E-1,6.66035E-2,1.0021337E0,-1.0898724E0,1.6318512E-1,-5.051522E-1,-8.337955E-1,2.184292E-1,-2.0651679E-1,-9.938861E-1,-2.2690682E-1,-7.551493E-1,-9.677964E-1,-1.026091E0,-1.8454613E-2,-5.288526E-1,7.0309326E-2,-2.1811695E-1,-7.3787314E-1,-5.497341E-1,-5.2719373E-2,4.636602E-1,4.53249E-2,-1.4634577E0,7.900154E-1,4.7862947E-1,-6.584047E-2,-9.9591625E-1,6.254812E-1,-1.3834543E0,-5.424716E-1,-8.869559E-1,-5.544978E-2,-9.456392E-2,7.693633E-1,1.04225434E-1,-1.505536E0,-2.1087243E-1,3.7242824E-1,-1.3596188E-1,3.9371607E-1,2.3320219E-1,8.003929E-1],"categories":[],"categories_nodes":[],"categories_segments":[],"categories_sizes":[],"default_left":[true,true,true,true,true,true,true,true,true,true,true,true,true,true,true,true,true,true,true,true,true,true,true,true,true,true,true,true,true,true,true,true,true,true,true,true,true,true,true,true,true,false,false,true,true,false,false,true,false,true,true,true,true,true,true,true,true,true,true,true,true,true,true,false,false,false,false,false,false,false,false,false,false,false,false,false,false,false,false,false,false,false,false,false,false,false,false,false,false,false,false,false,false,false,false,false,false,false,false,false,false,false,false,false,false,false,false,false,false,false,false,false,false,false,false,false,false],"id":12,"left_children":[1,3,5,7,9,11,13,15,17,19,21,23,25,27,29,31,33,35,37,39,41,43,45,47,49,51,53,55,57,59,61,63,65,67,69,71,73,75,77,79,81,-1,-1,83,85,-1,-1,87,-1,89,91,93,95,97,99,101,103,105,107,109,111,113,115,-1,-1,-1,-1,-1,-1,-1,-1,-1,-1,-1,-1,-1,-1,-1,-1,-1,-1,-1,-1,-1,-1,-1,-1,-1,-1,-1,-1,-1,-1,-1,-1,-1,-1,-1,-1,-1,-1,-1,-1,-1,-1,-1,-1,-1,-1,-1,-1,-1,-1,-1,-1,-1,-1],"loss_changes":[1.1149569E3,4.7303223E1,3.004775E2,4.0263367E1,6.7504883E0,1.2474417E2,1.0475546E2,2.0051544E1,4.2778893E1,9.748169E0,4.0368652E-1,7.17319E1,6.835927E1,1.4465882E1,5.1713867E1,9.339355E0,1.5175255E1,3.402337E1,1.900433E1,1.873639E1,3.3096313E-1,3.9898682E-1,3.9058163E0,2.1022034E0,5.9789833E1,2.2885172E1,2.4842125E1,4.5925255E0,1.766114E1,9.688639E0,3.0684143E1,2.124405E0,8.267929E0,2.3311105E0,2.2822266E0,1.0509033E0,9.709232E0,1.656889E1,6.9655304E0,6.503784E0,8.9225817E-1,0E0,0E0,2.9479675E0,1.5526276E0,0E0,0E0,6.328787E0,0E0,5.955385E1,4.799849E1,3.0770025E1,1.4141735E1,1.4579577E1,2.4006363E1,1.1634633E1,3.5116863E0,1.2479299E1,1.9220848E1,1.0340075E1,8.518316E0,7.9803963E0,2.3207245E1,0E0,0E0,0E0,0E0,0E0,0E0,0E0,0E0,0E0,0E0,0E0,0E0,0E0,0E0,0E0,0E0,0E0,0E0,0E0,0E0,0E0,0E0,0E0,0E0,0E0,0E0,0E0,0E0,0E0,0E0,0E0,0E0,0E0,0E0,0E0,0E0,0E0,0E0,0E0,0E0,0E0,0E0,0E0,0E0,0E0,0E0,0E0,0E0,0E0,0E0,0E0,0E0,0E0,0E0],"parents":[2147483647,0,0,1,1,2,2,3,3,4,4,5,5,6,6,7,7,8,8,9,9,10,10,11,11,12,12,13,13,14,14,15,15,16,16,17,17,18,18,19,19,20,20,21,21,22,22,23,23,24,24,25,25,26,26,27,27,28,28,29,29,30,30,31,31,32,32,33,33,34,34,35,35,36,36,37,37,38,38,39,39,40,40,43,43,44,44,47,47,49,49,50,50,51,51,52,52,53,53,54,54,55,55,56,56,57,57,58,58,59,59,60,60,61,61,62,62],"right_children":[2,4,6,8,10,12,14,16,18,20,22,24,26,28,30,32,34,36,38,40,42,44,46,48,50,52,54,56,58,60,62,64,66,68,70,72,74,76,78,80,82,-1,-1,84,86,-1,-1,88,-1,90,92,94,96,98,100,102,104,106,108,110,112,114,116,-1,-1,-1,-1,-1,-1,-1,-1,-1,-1,-1,-1,-1,-1,-1,-1,-1,-1,-1,-1,-1,-1,-1,-1,-1,-1,-1,-1,-1,-1,-1,-1,-1,-1,-1,-1,-1,-1,-1,-1,-1,-1,-1,-1,-1,-1,-1,-1,-1,-1,-1,-1,-1,-1],"split_conditions":[4.91291E1,3.69285E-1,1.85E1,5E-1,9.5E0,5E-1,5E-1,2.35E1,5E-1,2.4842E-1,4.8285E1,8.5E0,5E-1,8.895E-3,1.7441E-6,3.688E-2,3.6125E-3,5.2978E-2,3.79319E1,2.389E-1,5E-1,5.1562E-2,4.8405E1,1.79E-1,9.5E0,5E-1,1.6699999E-3,9.50385E-4,5E-1,5.92861E1,5.9875603E1,1.09129995E-2,9.5E0,3.5E0,3.5E0,3.33095E-1,5.5E0,8.6164996E-2,4.5945E1,1.1913E-1,2.3996E-1,-2.8551495E-1,-8.303634E-2,5E-1,8.10895E-2,2.0222552E-1,-2.6732472E-1,1.65265E-1,-3.187164E-1,5.9805298E1,1.1001E-1,5.218E-2,6.0586497E-2,1.0391E-1,1.18259996E-1,5E-1,3.15335E-3,5E-1,8.7696E-3,5.58265E1,1.9586999E-8,2.15E1,5E-1,-6.938237E-2,-2.9329744E-1,-1.4891829E-1,-2.749004E-1,-2.123094E-1,7.376697E-2,3.1639364E-1,-5.6185458E-2,-2.7578208E-1,-5.9882723E-2,-5.4896142E-2,-2.4009569E-1,1.9981049E-2,3.0064014E-1,-3.2696173E-1,4.8955537E-2,-1.5154567E-1,-2.5013867E-1,6.552876E-2,-6.195504E-2,-2.9816586E-1,-6.807205E-2,-2.265448E-1,-2.9033893E-1,-3.078273E-1,-5.536384E-3,-1.5865578E-1,2.1092799E-2,-6.543509E-2,-2.2136195E-1,-1.6492024E-1,-1.5815813E-2,1.3909806E-1,1.3597471E-2,-4.3903732E-1,2.3700462E-1,1.4358884E-1,-1.9752141E-2,-2.987749E-1,1.8764436E-1,-4.1503632E-1,-1.6274148E-1,-2.660868E-1,-1.6634936E-2,-2.8369175E-2,2.3080899E-1,3.126763E-2,-4.516608E-1,-6.326173E-2,1.11728474E-1,-4.0788565E-2,1.1811482E-1,6.996066E-2,2.401179E-1],"split_indices":[4,8,6,3,6,3,2,6,2,7,5,6,1,8,7,8,7,7,5,7,2,7,5,7,6,2,8,7,1,5,5,7,6,9,9,8,9,8,5,7,7,0,0,0,7,0,0,7,0,5,8,7,7,7,7,0,7,0,7,5,7,6,1,0,0,0,0,0,0,0,0,0,0,0,0,0,0,0,0,0,0,0,0,0,0,0,0,0,0,0,0,0,0,0,0,0,0,0,0,0,0,0,0,0,0,0,0,0,0,0,0,0,0,0,0,0,0],"split_type":[0,0,0,0,0,0,0,0,0,0,0,0,0,0,0,0,0,0,0,0,0,0,0,0,0,0,0,0,0,0,0,0,0,0,0,0,0,0,0,0,0,0,0,0,0,0,0,0,0,0,0,0,0,0,0,0,0,0,0,0,0,0,0,0,0,0,0,0,0,0,0,0,0,0,0,0,0,0,0,0,0,0,0,0,0,0,0,0,0,0,0,0,0,0,0,0,0,0,0,0,0,0,0,0,0,0,0,0,0,0,0,0,0,0,0,0,0],"sum_hessian":[7.7765684E3,2.4605457E3,5.3160225E3,9.290894E2,1.5314563E3,3.8447024E3,1.4713203E3,4.8095953E2,4.481299E2,8.865788E2,6.448775E2,1.8118463E3,2.0328561E3,3.471107E2,1.1242096E3,4.531719E2,2.7787638E1,3.513406E2,9.678929E1,5.6068787E2,3.2589093E2,6.3810614E2,6.7714067E0,1.3180641E2,1.6800399E3,1.4280082E3,6.048479E2,4.050374E1,3.0660696E2,1.13470894E2,1.0107387E3,2.489232E2,2.042487E2,1.6586843E1,1.1200794E1,1.39828E2,2.115126E2,7.842112E1,1.8368172E1,5.0559497E2,5.5092896E1,3.2417075E2,1.7201768E0,4.2320987E2,2.1489626E2,1.3070794E0,5.4643273E0,2.7131996E1,1.0467441E2,9.556757E2,7.243642E2,1.000062E3,4.2794614E2,1.3657791E1,5.911901E2,1.5771205E1,2.4732533E1,2.043884E2,1.0221855E2,1.4868089E1,9.8602806E1,1.9789244E2,8.1284625E2,4.6029067E0,2.443203E2,1.23288246E2,8.096045E1,1.401828E1,2.5685637E0,9.803578E0,1.3972161E0,1.3712547E2,2.7025342E0,1.8267474E2,2.8837862E1,4.7987617E1,3.0433504E1,1.1985126E1,6.3830457E0,7.685001E1,4.2874496E2,4.6532874E0,5.0439606E1,4.1744888E2,5.7609725E0,8.4105034E1,1.3079121E2,1.7735388E1,9.396609E0,2.1249709E2,7.431786E2,4.1028745E2,3.1407675E2,1.4485693E2,8.552051E2,1.0713399E2,3.2081213E2,1.0548153E1,3.109638E0,4.946642E2,9.65259E1,7.507994E0,8.26321E0,7.985992E0,1.674654E1,1.9017698E1,1.853707E2,4.756918E1,5.4649372E1,7.0997467E0,7.7683425E0,5.252082E1,4.6081985E1,3.3843746E1,1.6404869E2,8.11368E1,7.317095E2],"tree_param":{"num_deleted":"0","num_feature":"10","num_nodes":"117","size_leaf_vector":"0"}},{"base_weights":[-1.6875242E-1,-6.4349496E-1,6.47449E-2,-4.1042972E-1,-8.1391186E-1,-4.9769748E-2,3.838149E-1,-2.311792E-1,-6.7858636E-1,-7.484825E-1,-9.0519404E-1,4.038111E-2,-2.5313905E-1,-2.524394E-2,5.17067E-1,-2.7589068E-1,1.5960935E0,-7.343517E-1,9.4246864E-1,-6.681041E-1,-8.749937E-1,-9.268384E-1,-6.784969E-1,4.8010563E-3,8.874298E-1,-7.0980024E-1,-1.5028861E-1,