{"learner":{"attributes":{"best_iteration":"99","best_ntree_limit":"100","scikit_learn":"{\"use_label_encoder\": false, \"n_estimators\": 100, \"objective\": \"binary:logistic\", \"max_depth\": null, \"learning_rate\": null, \"verbosity\": null, \"booster\": null, \"tree_method\": null, \"gamma\": null, \"min_child_weight\": null, \"max_delta_step\": null, \"subsample\": null, \"colsample_bytree\": null, \"colsample_bylevel\": null, \"colsample_bynode\": null, \"reg_alpha\": null, \"reg_lambda\": null, \"scale_pos_weight\": null, \"base_score\": null, \"missing\": NaN, \"num_parallel_tree\": null, \"random_state\": null, \"n_jobs\": null, \"monotone_constraints\": null, \"interaction_constraints\": null, \"importance_type\": null, \"gpu_id\": null, \"validate_parameters\": null, \"predictor\": null, \"enable_categorical\": false, \"classes_\": [false, true], \"n_classes_\": 2, \"_estimator_type\": \"classifier\"}"},"feature_names":["POS","Mutect2","Freebayes","Vardict","Varscan","FILTER_Mutect2","FILTER_Freebayes","FILTER_Vardict","FILTER_Varscan","m2_MQ","f_MQMR","vs_SSC","vs_SPV","vd_SSF","vd_MSI","Chr_1","Chr_10","Chr_11","Chr_12","Chr_13","Chr_14","Chr_15","Chr_16","Chr_17","Chr_18","Chr_19","Chr_2","Chr_20","Chr_21","Chr_22","Chr_3","Chr_4","Chr_5","Chr_6","Chr_7","Chr_8","Chr_9","Chr_GL000191.1","Chr_GL000192.1","Chr_GL000193.1","Chr_GL000194.1","Chr_GL000195.1","Chr_GL000198.1","Chr_GL000199.1","Chr_GL000200.1","Chr_GL000203.1","Chr_GL000204.1","Chr_GL000205.1","Chr_GL000206.1","Chr_GL000207.1","Chr_GL000208.1","Chr_GL000209.1","Chr_GL000211.1","Chr_GL000212.1","Chr_GL000213.1","Chr_GL000214.1","Chr_GL000215.1","Chr_GL000216.1","Chr_GL000217.1","Chr_GL000218.1","Chr_GL000219.1","Chr_GL000220.1","Chr_GL000221.1","Chr_GL000222.1","Chr_GL000224.1","Chr_GL000225.1","Chr_GL000226.1","Chr_GL000227.1","Chr_GL000228.1","Chr_GL000229.1","Chr_GL000230.1","Chr_GL000231.1","Chr_GL000232.1","Chr_GL000233.1","Chr_GL000234.1","Chr_GL000235.1","Chr_GL000237.1","Chr_GL000238.1","Chr_GL000239.1","Chr_GL000240.1","Chr_GL000241.1","Chr_GL000243.1","Chr_GL000244.1","Chr_GL000245.1","Chr_GL000247.1","Chr_MT","Chr_X","Chr_Y","REF_A","REF_C","REF_G","REF_T","ALT_A","ALT_C","ALT_G","ALT_T"],"feature_types":["int","i","i","i","i","i","i","i","i","float","float","float","float","float","float","int","int","int","int","int","int","int","int","int","int","int","int","int","int","int","int","int","int","int","int","int","int","int","int","int","int","int","int","int","int","int","int","int","int","int","int","int","int","int","int","int","int","int","int","int","int","int","int","int","int","int","int","int","int","int","int","int","int","int","int","int","int","int","int","int","int","int","int","int","int","int","int","int","int","int","int","int","int","int","int","int"],"gradient_booster":{"model":{"gbtree_model_param":{"num_trees":"100","size_leaf_vector":"0"},"tree_info":[0,0,0,0,0,0,0,0,0,0,0,0,0,0,0,0,0,0,0,0,0,0,0,0,0,0,0,0,0,0,0,0,0,0,0,0,0,0,0,0,0,0,0,0,0,0,0,0,0,0,0,0,0,0,0,0,0,0,0,0,0,0,0,0,0,0,0,0,0,0,0,0,0,0,0,0,0,0,0,0,0,0,0,0,0,0,0,0,0,0,0,0,0,0,0,0,0,0,0,0],"trees":[{"base_weights":[-1.6205376E0,1.1482635E0,-1.9008955E0,-1.87251E0,1.8108581E0,-1.985714E0,-1.1041771E0,-1.9769673E0,-1.6101695E0,-1.6666666E0,1.9347432E0,-1.9973795E0,-1.790164E0,-1.9494524E0,1.4962594E-1,4E-1,-1.7155555E0,-1.8545455E0,2.857143E-1,-1E0,1.9430648E0,-1.9848894E0,-5.034965E-1,-1.9014778E0,8.419301E-1,-5E-1,9.0909094E-1,-4.6153846E-1,-1.8423645E0,-1.8867924E0,-5E-1,1E0,-4E-1,5.185185E-1,1.9524245E0,-5E-1,-1.98702E0,-1.6285714E0,5.6E-1,-1.9675676E0,-1.1E0,1.5227882E0,-2.6956522E-1,-1.3333334E0,1E0,-1.8787879E0,-2.2222222E-1,-1.9215686E0,-5E-1,-1E0,9.5652175E-1,6.666667E-1,1.9559363E0,-1.9139785E0,-9.8039216E-1,-6.25E-1,1.3777778E0,-1.375E0,-0E0,-2.857143E-1,1.6599424E0,-1.4157304E0,5.3333333E-3],"categories":[],"categories_nodes":[],"categories_segments":[],"categories_sizes":[],"default_left":[false,true,true,true,true,true,true,false,false,true,false,false,true,false,true,false,true,true,true,false,true,false,true,true,false,false,false,false,true,true,false,false,false,false,false,false,false,true,true,false,false,true,false,false,false,false,false,false,false,false,false,false,false,false,false,false,false,false,false,false,false,false,false],"id":0,"left_children":[1,3,5,7,9,11,13,-1,15,17,19,-1,21,-1,23,25,27,29,31,-1,33,35,37,39,41,-1,-1,43,45,47,-1,-1,-1,49,51,-1,-1,53,55,-1,57,59,61,-1,-1,-1,-1,-1,-1,-1,-1,-1,-1,-1,-1,-1,-1,-1,-1,-1,-1,-1,-1],"loss_changes":[8.808797E3,2.0925068E3,6.939922E2,1.9754028E0,3.722163E2,1.7660156E1,1.0532115E3,0E0,1.3185028E1,1.1534195E1,2.21521E1,0E0,1.327301E2,0E0,5.71016E2,2.172727E0,8.094574E0,2.5780487E-1,2.1142857E0,0E0,9.994141E0,4.720459E-1,8.646271E1,3.2120667E0,2.2782005E2,0E0,0E0,9.615385E0,2.5773163E0,3.1723785E-1,0E0,0E0,0E0,5.4460545E0,2.397461E0,0E0,0E0,4.598366E0,3.720111E1,0E0,3.0249996E0,4.6734406E1,3.624165E1,0E0,0E0,0E0,0E0,0E0,0E0,0E0,0E0,0E0,0E0,0E0,0E0,0E0,0E0,0E0,0E0,0E0,0E0,0E0,0E0],"parents":[2147483647,0,0,1,1,2,2,3,3,4,4,5,5,6,6,8,8,9,9,10,10,12,12,14,14,15,15,16,16,17,17,18,18,20,20,21,21,22,22,23,23,24,24,27,27,28,28,29,29,33,33,34,34,37,37,38,38,40,40,41,41,42,42],"right_children":[2,4,6,8,10,12,14,-1,16,18,20,-1,22,-1,24,26,28,30,32,-1,34,36,38,40,42,-1,-1,44,46,48,-1,-1,-1,50,52,-1,-1,54,56,-1,58,60,62,-1,-1,-1,-1,-1,-1,-1,-1,-1,-1,-1,-1,-1,-1,-1,-1,-1,-1,-1,-1],"split_conditions":[4.1751E-3,5E-1,5.88717E1,5E-1,5E-1,3.845955E1,5E-1,-5.9309024E-1,5.976245E1,5.7735E1,2.535E-10,-5.992139E-1,5E-1,-5.8483577E-1,5E-1,5.2155E1,5E-1,5E-1,5.9323547E1,-3E-1,5E-1,4.7155E1,5E-1,5E-1,2.8595E-1,-1.5E-1,2.7272728E-1,5.671E1,5.994275E1,5E-1,-1.5E-1,3E-1,-1.20000005E-1,1.2E2,1.06039995E-8,-1.5E-1,-5.9610605E-1,5E-1,5.5E0,-5.902703E-1,1.171E-1,5E-1,5E-6,-4.0000004E-1,3E-1,-5.6363636E-1,-6.666667E-2,-5.764706E-1,-1.5E-1,-3E-1,2.8695655E-1,2.0000002E-1,5.867809E-1,-5.7419354E-1,-2.9411766E-1,-1.875E-1,4.1333336E-1,-4.1250002E-1,-0E0,-8.5714296E-2,4.9798274E-1,-4.2471913E-1,1.6000001E-3],"split_indices":[12,7,10,5,5,10,5,0,10,9,12,0,5,0,7,9,2,33,10,0,6,9,7,8,12,0,0,9,10,86,0,0,0,10,12,0,0,6,11,0,12,6,13,0,0,0,0,0,0,0,0,0,0,0,0,0,0,0,0,0,0,0,0],"split_type":[0,0,0,0,0,0,0,0,0,0,0,0,0,0,0,0,0,0,0,0,0,0,0,0,0,0,0,0,0,0,0,0,0,0,0,0,0,0,0,0,0,0,0,0,0,0,0,0,0,0,0,0,0,0,0,0,0,0,0,0,0,0,0],"sum_hessian":[1.1344E4,1.04275E3,1.030125E4,1.8725E2,8.555E2,9.30875E3,9.925E2,1.2925E2,5.8E1,2.9E1,8.265E2,8.776E3,5.3275E2,5.925E2,4E2,2.75E0,5.525E1,2.65E1,2.5E0,2E0,8.245E2,4.6225E2,7.05E1,1.005E2,2.995E2,1E0,1.75E0,5.5E0,4.975E1,2.55E1,1E0,1E0,1.5E0,5.75E0,8.1875E2,1E0,4.6125E2,3.4E1,3.65E1,9.15E1,9E0,1.855E2,1.14E2,3.5E0,2E0,4.85E1,1.25E0,2.45E1,1E0,1E0,4.75E0,2.75E0,8.16E2,2.225E1,1.175E1,1.5E1,2.15E1,7E0,2E0,1.3E1,1.725E2,2.125E1,9.275E1],"tree_param":{"num_deleted":"0","num_feature":"96","num_nodes":"63","size_leaf_vector":"0"}},{"base_weights":[-1.2520308E0,9.673709E-1,-1.4605271E0,-1.4300784E0,1.4158067E0,-1.5375262E0,-7.982291E-1,-1.4542859E0,-6.9500214E-1,-1.2294472E0,1.4977064E0,-1.5461249E0,-1.3822078E0,-1.5038742E0,1.7751878E-1,-3.7771267E-1,-1.4666086E0,-1.0966221E0,3.951897E-1,-1.4186839E0,2.540037E-1,1.5042093E0,-1.0351049E0,-1.5351999E0,-3.7299958E-1,-1.5388988E0,-1.3221569E0,-1.4639244E0,6.7007774E-1,-2.499719E-1,6.4439327E-1,1.9634266E-1,1.512765E0,-1.5376807E0,-3.6325866E-1,-9.669138E-1,8.1369746E-1,-3.672083E-1,-1.5409551E0,-1.3654499E0,-8.203355E-2,-1.526714E0,-7.970544E-1,1.159058E0,-1.9899933E-1,-9.977286E-1,9.2399174E-1,1.5154443E0,6.0658634E-2,-4.0813112E-1,-1.539985E0,-1.1453704E0,5.328071E-1,-9.586354E-1,1.1111361E0,-3.672083E-1,-1.3735999E0,-8.325572E-1,4.3200862E-1,4.1556948E-1,-1.0007095E0,-1.1329254E0,1.2484596E0,-1.0863215E0,7.5784395E-3],"categories":[],"categories_nodes":[],"categories_segments":[],"categories_sizes":[],"default_left":[false,true,true,true,true,true,true,false,true,true,false,false,true,true,true,false,false,false,false,false,true,true,false,true,true,false,true,true,false,false,false,false,false,false,false,true,true,false,false,false,true,false,false,false,false,false,false,false,false,false,false,false,false,false,false,false,false,false,false,false,false,false,false,false,false],"id":1,"left_children":[1,3,5,7,9,11,13,15,17,19,21,-1,23,25,27,-1,-1,-1,-1,-1,29,31,-1,33,35,37,39,41,43,-1,-1,45,47,49,-1,51,53,-1,-1,55,57,-1,59,61,63,-1,-1,-1,-1,-1,-1,-1,-1,-1,-1,-1,-1,-1,-1,-1,-1,-1,-1,-1,-1],"loss_changes":[4.8186367E3,9.637971E2,4.8408984E2,1.5064697E0,1.652196E2,9.248047E0,6.841585E2,1.2507324E0,3.2466826E0,6.872154E0,1.3612305E1,0E0,6.992792E1,1.6345215E0,3.3873096E2,0E0,0E0,0E0,0E0,0E0,8.442729E-1,7.876709E0,0E0,5.9332275E-1,4.4081524E1,5.839844E-1,5.2709503E0,2.833664E0,1.3707222E2,0E0,0E0,6.0452466E0,2.730957E0,3.9959717E-1,0E0,1.16894E1,1.2152559E1,0E0,0E0,2.8327942E-1,2.0749552E0,0E0,2.9883595E0,4.3669006E1,2.1417007E1,0E0,0E0,0E0,0E0,0E0,0E0,0E0,0E0,0E0,0E0,0E0,0E0,0E0,0E0,0E0,0E0,0E0,0E0,0E0,0E0],"parents":[2147483647,0,0,1,1,2,2,3,3,4,4,5,5,6,6,7,7,8,8,9,9,10,10,12,12,13,13,14,14,20,20,21,21,23,23,24,24,25,25,26,26,27,27,28,28,31,31,32,32,33,33,35,35,36,36,39,39,40,40,42,42,43,43,44,44],"right_children":[2,4,6,8,10,12,14,16,18,20,22,-1,24,26,28,-1,-1,-1,-1,-1,30,32,-1,34,36,38,40,42,44,-1,-1,46,48,50,-1,52,54,-1,-1,56,58,-1,60,62,64,-1,-1,-1,-1,-1,-1,-1,-1,-1,-1,-1,-1,-1,-1,-1,-1,-1,-1,-1,-1],"split_conditions":[3.063E-3,5E-1,5.842165E1,5.935445E1,5E-1,3.845955E1,5E-1,4.2195E1,5E-1,5.6625E1,1.005E2,-4.638375E-1,5E-1,5.9375E1,5E-1,-1.133138E-1,-4.3998262E-1,-3.2898664E-1,1.1855692E-1,-4.2560518E-1,1.1236703E8,5E-1,-3.1053147E-1,2.35E1,1.35E1,5.5325E1,3.04E-1,5E-1,2.8595E-1,-7.499157E-2,1.93318E-1,2.85E1,4.09E-3,3.8556602E1,-1.089776E-1,5E-1,5E-1,-1.101625E-1,-4.6228653E-1,5.9475E1,5E-1,-4.5801422E-1,5.9895E1,2.5E-5,5E-6,-2.9931858E-1,2.7719754E-1,4.546333E-1,1.819759E-2,-1.2243934E-1,-4.619955E-1,-3.4361112E-1,1.5984213E-1,-2.8759062E-1,3.3334082E-1,-1.101625E-1,-4.1208E-1,-2.4976717E-1,1.296026E-1,1.2467085E-1,-3.0021286E-1,-3.3987764E-1,3.745379E-1,-3.2589644E-1,2.2735319E-3],"split_indices":[12,7,10,10,5,10,5,9,91,9,11,0,5,9,7,0,0,0,0,0,0,6,0,11,11,9,12,8,12,0,0,11,13,10,0,8,6,0,0,9,8,0,9,13,13,0,0,0,0,0,0,0,0,0,0,0,0,0,0,0,0,0,0,0,0],"split_type":[0,0,0,0,0,0,0,0,0,0,0,0,0,0,0,0,0,0,0,0,0,0,0,0,0,0,0,0,0,0,0,0,0,0,0,0,0,0,0,0,0,0,0,0,0,0,0,0,0,0,0,0,0,0,0,0,0,0,0,0,0,0,0,0,0],"sum_hessian":[1.0409286E4,8.935872E2,9.515699E3,1.4046062E2,7.531266E2,8.523438E3,9.922608E2,1.3503523E2,5.4253855E0,2.2196537E1,7.3093005E2,8.067831E3,4.5560736E2,5.755158E2,4.16745E2,1.8863521E0,1.3314888E2,3.960473E0,1.4649124E0,1.972409E1,2.4724462E0,7.294633E2,1.4667499E0,3.9517862E2,6.042874E1,4.762531E2,9.926268E1,9.5735664E1,3.2100934E2,1.2362231E0,1.2362231E0,4.8966064E0,7.245667E2,3.940324E2,1.1462135E0,4.039646E1,2.0032282E1,1.1489251E0,4.751042E2,9.581664E1,3.4460335E0,8.631889E1,9.416768E0,2.0521362E2,1.157957E2,1.7135332E0,3.183073E0,7.231888E2,1.3779467E0,1.1647716E0,3.928676E2,3.6311874E1,4.0845857E0,2.5593064E0,1.7472977E1,1.1489251E0,9.4667725E1,1.1489251E0,2.2971084E0,1.2044653E0,8.212303E0,7.2658987E0,1.9794772E2,2.1063236E1,9.473246E1],"tree_param":{"num_deleted":"0","num_feature":"96","num_nodes":"65","size_leaf_vector":"0"}},{"base_weights":[-1.0805423E0,7.558817E-1,-1.2687267E0,-1.2264631E0,1.1964715E0,-1.3341739E0,-7.1623886E-1,-1.3351532E0,-9.714646E-1,-1.0746676E0,1.2812445E0,-1.3429375E0,-1.2005137E0,-1.2935005E0,7.23477E-2,3.5383415E-1,-1.0836674E0,-1.2280242E0,2.1323042E-1,-2.6726523E-1,1.2922114E0,-1.3338684E0,-3.6165363E-1,-1.3302351E0,-1.1089959E0,-1.2501615E0,4.6476102E-1,-5.167919E-1,8.9467436E-1,-2.574976E-2,-1.217327E0,-1.3047819E0,-5.265324E-1,-2.991852E-1,6.247712E-1,4.1025838E-1,-1.1309936E0,3.7551948E-1,1.2995887E0,-1.1420192E0,5.3924084E-1,-4.0069607E-1,-1.3322649E0,-1.1499869E0,-8.846608E-2,-1.3195767E0,-5.961265E-1,-4.6610244E-2,1.04666E0,-8.5588604E-1,1.0988878E0,-1.2805274E0,-5.2122134E-1,-8.9368427E-1,2.314642E-1,9.2951447E-1,-4.018695E-1,-3.0769235E-1,1.0051428E0,1.3035305E0,4.743384E-1,-4.607859E-1,-1.2394112E0,-1.2337166E0,7.512607E-1,-1.252202E0,-9.3662596E-1,4.4370204E-1,-6.188937E-1,-8.2694644E-1,2.2217369E-1,-1.1539136E0,1.12035885E-1,-9.137824E-1,1.1285253E0],"categories":[],"categories_nodes":[],"categories_segments":[],"categories_sizes":[],"default_left":[false,true,true,true,true,true,true,false,false,true,false,false,true,true,true,false,true,true,false,true,true,false,true,false,true,true,true,false,false,false,true,false,true,false,false,true,false,true,false,true,false,false,false,true,false,false,true,true,false,false,false,false,false,false,false,false,false,false,false,false,false,false,false,false,false,false,false,false,false,false,false,false,false,false,false],"id":2,"left_children":[1,3,5,7,9,11,13,-1,15,17,19,-1,21,23,25,27,29,31,33,35,37,-1,39,41,43,45,47,-1,-1,49,51,-1,53,-1,-1,55,-1,57,59,61,63,-1,-1,65,67,-1,69,71,73,-1,-1,-1,-1,-1,-1,-1,-1,-1,-1,-1,-1,-1,-1,-1,-1,-1,-1,-1,-1,-1,-1,-1,-1,-1,-1],"loss_changes":[3.0187646E3,7.109242E2,2.8546387E2,2.8104858E0,1.2942767E2,6.6816406E0,3.8298386E2,0E0,7.5155106E0,5.0960274E0,1.1241455E1,0E0,4.9312683E1,1.8165283E0,1.8555914E2,2.5800917E0,6.2559814E0,4.986229E-1,9.158087E-1,3.5893567E0,3.8216553E0,0E0,4.450498E1,2.2088623E-1,3.5232391E0,2.9284897E0,8.205868E1,0E0,0E0,6.5507402E0,1.068367E0,0E0,1.2778397E0,0E0,0E0,1.9451349E0,0E0,3.1027756E0,1.4368896E0,1.6696205E0,1.2074571E1,0E0,0E0,6.421814E-1,1.5249565E0,0E0,2.0112717E0,2.6066515E1,2.172734E1,0E0,0E0,0E0,0E0,0E0,0E0,0E0,0E0,0E0,0E0,0E0,0E0,0E0,0E0,0E0,0E0,0E0,0E0,0E0,0E0,0E0,0E0,0E0,0E0,0E0,0E0],"parents":[2147483647,0,0,1,1,2,2,3,3,4,4,5,5,6,6,8,8,9,9,10,10,12,12,13,13,14,14,15,15,16,16,17,17,18,18,19,19,20,20,22,22,23,23,24,24,25,25,26,26,29,29,30,30,32,32,35,35,37,37,38,38,39,39,40,40,43,43,44,44,46,46,47,47,48,48],"right_children":[2,4,6,8,10,12,14,-1,16,18,20,-1,22,24,26,28,30,32,34,36,38,-1,40,42,44,46,48,-1,-1,50,52,-1,54,-1,-1,56,-1,58,60,62,64,-1,-1,66,68,-1,70,72,74,-1,-1,-1,-1,-1,-1,-1,-1,-1,-1,-1,-1,-1,-1,-1,-1,-1,-1,-1,-1,-1,-1,-1,-1,-1,-1],"split_conditions":[4.1751E-3,5E-1,5.84134E1,5E-1,5E-1,3.028645E1,5E-1,-4.0054598E-1,5.9984398E1,5.7735E1,1.06039995E-8,-4.0288126E-1,5E-1,5.9375E1,5E-1,2.6E1,5E-1,1.514994E8,5E-6,5E-1,5E-1,-4.0016052E-1,5E-1,5.5325E1,3.04E-1,5E-1,5E-1,-1.5503757E-1,2.684023E-1,5.671E1,5E-1,-3.9143458E-1,5E-1,-8.975556E-2,1.8743137E-1,5E-1,-3.392981E-1,5E-1,4.06E-3,5.6600003E-3,5E-6,-1.2020882E-1,-3.9967948E-1,1.06455E-1,1.48785E-1,-3.9587304E-1,5E-1,5E-1,5E-6,-2.567658E-1,3.2966635E-1,-3.8415822E-1,-1.5636641E-1,-2.681053E-1,6.943926E-2,2.7885434E-1,-1.20560855E-1,-9.230771E-2,3.0154285E-1,3.9105916E-1,1.4230153E-1,-1.3823578E-1,-3.7182337E-1,-3.7011498E-1,2.2537822E-1,-3.7566063E-1,-2.809878E-1,1.3311061E-1,-1.8566811E-1,-2.4808393E-1,6.665211E-2,-3.461741E-1,3.361077E-2,-2.7413473E-1,3.385576E-1],"split_indices":[12,7,10,5,5,10,5,0,10,9,12,0,5,9,7,11,2,0,13,26,6,0,7,9,12,8,8,0,0,9,8,0,89,0,0,89,0,8,13,13,13,0,0,13,13,0,91,6,13,0,0,0,0,0,0,0,0,0,0,0,0,0,0,0,0,0,0,0,0,0,0,0,0,0,0],"split_type":[0,0,0,0,0,0,0,0,0,0,0,0,0,0,0,0,0,0,0,0,0,0,0,0,0,0,0,0,0,0,0,0,0,0,0,0,0,0,0,0,0,0,0,0,0,0,0,0,0,0,0,0,0,0,0,0,0,0,0,0,0,0,0,0,0,0,0,0,0,0,0,0,0,0,0],"sum_hessian":[8.731424E3,8.112923E2,7.9201313E3,1.4720215E2,6.6409015E2,7.0800225E3,8.401087E2,1.00240074E2,4.696207E1,2.3475868E1,6.4061426E2,6.6358906E3,4.4413168E2,4.8467575E2,3.5543298E2,3.4974904E0,4.346458E1,2.1019463E1,2.4564056E0,4.340698E0,6.3627356E2,3.8270285E2,6.1428837E1,3.9902142E2,8.565433E1,8.0830986E1,2.74602E2,1.3571928E0,2.1402977E0,5.0092144E0,3.8455368E1,1.8171156E1,2.8483083E0,1.2157139E0,1.2406917E0,2.726779E0,1.6139185E0,5.4940047E0,6.307796E2,3.2772907E1,2.865593E1,1.3017024E0,3.977197E2,8.22248E1,3.4295268E0,7.215528E1,8.6757E0,1.4664801E2,1.2795399E2,3.0194297E0,1.9897847E0,3.4484882E1,3.9704864E0,1.7982695E0,1.0500387E0,1.575133E0,1.151646E0,2.880091E0,2.6139138E0,6.2720416E2,3.5754423E0,4.8161826E0,2.7956724E1,2.5460887E0,2.6109842E1,5.2300293E1,2.9924507E1,1.7935715E0,1.6359555E0,6.7586927E0,1.9170074E0,1.7591438E1,1.2905656E2,4.7216578E0,1.2323233E2],"tree_param":{"num_deleted":"0","num_feature":"96","num_nodes":"75","size_leaf_vector":"0"}},{"base_weights":[-9.795298E-1,6.3890606E-1,-1.15552E0,-1.0993354E0,1.0739405E0,-1.2214252E0,-6.5533227E-1,-1.2155879E0,-8.188398E-1,-1.0285152E0,1.1530255E0,-1.2279803E0,-1.1109425E0,-1.1733547E0,2.1951998E-2,-1.2256132E0,-3.7862772E-1,4.0740684E-1,-9.2390376E-1,3.0595607E-1,-1.1478989E0,7.9126544E-2,1.1665301E0,-1.2144396E0,-4.7038782E-1,-1.211922E0,-9.755527E-1,-1.09872E0,3.2777572E-1,-4.1686955E-1,8.98754E-1,-7.5102404E-2,-1.0410749E0,-1.2329111E0,-4.5096165E-1,-1.1246778E0,6.042767E-1,1.1763307E0,-2.4968979E-1,-4.6411005E-1,-1.2176211E0,-1.0300237E0,2.4664977E-1,-4.4978312E-1,-1.2140366E0,-1.0181007E0,-7.686156E-2,-1.1898773E0,-3.699584E-1,8.768852E-1,-7.214018E-2,-7.661168E-1,8.8099164E-1,-1.0761653E0,-7.711291E-2,2.5154617E-1,-8.194007E-1,-5.6958103E-1,1.0183575E0,1.0405481E0,1.2247167E0,4.4664162E-1,-9.7171575E-1,-1.0875183E0,8.6280644E-2,-3.5404515E-1,8.086575E-1,-1.0965981E0,-6.826942E-1,-7.6442635E-1,3.7593323E-1,-2.8522113E-1,-1.202863E0,8.69158E-1,-6.634822E-1,-1.0758003E0,1.0128157E0,-7.909485E-1,6.2481478E-2],"categories":[],"categories_nodes":[],"categories_segments":[],"categories_sizes":[],"default_left":[false,true,true,true,true,true,true,true,false,false,true,false,true,true,true,false,false,false,true,false,true,false,false,false,true,false,true,true,false,false,false,false,true,false,true,false,true,false,true,false,false,false,true,false,false,true,true,false,false,true,false,false,false,false,false,false,false,false,false,false,false,false,false,false,false,false,false,false,false,false,false,false,false,false,false,false,false,false,false],"id":3,"left_children":[1,3,5,7,9,11,13,15,17,19,21,-1,23,25,27,-1,-1,29,31,-1,33,35,37,39,41,43,45,47,49,-1,-1,51,53,-1,55,-1,57,59,61,-1,-1,63,65,-1,-1,67,69,71,73,75,77,-1,-1,-1,-1,-1,-1,-1,-1,-1,-1,-1,-1,-1,-1,-1,-1,-1,-1,-1,-1,-1,-1,-1,-1,-1,-1,-1,-1],"loss_changes":[2.0052822E3,5.236168E2,2.0845605E2,3.5303345E0,9.3148926E1,2.696289E0,2.6006754E2,3.4194946E-1,6.0104733E0,3.6297169E0,7.6448975E0,0E0,2.0946014E1,2.0216675E0,1.1078519E2,0E0,0E0,2.0534687E0,3.95829E0,0E0,5.7561684E-1,5.546382E0,7.605713E0,1.00372314E-1,1.9025585E1,1.3702393E-2,2.7381134E0,4.163826E0,5.5816895E1,0E0,0E0,4.639499E0,1.1207085E0,0E0,1.1516757E0,0E0,3.5016212E0,2.1641235E0,2.6690695E0,0E0,0E0,1.7924862E0,7.481353E0,0E0,0E0,1.1007614E0,1.6606793E0,3.752594E-1,3.9069345E0,2.9507637E1,1.4354088E1,0E0,0E0,0E0,0E0,0E0,0E0,0E0,0E0,0E0,0E0,0E0,0E0,0E0,0E0,0E0,0E0,0E0,0E0,0E0,0E0,0E0,0E0,0E0,0E0,0E0,0E0,0E0,0E0],"parents":[2147483647,0,0,1,1,2,2,3,3,4,4,5,5,6,6,7,7,8,8,9,9,10,10,12,12,13,13,14,14,17,17,18,18,20,20,21,21,22,22,23,23,24,24,25,25,26,26,27,27,28,28,31,31,32,32,34,34,36,36,37,37,38,38,41,41,42,42,45,45,46,46,47,47,48,48,49,49,50,50],"right_children":[2,4,6,8,10,12,14,16,18,20,22,-1,24,26,28,-1,-1,30,32,-1,34,36,38,40,42,44,46,48,50,-1,-1,52,54,-1,56,-1,58,60,62,-1,-1,64,66,-1,-1,68,70,72,74,76,78,-1,-1,-1,-1,-1,-1,-1,-1,-1,-1,-1,-1,-1,-1,-1,-1,-1,-1,-1,-1,-1,-1,-1,-1,-1,-1,-1,-1],"split_conditions":[5.1736003E-3,5E-1,5.755905E1,5E-1,4.565E1,3.028645E1,5E-1,4.5E0,5.9697197E1,3.41847E1,5E-1,-3.6839408E-1,5E-1,5.9375E1,5E-1,-3.6768398E-1,-1.1358832E-1,5.2155E1,5E-1,9.1786824E-2,1.514994E8,1.2E2,8.15E1,4.627E1,5E-1,5.5325E1,3.04E-1,5E-1,5.1337E-2,-1.2506087E-1,2.696262E-1,5.671E1,5.994275E1,-3.6987334E-1,1.6861062E8,-3.3740336E-1,1.6620322E7,5E-6,5E-1,-1.3923302E-1,-3.6528635E-1,5.682285E1,5.5E0,-1.3493495E-1,-3.64211E-1,5E-1,5E-1,1.1959501E-2,5.975E1,5E-1,5E-6,-2.2983505E-1,2.6429752E-1,-3.228496E-1,-2.3133874E-2,7.5463854E-2,-2.4582022E-1,-1.7087431E-1,3.0550727E-1,3.1216443E-1,3.67415E-1,1.339925E-1,-2.9151472E-1,-3.262555E-1,2.5884194E-2,-1.0621355E-1,2.4259727E-1,-3.2897946E-1,-2.0480826E-1,-2.2932792E-1,1.12779975E-1,-8.556634E-2,-3.6085892E-1,2.6074743E-1,-1.9904466E-1,-3.227401E-1,3.0384472E-1,-2.3728456E-1,1.8744444E-2],"split_indices":[12,7,10,5,9,10,5,14,10,10,6,0,5,9,7,0,0,9,2,0,0,10,11,9,7,9,12,8,12,0,0,9,10,0,0,0,0,13,26,0,0,10,11,0,0,91,8,12,9,6,13,0,0,0,0,0,0,0,0,0,0,0,0,0,0,0,0,0,0,0,0,0,0,0,0,0,0,0,0],"split_type":[0,0,0,0,0,0,0,0,0,0,0,0,0,0,0,0,0,0,0,0,0,0,0,0,0,0,0,0,0,0,0,0,0,0,0,0,0,0,0,0,0,0,0,0,0,0,0,0,0,0,0,0,0,0,0,0,0,0,0,0,0,0,0,0,0,0,0,0,0,0,0,0,0,0,0,0,0,0,0],"sum_hessian":[7.036713E3,6.8987494E2,6.346838E3,1.3778972E2,5.520852E2,5.606658E3,7.401799E2,9.505863E1,4.27311E1,1.9578926E1,5.325063E2,5.2830923E3,3.2356592E2,4.1898544E2,3.211944E2,9.3474594E1,1.5840373E0,3.1451385E0,3.958596E1,1.4793984E0,1.809953E1,6.6984096E0,5.2580786E2,2.777868E2,4.577913E1,3.4633105E2,7.265438E1,6.830442E1,2.5288997E2,1.231228E0,1.9139105E0,5.0007687E0,3.458519E1,1.5446344E1,2.6531844E0,1.687808E0,5.0106015E0,5.2236237E2,3.4454994E0,1.7930055E0,2.759938E2,2.546647E1,2.0312658E1,1.5495237E0,3.4478156E2,6.9243225E1,3.4111545E0,6.0148056E1,8.156366E0,1.0606434E2,1.4682564E2,3.0181272E0,1.9826418E0,3.325812E1,1.3270692E0,1.0219271E0,1.6312572E0,1.2086698E0,3.8019316E0,1.4315121E2,3.7921118E2,1.9481158E0,1.4973837E0,2.4243607E1,1.2228644E0,9.997254E0,1.0315404E1,5.4272118E1,1.4971108E1,1.0811691E0,2.3299854E0,1.1761401E0,5.8971916E1,1.1864842E0,6.9698825E0,6.452845E0,9.9611496E1,2.2391506E1,1.2443413E2],"tree_param":{"num_deleted":"0","num_feature":"96","num_nodes":"79","size_leaf_vector":"0"}},{"base_weights":[-9.119788E-1,7.779247E-1,-1.0587294E0,-9.2078555E-1,1.0349197E0,-1.1465124E0,-4.8948893E-1,-1.131138E0,-6.6076785E-1,-8.5966915E-1,1.0882154E0,-1.155264E0,-1.0019826E0,-1.0852213E0,1.2336168E-1,-8.862993E-1,3.7643403E-1,-1.1336596E0,-1.6405087E-2,1.1002017E0,-2.2435424E-1,-1.1389372E0,-3.036556E-1,-1.1383618E0,-8.643532E-1,-3.042204E-1,7.499822E-1,-9.9731916E-1,7.014544E-1,-1.5609445E-1,1.2218835E0,-5.6765956E-1,6.1663663E-1,2.222198E-1,1.1086572E0,3.6851352E-1,-8.531957E-1,-4.6107015E-1,-1.1427441E0,-8.799928E-1,2.9974836E-1,-9.8857516E-1,-4.6732783E-1,6.7363694E-2,-8.987779E-1,-1.1957345E0,8.454464E-1,-1.0346097E0,-1.1027932E-1,-3.7467572E-1,2.586758E-1,5.177834E-1,-4.3586862E-1,9.9255395E-1,1.1588002E0,-9.4727933E-1,9.7779416E-2,-2.5775024E-1,9.103916E-1,-1.0816691E0,-4.27928E-1,-9.553044E-1,1.9992669E-1,-1.3646853E0,1.9438073E-1,-5.436861E-1,-1.1743995E0,5.7824063E-1,-2.0153267E0,1.0857534E0,1.2107007E-1],"categories":[],"categories_nodes":[],"categories_segments":[],"categories_sizes":[],"default_left":[false,true,true,true,true,true,true,false,true,true,false,false,true,true,true,true,true,false,true,true,true,false,true,false,true,false,false,true,false,true,false,false,false,false,true,false,false,false,false,true,true,true,true,true,true,false,false,false,false,false,false,false,false,false,false,false,false,false,false,false,false,false,false,false,false,false,false,false,false,false,false],"id":4,"left_children":[1,3,5,7,9,11,13,-1,15,17,19,-1,21,23,25,27,29,-1,31,33,35,37,39,-1,41,43,45,47,-1,49,-1,-1,-1,51,53,-1,-1,-1,-1,55,57,59,61,63,65,67,69,-1,-1,-1,-1,-1,-1,-1,-1,-1,-1,-1,-1,-1,-1,-1,-1,-1,-1,-1,-1,-1,-1,-1,-1],"loss_changes":[1.3771719E3,1.9479462E2,2.5462842E2,2.4728775E0,3.992572E1,4.4375E0,2.4988164E2,0E0,7.055358E0,2.551527E0,6.1627197E0,0E0,2.4531372E1,3.0885315E0,9.081177E1,4.9126225E0,2.817399E0,0E0,1.6561003E0,2.5211487E0,1.8926933E0,3.3355713E-2,1.5569811E1,0E0,3.061695E0,4.4615063E1,2.6535255E1,6.3848686E-1,0E0,5.0183034E-1,0E0,0E0,0E0,1.1606091E0,9.979248E-1,0E0,0E0,0E0,0E0,1.5903759E0,7.8083887E0,2.330639E0,6.352543E0,2.3008749E1,6.959526E0,1.1111677E1,2.2771988E1,0E0,0E0,0E0,0E0,0E0,0E0,0E0,0E0,0E0,0E0,0E0,0E0,0E0,0E0,0E0,0E0,0E0,0E0,0E0,0E0,0E0,0E0,0E0,0E0],"parents":[2147483647,0,0,1,1,2,2,3,3,4,4,5,5,6,6,8,8,9,9,10,10,12,12,13,13,14,14,15,15,16,16,18,18,19,19,20,20,21,21,22,22,24,24,25,25,26,26,27,27,29,29,33,33,34,34,39,39,40,40,41,41,42,42,43,43,44,44,45,45,46,46],"right_children":[2,4,6,8,10,12,14,-1,16,18,20,-1,22,24,26,28,30,-1,32,34,36,38,40,-1,42,44,46,48,-1,50,-1,-1,-1,52,54,-1,-1,-1,-1,56,58,60,62,64,66,68,70,-1,-1,-1,-1,-1,-1,-1,-1,-1,-1,-1,-1,-1,-1,-1,-1,-1,-1,-1,-1,-1,-1,-1,-1],"split_conditions":[1.9117E-3,5E-1,5.715725E1,5E-1,4.565E1,2.8702E1,5E-1,-3.393414E-1,5E-1,5E-1,8.15E1,-3.4657922E-1,5E-1,5.5309998E1,5E-1,5E-1,5E-1,-3.400979E-1,3.9785388E7,5E-1,5E-1,4.627E1,5E-1,-3.4150857E-1,5E-1,2.7309999E-2,5E-6,5E-1,2.1043633E-1,5E-1,3.6656508E-1,-1.7029788E-1,1.84991E-1,6.6E-4,5E-1,1.1055406E-1,-2.5595874E-1,-1.3832106E-1,-3.4282324E-1,5E-1,5E-1,1.82145E-1,5E-1,5E-1,6.8169996E-2,1.05E1,5.52395E-2,-3.103829E-1,-3.3083797E-2,-1.1240272E-1,7.7602744E-2,1.5533502E-1,-1.307606E-1,2.977662E-1,3.476401E-1,-2.841838E-1,2.9333826E-2,-7.7325076E-2,2.731175E-1,-3.2450074E-1,-1.283784E-1,-2.8659132E-1,5.997801E-2,-4.0940562E-1,5.8314223E-2,-1.6310583E-1,-3.5231987E-1,1.734722E-1,-6.0459805E-1,3.2572603E-1,3.632102E-2],"split_indices":[12,7,10,5,9,10,5,0,8,8,11,0,5,9,8,6,94,0,0,6,26,9,7,0,8,13,13,31,0,6,0,0,0,13,8,0,0,0,0,34,8,13,7,6,13,11,12,0,0,0,0,0,0,0,0,0,0,0,0,0,0,0,0,0,0,0,0,0,0,0,0],"split_type":[0,0,0,0,0,0,0,0,0,0,0,0,0,0,0,0,0,0,0,0,0,0,0,0,0,0,0,0,0,0,0,0,0,0,0,0,0,0,0,0,0,0,0,0,0,0,0,0,0,0,0,0,0,0,0,0,0,0,0,0,0,0,0,0,0,0,0,0,0,0,0],"sum_hessian":[5.5489165E3,4.4302072E2,5.1058955E3,5.787698E1,3.8514374E2,4.422833E3,6.8306244E2,3.0142046E1,2.7734932E1,1.0123851E1,3.750199E2,4.163718E3,2.591157E2,3.4597778E2,3.370847E2,2.2900816E1,4.834115E0,7.3812046E0,2.7426467E0,3.7178653E2,3.233356E0,2.1610301E2,4.301269E1,2.7553143E2,7.044635E1,2.0066975E2,1.3641493E2,2.1751745E1,1.1490706E0,3.4662056E0,1.3679092E0,1.5212344E0,1.2214124E0,3.8066318E0,3.6797992E2,1.8773668E0,1.3559892E0,1.8888104E0,2.142142E2,2.1765316E1,2.1247374E1,5.252293E1,1.7923422E1,1.24036575E2,7.663317E1,5.8409696E0,1.3057396E2,2.071456E1,1.0371855E0,2.3332596E0,1.132946E0,2.7739732E0,1.0326586E0,1.1726173E2,2.5071819E2,2.0393126E1,1.3721908E0,1.1409109E1,9.838264E0,4.4246582E1,8.276347E0,1.0103118E1,7.820305E0,9.3114E0,1.14725174E2,3.478769E1,4.184548E1,1.9388604E0,3.9021091E0,9.7672775E1,3.2901184E1],"tree_param":{"num_deleted":"0","num_feature":"96","num_nodes":"71","size_leaf_vector":"0"}},{"base_weights":[-8.601566E-1,5.446759E-1,-1.0177579E0,-9.24318E-1,9.1758335E-1,-1.1006775E0,-5.082213E-1,-1.0820521E0,-6.0146606E-1,-7.773069E-1,9.960004E-1,-1.1081623E0,-9.691471E-1,-1.0188171E0,8.059388E-3,-1.0979135E0,-1.6296364E-1,3.980233E-1,-7.1371067E-1,-9.0747917E-1,3.9708272E-1,7.7696985E-1,1.0983112E0,-1.0893121E0,-3.8152152E-1,-1.083624E0,-7.6698154E-1,-9.210725E-1,2.1075669E-1,-2.9518026E-1,7.7313465E-1,-8.1957114E-1,3.5290676E-1,-3.5347205E-1,-1.0282762E0,4.0419444E-1,9.658149E-1,-3.3335382E-1,-1.0945641E0,-1.0621727E0,7.764634E-2,-1.0048386E0,-5.117398E-1,-2.3886687E-1,-1.0528866E0,-6.5696806E-1,3.5942382E-1,-1.8194272E-1,-9.0871423E-1,1.1376233E0,-6.024499E-1,-6.5437424E-1,2.7495992E-1,6.89334E-1,-3.699678E0,-1.746009E-1,1.0064343E0,-1.1159976E0,-4.1432956E-1,-1.9424793E-1,8.327898E-1,-1.1758028E-1,-1.0332903E0,-6.923057E-1,1.5691334E-1,8.141398E-1,-6.6757333E-1,-1.0744748E0,-3.1134337E-1,-7.544844E-1,8.571907E-1,7.656572E-1,9.524732E-2],"categories":[],"categories_nodes":[],"categories_segments":[],"categories_sizes":[],"default_left":[false,true,true,true,true,true,true,true,false,true,true,false,true,true,true,false,false,false,true,false,false,false,false,false,true,false,true,true,false,false,false,true,false,true,false,false,true,false,false,true,true,false,true,false,true,true,false,false,false,false,false,false,false,false,false,false,false,false,false,false,false,false,false,false,false,false,false,false,false,false,false,false,false],"id":5,"left_children":[1,3,5,7,9,11,13,15,17,19,21,-1,23,25,27,-1,-1,29,31,33,-1,35,-1,37,39,-1,41,43,45,-1,-1,47,49,51,-1,53,55,-1,-1,57,59,61,63,65,67,69,71,-1,-1,-1,-1,-1,-1,-1,-1,-1,-1,-1,-1,-1,-1,-1,-1,-1,-1,-1,-1,-1,-1,-1,-1,-1,-1],"loss_changes":[9.597468E2,2.4059196E2,1.6403516E2,3.8867645E0,4.723175E1,2.2236328E0,1.4422792E2,6.7546844E-1,3.8175745E0,2.8091927E0,6.6431274E0,0E0,1.2881866E1,3.6582031E0,5.1613518E1,0E0,0E0,1.2220359E0,3.5269432E0,6.219549E-1,0E0,7.3481064E0,0E0,2.537384E-1,1.0555637E1,0E0,3.1114693E0,4.162136E0,2.9254238E1,0E0,0E0,1.3344803E0,3.1502962E0,9.665147E-1,0E0,4.7815754E1,3.522293E0,0E0,0E0,1.0714531E-2,4.461758E0,6.3267326E-1,3.832759E0,4.715275E0,3.1926727E-1,5.557148E0,2.0605719E1,0E0,0E0,0E0,0E0,0E0,0E0,0E0,0E0,0E0,0E0,0E0,0E0,0E0,0E0,0E0,0E0,0E0,0E0,0E0,0E0,0E0,0E0,0E0,0E0,0E0,0E0],"parents":[2147483647,0,0,1,1,2,2,3,3,4,4,5,5,6,6,7,7,8,8,9,9,10,10,12,12,13,13,14,14,17,17,18,18,19,19,21,21,23,23,24,24,26,26,27,27,28,28,31,31,32,32,33,33,35,35,36,36,39,39,40,40,41,41,42,42,43,43,44,44,45,45,46,46],"right_children":[2,4,6,8,10,12,14,16,18,20,22,-1,24,26,28,-1,-1,30,32,34,-1,36,-1,38,40,-1,42,44,46,-1,-1,48,50,52,-1,54,56,-1,-1,58,60,62,64,66,68,70,72,-1,-1,-1,-1,-1,-1,-1,-1,-1,-1,-1,-1,-1,-1,-1,-1,-1,-1,-1,-1,-1,-1,-1,-1,-1,-1],"split_conditions":[5.1736003E-3,5E-1,5.681205E1,5E-1,5E-1,3.028645E1,5E-1,4.5E0,5.9697197E1,5.9879997E1,5E-1,-3.324487E-1,5E-1,5.5309998E1,5E-1,-3.2937407E-1,-4.8889097E-2,5.2155E1,5E-1,5.92956E1,1.1912482E-1,5E-6,3.2949337E-1,4.627E1,5E-1,-3.2508722E-1,7.472E-2,1.0675E-2,2.5E-5,-8.8554084E-2,2.319404E-1,5E-1,5.85E1,1.2585626E8,-3.084829E-1,6.0418002E-5,5E-1,-1.0000615E-1,-3.2836923E-1,5E-1,5E-1,5.653E1,5E-1,5.91205E1,5E-1,1.0384E-1,5.1337E-2,-5.4582816E-2,-2.7261427E-1,3.4128702E-1,-1.8073498E-1,-1.9631228E-1,8.248798E-2,2.0680021E-1,-1.1099035E0,-5.238027E-2,3.019303E-1,-3.347993E-1,-1.2429887E-1,-5.827438E-2,2.4983694E-1,-3.5274085E-2,-3.099871E-1,-2.0769171E-1,4.7074005E-2,2.4424194E-1,-2.0027201E-1,-3.2234246E-1,-9.340301E-2,-2.2634533E-1,2.5715724E-1,2.2969717E-1,2.8574197E-2],"split_indices":[12,7,10,5,5,10,5,14,10,9,8,0,5,9,7,0,0,9,35,10,0,13,0,9,6,0,13,13,13,0,0,2,11,0,0,12,6,0,0,8,91,9,91,10,17,12,12,0,0,0,0,0,0,0,0,0,0,0,0,0,0,0,0,0,0,0,0,0,0,0,0,0,0],"split_type":[0,0,0,0,0,0,0,0,0,0,0,0,0,0,0,0,0,0,0,0,0,0,0,0,0,0,0,0,0,0,0,0,0,0,0,0,0,0,0,0,0,0,0,0,0,0,0,0,0,0,0,0,0,0,0,0,0,0,0,0,0,0,0,0,0,0,0,0,0,0,0,0,0],"sum_hessian":[4.3313286E3,4.3664948E2,3.894679E3,8.810377E1,3.4854572E2,3.3485854E3,5.4609357E2,5.760732E1,3.0496443E1,1.5018858E1,3.3352686E2,3.161268E3,1.8731737E2,2.7406903E2,2.720245E2,5.6438744E1,1.1685776E0,2.8219724E0,2.767447E1,1.3724839E1,1.2940187E0,1.08926735E2,2.2460013E2,1.5480681E2,3.251057E1,2.153487E2,5.8720345E1,4.808169E1,2.2394283E2,1.0656829E0,1.7562896E0,2.5386507E1,2.2879643E0,3.159716E0,1.0565124E1,3.768259E1,7.124414E1,1.5129356E0,1.5329387E2,1.2567614E1,1.9942957E1,2.8875118E1,2.9845224E1,8.241234E0,3.9840458E1,3.2255905E1,1.9168692E2,3.4868143E0,2.1899693E1,1.1514201E0,1.1365442E0,2.10874E0,1.0509758E0,3.6012455E1,1.6701382E0,2.3368645E0,6.890728E1,1.0936349E1,1.6312643E0,1.5209459E1,4.733497E0,1.056642E0,2.7818476E1,2.3471508E1,6.373717E0,2.124323E0,6.1169114E0,3.827714E1,1.5633149E0,3.077558E1,1.4803262E0,7.478664E1,1.1690028E2],"tree_param":{"num_deleted":"0","num_feature":"96","num_nodes":"73","size_leaf_vector":"0"}},{"base_weights":[-8.17434E-1,6.8104815E-1,-9.516871E-1,-7.530346E-1,9.11634E-1,-1.0613718E0,-3.8016587E-1,-1.0018834E0,-4.6122327E-1,-6.496483E-1,9.686049E-1,-1.0732152E0,-8.7240815E-1,-9.581072E-1,7.057472E-2,-1.3036019E-1,-1.0423024E0,1.0558821E0,-6.914202E-1,3.283964E-1,-8.15521E-1,9.8789614E-1,-3.822107E-1,-1.0436051E0,-2.3147862E-1,-1.0423267E0,-6.6460377E-1,-2.2205868E-1,5.7421994E-1,-8.947739E-1,5.5202925E-1,-1.0165327E0,2.4767959E-1,3.1603694E-1,1.0084549E0,1.6028075E-1,-8.3454835E-1,-3.2574216E-1,-1.0506808E0,-7.306349E-1,2.247606E-1,-8.241498E-1,-2.3829566E-1,-4.0347945E-2,-9.711247E-1,-8.467688E-1,6.73326E-1,9.657315E-2,-9.7565794E-1,-9.505578E-1,7.413657E-1,1.0244104E0,4.7802377E-1,-3.3819312E-1,-1.0571792E0,-8.1669325E-1,1.9662659E-1,-4.2643115E-1,6.3751125E-1,-9.6901405E-1,-3.1637484E-1,-5.4962486E-1,7.6393384E-1,-9.4614005E-1,7.0071645E-2,-6.371994E-1,-1.2132318E0,4.8413482E-1,-1.5268403E0,9.7815025E-1,1.3880663E-1],"categories":[],"categories_nodes":[],"categories_segments":[],"categories_sizes":[],"default_left":[false,true,true,true,true,true,true,false,true,false,false,false,true,true,true,false,false,false,true,false,true,false,true,false,true,false,true,true,false,false,false,false,false,true,true,false,false,false,false,true,true,true,true,true,true,false,false,false,false,false,false,false,false,false,false,false,false,false,false,false,false,false,false,false,false,false,false,false,false,false,false],"id":6,"left_children":[1,3,5,7,9,11,13,15,17,19,21,-1,23,25,27,-1,-1,-1,29,-1,31,33,35,37,39,-1,41,43,45,47,-1,-1,-1,49,51,-1,-1,-1,53,55,57,59,61,63,65,67,69,-1,-1,-1,-1,-1,-1,-1,-1,-1,-1,-1,-1,-1,-1,-1,-1,-1,-1,-1,-1,-1,-1,-1,-1],"loss_changes":[6.77353E2,9.2340805E1,1.931477E2,2.3656502E0,2.1908157E1,4.8598633E0,1.2998135E2,5.744362E-1,7.6365504E0,1.7312446E0,6.4026337E0,0E0,1.7105255E1,4.7104797E0,4.155963E1,0E0,0E0,0E0,4.9885473E0,0E0,1.9614387E0,2.8337555E0,1.1095484E0,2.900238E-1,8.046399E0,0E0,3.3062382E0,2.4260838E1,1.5158592E1,1.3497677E0,0E0,0E0,0E0,5.139943E0,1.3806915E0,0E0,0E0,0E0,2.1113586E-1,1.4982853E0,5.33775E0,2.4199638E0,5.234722E0,1.45406E1,2.0411453E0,7.253036E0,1.5732956E1,0E0,0E0,0E0,0E0,0E0,0E0,0E0,0E0,0E0,0E0,0E0,0E0,0E0,0E0,0E0,0E0,0E0,0E0,0E0,0E0,0E0,0E0,0E0,0E0],"parents":[2147483647,0,0,1,1,2,2,3,3,4,4,5,5,6,6,7,7,8,8,9,9,10,10,12,12,13,13,14,14,18,18,20,20,21,21,22,22,23,23,24,24,26,26,27,27,28,28,29,29,33,33,34,34,38,38,39,39,40,40,41,41,42,42,43,43,44,44,45,45,46,46],"right_children":[2,4,6,8,10,12,14,16,18,20,22,-1,24,26,28,-1,-1,-1,30,-1,32,34,36,38,40,-1,42,44,46,48,-1,-1,-1,50,52,-1,-1,-1,54,56,58,60,62,64,66,68,70,-1,-1,-1,-1,-1,-1,-1,-1,-1,-1,-1,-1,-1,-1,-1,-1,-1,-1,-1,-1,-1,-1,-1,-1],"split_conditions":[1.9117E-3,5E-1,5.684155E1,5.671E1,4.565E1,2.8702E1,5E-1,4.3754997E1,5E-1,3.18334E1,8.15E1,-3.219646E-1,5E-1,5.5309998E1,5E-1,-3.9108057E-2,-3.1269073E-1,3.1676465E-1,5E-1,9.851893E-2,1.4822157E8,5.6675003E1,5E-1,3.77155E-3,5E-1,-3.12698E-1,5E-1,5.8080003E-2,2.5E-5,5.95E-4,1.6560878E-1,-3.049598E-1,7.430388E-2,5E-6,5E-1,4.8084226E-2,-2.503645E-1,-9.772265E-2,4.627E1,5E-1,4.779586E7,1.54845E-1,5E-1,5E-1,5E-1,1.05E1,4.35565E-2,2.8971946E-2,-2.926974E-1,-2.8516737E-1,2.2240971E-1,3.0732313E-1,1.4340714E-1,-1.0145794E-1,-3.1715378E-1,-2.4500798E-1,5.898798E-2,-1.2792934E-1,1.9125338E-1,-2.9070422E-1,-9.4912454E-2,-1.6488746E-1,2.2918016E-1,-2.8384203E-1,2.1021495E-2,-1.9115983E-1,-3.6396956E-1,1.4524046E-1,-4.5805213E-1,2.9344508E-1,4.1641988E-2],"split_indices":[12,6,10,9,9,10,5,9,2,10,11,0,5,9,8,0,0,0,8,0,0,9,26,12,7,0,8,13,13,13,0,0,0,13,21,0,0,0,9,34,0,13,88,6,6,11,12,0,0,0,0,0,0,0,0,0,0,0,0,0,0,0,0,0,0,0,0,0,0,0,0],"split_type":[0,0,0,0,0,0,0,0,0,0,0,0,0,0,0,0,0,0,0,0,0,0,0,0,0,0,0,0,0,0,0,0,0,0,0,0,0,0,0,0,0,0,0,0,0,0,0,0,0,0,0,0,0,0,0,0,0,0,0,0,0,0,0,0,0,0,0,0,0,0,0],"sum_hessian":[3.3627473E3,2.7616992E2,3.0865774E3,3.7940536E1,2.3822939E2,2.5888713E3,4.97706E2,1.9164362E1,1.8776175E1,8.020663E0,2.3020872E2,2.431778E3,1.5709337E2,2.1758809E2,2.8011792E2,1.03667E0,1.8127691E1,2.0011034E0,1.677507E1,1.0209525E0,6.9997106E0,2.2723224E2,2.976483E0,1.23482124E2,3.3611248E1,1.670908E2,5.0497295E1,1.7752785E2,1.0259006E2,1.4658268E1,2.116803E0,5.9236603E0,1.0760502E0,7.2329216E0,2.1999931E2,1.6469485E0,1.3295346E0,1.6643233E0,1.218178E2,1.5763495E1,1.7847752E1,3.6066254E1,1.4431043E1,1.4371812E2,3.3809723E1,6.1967406E0,9.639332E1,1.0911187E0,1.3567149E1,1.5078342E0,5.725087E0,2.1267085E2,7.3284616E0,1.5804517E0,1.2023735E2,1.4533863E1,1.2296326E0,6.9110794E0,1.0936672E1,2.7354013E1,8.71224E0,1.1355275E1,3.075767E0,1.4793745E1,1.289244E2,1.5736754E1,1.8072966E1,2.1930473E0,4.003693E0,6.0857628E1,3.5535686E1],"tree_param":{"num_deleted":"0","num_feature":"96","num_nodes":"71","size_leaf_vector":"0"}},{"base_weights":[-7.775633E-1,-1.0179232E0,2.1138158E-2,-2.1832003E-1,-1.0333098E0,7.868836E-1,-4.5284653E-1,-6.8085414E-1,5.0815547E-1,-1.0482712E0,-8.0898935E-1,-1.0550356E0,8.5580283E-1,-8.979485E-1,-1.0051705E-1,-1.0536056E-1,-8.0462986E-1,-3.494995E-1,7.9901135E-1,-1.0100193E0,-1.9065996E-1,-1.0325326E0,8.9225304E-1,-1.004522E0,-5.68144E-1,-8.555751E-1,4.9051635E-2,-3.619834E-1,4.575966E-1,-9.07043E-1,-3.8949567E-1,-6.9876E-1,3.197793E-1,9.3891E-1,-1.00477554E-1,-2.9050618E-1,-1.0181413E0,-5.406828E-1,4.0395993E-1,6.064078E-1,9.9659187E-1,-8.7349695E-1,-3.1273448E-1,9.5123805E-2,-9.1213536E-1,-4.9993512E-1,1.6040747E-1,2.7746952E-1,-6.5408117E-1,-9.6421885E-1,-9.893508E-2,-6.40552E-1,3.202997E-1,1.0049366E0,1.6407639E-1,-4.5508507E-1,-1.0270052E0,-9.345846E-1,-3.6428806E-3,-2.2215737E-1,6.904524E-1,-1.9056114E0,8.217723E-1,1.0104921E0,-5.556766E-1,-1.0023788E0,-3.5319236E-1,8.572106E-1,-4.265402E-1,-1.0081687E0,-4.675842E-1,-1.0512933E0,-2.9370666E-1,-7.4707234E-4,5.43938E-1],"categories":[],"categories_nodes":[],"categories_segments":[],"categories_sizes":[],"default_left":[true,false,false,true,true,true,true,false,true,false,true,false,true,true,true,false,true,true,true,false,true,false,false,false,true,false,false,false,false,true,false,false,false,false,false,false,false,true,true,false,true,true,false,false,true,false,true,false,false,false,false,false,false,false,false,false,false,false,false,false,false,false,false,false,false,false,false,false,false,false,false,false,false,false,false],"id":7,"left_children":[1,3,5,7,9,11,13,15,17,-1,19,-1,21,23,25,27,29,31,33,35,37,-1,39,-1,41,43,45,47,-1,49,51,-1,-1,53,-1,-1,55,57,59,61,63,65,67,-1,69,71,73,-1,-1,-1,-1,-1,-1,-1,-1,-1,-1,-1,-1,-1,-1,-1,-1,-1,-1,-1,-1,-1,-1,-1,-1,-1,-1,-1,-1],"loss_changes":[5.0161414E2,2.448413E1,2.2008041E2,1.3513084E1,5.7644043E0,3.0330978E1,5.864937E1,1.6511097E0,4.2246428E0,0E0,1.566494E1,0E0,1.6340012E1,5.2416534E0,2.3779892E1,9.550476E-1,4.9298286E-1,1.3223338E0,1.6188626E0,2.654724E-1,6.9894066E0,0E0,5.966217E0,0E0,3.0560846E0,1.9584141E0,1.0863263E1,9.8682606E-1,0E0,6.0754395E-1,1.2193768E0,0E0,0E0,3.7643623E-1,0E0,0E0,4.600525E-3,4.4190025E0,2.4183505E0,3.481897E1,4.01033E0,9.12385E-1,3.6680374E0,0E0,9.351711E-1,3.101006E0,9.110839E0,0E0,0E0,0E0,0E0,0E0,0E0,0E0,0E0,0E0,0E0,0E0,0E0,0E0,0E0,0E0,0E0,0E0,0E0,0E0,0E0,0E0,0E0,0E0,0E0,0E0,0E0,0E0,0E0],"parents":[2147483647,0,0,1,1,2,2,3,3,4,4,5,5,6,6,7,7,8,8,10,10,12,12,13,13,14,14,15,15,16,16,17,17,18,18,19,19,20,20,22,22,24,24,25,25,26,26,27,27,29,29,30,30,33,33,36,36,37,37,38,38,39,39,40,40,41,41,42,42,44,44,45,45,46,46],"right_children":[2,4,6,8,10,12,14,16,18,-1,20,-1,22,24,26,28,30,32,34,36,38,-1,40,-1,42,44,46,48,-1,50,52,-1,-1,54,-1,-1,56,58,60,62,64,66,68,-1,70,72,74,-1,-1,-1,-1,-1,-1,-1,-1,-1,-1,-1,-1,-1,-1,-1,-1,-1,-1,-1,-1,-1,-1,-1,-1,-1,-1,-1,-1],"split_conditions":[5.684155E1,1.3004E-3,1.2102E-2,5E-1,2.8702E1,5.5925003E1,5E-1,5.9239998E1,5E-1,-3.1448138E-1,5E-1,-3.1651068E-1,5E-1,5.5309998E1,5E-1,5.671E1,5E-1,5E-1,5.584415E1,4.627E1,5E-1,-3.097598E-1,5E-6,-3.013566E-1,7.472E-2,5.81838E1,2.5E-5,4.4475E1,1.3727899E-1,5E-1,5.64695E-4,-2.09628E-1,9.5933795E-2,8.6499995E-4,-3.0143267E-2,-8.7151855E-2,3.77155E-3,6.222181E7,5E-1,3.55E1,1.875E-2,5E-1,8.317E-2,2.8537143E-2,5E-1,5.97165E1,5E-1,8.324086E-2,-1.9622436E-1,-2.8926566E-1,-2.9680526E-2,-1.921656E-1,9.608992E-2,3.0148098E-1,4.922292E-2,-1.3652553E-1,-3.0810156E-1,-2.803754E-1,-1.0928642E-3,-6.664722E-2,2.0713572E-1,-5.7168347E-1,2.465317E-1,3.0314764E-1,-1.6670299E-1,-3.0071366E-1,-1.0595771E-1,2.571632E-1,-1.2796207E-1,-3.0245063E-1,-1.4027527E-1,-3.15388E-1,-8.8112E-2,-2.2412172E-4,1.631814E-1],"split_indices":[10,12,12,7,10,9,5,9,5,0,5,0,6,9,7,9,94,89,10,9,8,0,13,0,13,10,13,9,0,31,12,0,0,13,0,0,12,0,7,11,13,8,13,0,8,10,88,0,0,0,0,0,0,0,0,0,0,0,0,0,0,0,0,0,0,0,0,0,0,0,0,0,0,0,0],"split_type":[0,0,0,0,0,0,0,0,0,0,0,0,0,0,0,0,0,0,0,0,0,0,0,0,0,0,0,0,0,0,0,0,0,0,0,0,0,0,0,0,0,0,0,0,0,0,0,0,0,0,0,0,0,0,0,0,0,0,0,0,0,0,0,0,0,0,0,0,0,0,0,0,0,0,0],"sum_hessian":[2.6117905E3,2.0074093E3,6.0438116E2,3.8185513E1,1.9692239E3,2.3082002E2,3.7356116E2,2.3369415E1,1.4816097E1,1.8426521E3,1.2657169E2,7.809047E0,2.2301097E2,1.6436647E2,2.0919469E2,4.464235E0,1.890518E1,3.7010586E0,1.1115038E1,9.503926E1,3.1532433E1,3.7057204E0,2.1930525E2,1.22678246E2,4.168823E1,3.380728E1,1.753874E2,3.3116312E0,1.1526036E0,1.4213731E1,4.691449E0,2.403009E0,1.2980497E0,9.5810585E0,1.5339798E0,1.4712565E0,9.356801E1,1.9905672E1,1.16267605E1,6.046582E1,1.5883943E2,1.7885443E1,2.3802784E1,1.8600831E0,3.1947197E1,2.8987732E1,1.4639967E2,1.0541009E0,2.2575302E0,1.3094106E1,1.1196251E0,3.5377073E0,1.1537415E0,8.555077E0,1.0259818E0,2.2613838E0,9.1306625E1,1.1056111E1,8.849561E0,3.7204447E0,7.9063153E0,4.1548767E0,5.6310944E1,1.577756E2,1.0638223E0,1.3592093E1,4.29335E0,1.5310512E0,2.2271732E1,2.5229256E1,6.7179418E0,6.7755027E0,2.2212229E1,1.03787544E2,4.2612133E1],"tree_param":{"num_deleted":"0","num_feature":"96","num_nodes":"75","size_leaf_vector":"0"}},{"base_weights":[-7.391249E-1,-9.925474E-1,1.4471985E-2,-4.2893696E-1,-1.0181928E0,6.979685E-1,-4.0232694E-1,-9.321444E-1,1.5892595E-1,-1.0325574E0,-7.989941E-1,-9.689717E-1,7.727615E-1,-9.233312E-1,-1.3887626E-1,-9.868858E-1,6.960559E-2,-5.0814897E-1,8.435989E-1,-9.8799205E-1,-2.5608087E-1,-9.515536E-1,8.138361E-1,-2.3437567E-1,-9.420379E-1,-5.6392443E-1,4.715412E-2,3.0794325E-1,-8.01905E-1,9.58316E-1,-2.3010463E-1,-1.9690683E-1,-9.995079E-1,-9.063474E-1,6.574507E-2,5.30272E-1,9.6875346E-1,-6.9528806E-1,4.5968336E-1,-9.566083E-1,-1.7519638E-1,-1.1013328E0,-4.1867204E-2,1.0301197E-1,-1.0878882E0,-5.2490205E-1,8.42191E-1,1.8337241E-1,-9.264019E-1,1.0645502E0,-1.3704796E-1,-1.0131662E0,-4.183641E-1,-9.726296E-1,-2.8632548E-1,2.840156E-1,-6.721456E-1,5.903844E-1,-8.7556136E-1,-3.2343316E-1,9.892255E-1,-9.796001E-1,-5.099739E-1,3.2498896E-1,-5.607387E-1,-1.1334112E0,-1.6232392E-1,1.3568912E0,-1.463011E-1,-2.9414353E-1,2.7924076E-1,-1.2986983E0,3.0377E-2],"categories":[],"categories_nodes":[],"categories_segments":[],"categories_sizes":[],"default_left":[true,false,false,true,true,true,true,true,true,false,true,false,true,false,true,false,false,false,true,false,true,false,true,true,true,false,false,false,true,true,false,false,true,true,true,false,true,false,false,true,false,true,false,false,true,false,false,false,false,false,false,false,false,false,false,false,false,false,false,false,false,false,false,false,false,false,false,false,false,false,false,false,false],"id":8,"left_children":[1,3,5,7,9,11,13,15,17,-1,19,-1,21,23,25,-1,-1,27,29,31,33,-1,35,37,39,41,43,45,47,49,-1,-1,51,53,55,57,59,-1,-1,61,63,65,67,69,71,-1,-1,-1,-1,-1,-1,-1,-1,-1,-1,-1,-1,-1,-1,-1,-1,-1,-1,-1,-1,-1,-1,-1,-1,-1,-1,-1,-1],"loss_changes":[3.8847827E2,2.1565186E1,1.4638812E2,2.025676E1,3.75708E0,2.501625E1,4.368856E1,2.0851135E0,1.5137825E1,0E0,9.384075E0,0E0,1.4007637E1,1.1586456E0,1.688434E1,0E0,0E0,4.3071527E0,2.2244034E0,4.3467712E-1,5.417468E0,0E0,7.5268326E0,1.6505682E0,9.9298096E-1,1.8184572E1,9.572459E0,2.7581434E0,1.7315321E0,1.878828E0,0E0,0E0,1.16493225E-1,7.2626114E-2,3.09943E0,6.168495E0,3.4192123E0,0E0,0E0,5.448837E-1,7.918129E-1,7.7931213E-1,5.165209E0,1.009983E1,1.7097435E0,0E0,0E0,0E0,0E0,0E0,0E0,0E0,0E0,0E0,0E0,0E0,0E0,0E0,0E0,0E0,0E0,0E0,0E0,0E0,0E0,0E0,0E0,0E0,0E0,0E0,0E0,0E0,0E0],"parents":[2147483647,0,0,1,1,2,2,3,3,4,4,5,5,6,6,7,7,8,8,10,10,12,12,13,13,14,14,17,17,18,18,19,19,20,20,22,22,23,23,24,24,25,25,26,26,27,27,28,28,29,29,32,32,33,33,34,34,35,35,36,36,39,39,40,40,41,41,42,42,43,43,44,44],"right_children":[2,4,6,8,10,12,14,16,18,-1,20,-1,22,24,26,-1,-1,28,30,32,34,-1,36,38,40,42,44,46,48,50,-1,-1,52,54,56,58,60,-1,-1,62,64,66,68,70,72,-1,-1,-1,-1,-1,-1,-1,-1,-1,-1,-1,-1,-1,-1,-1,-1,-1,-1,-1,-1,-1,-1,-1,-1,-1,-1,-1,-1],"split_conditions":[5.684155E1,6.1093997E-3,1.6943E-2,5E-1,3.028645E1,5E-1,5E-1,5.151275E1,5E-1,-3.0976722E-1,5E-1,-2.9069152E-1,5.7455E1,9.32E-3,5E-1,-2.9606575E-1,2.0881677E-2,3.98E-3,5E-1,4.627E1,5E-1,-2.8546607E-1,5E-1,5E-1,5E-1,3.7195E-2,9.5765E-2,5E-6,5E-1,5.8049997E-3,-6.903139E-2,-5.907205E-2,5E-1,5E-1,5E-1,8.15E1,5E-1,-2.0858642E-1,1.3790502E-1,5E-1,5.9304153E1,5E-1,5.9148997E-2,4.45E-4,6.5E0,-1.5747061E-1,2.526573E-1,5.5011723E-2,-2.7792057E-1,3.1936505E-1,-4.111439E-2,-3.0394986E-1,-1.2550923E-1,-2.917889E-1,-8.589765E-2,8.520468E-2,-2.0164369E-1,1.7711534E-1,-2.6266843E-1,-9.7029954E-2,2.9676765E-1,-2.9388005E-1,-1.5299217E-1,9.7496696E-2,-1.6822161E-1,-3.4002337E-1,-4.8697177E-2,4.0706736E-1,-4.3890335E-2,-8.824306E-2,8.377223E-2,-3.8960952E-1,9.1131E-3],"split_indices":[10,12,12,5,10,6,7,10,8,0,5,0,9,13,6,0,0,13,36,9,6,0,8,8,25,13,13,13,2,13,0,0,86,8,89,11,7,0,0,34,10,17,12,13,11,0,0,0,0,0,0,0,0,0,0,0,0,0,0,0,0,0,0,0,0,0,0,0,0,0,0,0,0],"split_type":[0,0,0,0,0,0,0,0,0,0,0,0,0,0,0,0,0,0,0,0,0,0,0,0,0,0,0,0,0,0,0,0,0,0,0,0,0,0,0,0,0,0,0,0,0,0,0,0,0,0,0,0,0,0,0,0,0,0,0,0,0,0,0,0,0,0,0,0,0,0,0,0,0],"sum_hessian":[2.033072E3,1.5212E3,5.118721E2,6.697655E1,1.4542234E3,1.9364488E2,3.1822723E2,3.577106E1,3.1205484E1,1.3613033E3,9.291998E1,7.8020663E0,1.858428E2,1.0603196E2,2.1219525E2,3.393168E1,1.8393835E0,1.593646E1,1.5269025E1,6.83176E1,2.4602392E1,3.808187E0,1.8203462E2,3.1605322E0,1.0287143E2,6.3980106E1,1.4821515E2,4.205299E0,1.173116E1,1.3892214E1,1.3768114E0,1.2399118E0,6.707768E1,7.543692E0,1.70587E1,6.587624E1,1.1615838E2,1.8982E0,1.2623322E0,1.0071041E2,2.1610184E0,3.097977E1,3.3000336E1,1.4212988E2,6.08527E0,1.6502295E0,2.5550697E0,1.2629756E0,1.0468184E1,1.2689637E1,1.2025764E0,6.4811066E1,2.2666185E0,6.3013563E0,1.2423356E0,1.3639259E1,3.4194405E0,6.3731194E1,2.1450517E0,1.5807865E0,1.1457759E2,9.464499E1,6.0654197E0,1.0090204E0,1.1519978E0,2.9756212E1,1.2235602E0,1.4594917E0,3.1540842E1,4.3477753E1,9.865213E1,4.984302E0,1.1009678E0],"tree_param":{"num_deleted":"0","num_feature":"96","num_nodes":"73","size_leaf_vector":"0"}},{"base_weights":[-6.9934565E-1,-9.814105E-1,-2.0807793E-2,-4.3195948E-1,-1.0066571E0,-7.8701794E-1,2.7012298E-1,-9.243122E-1,1.3659403E-1,-1.0177163E0,-7.816548E-1,-9.278683E-1,-4.1184053E-1,7.159354E-1,-6.4199954E-2,-9.7706175E-1,-2.8764248E-1,7.438359E-1,-3.311831E-1,-1.011742E0,-3.2112893E-1,-3.2658648E-1,-9.5587486E-1,-6.3109547E-1,2.3916865E-2,3.7583223E-1,9.3759656E-1,-6.744646E-1,2.5711302E-2,-9.962747E-1,-2.5956237E-1,2.9318285E-1,-6.3525844E-1,2.9475796E-1,1.1188754E0,-6.60849E-1,2.583071E-1,8.778678E-1,-4.4909734E-1,6.304135E-1,-7.9048944E-1,-9.195709E-1,-2.0462981E-1,-6.2263656E-1,5.4374933E-1,-9.5340066E-2,6.2764245E-1,-1.2833695E-1,9.6355516E-1,-9.004355E-1,-3.962809E-2,1.3528748E-1,-4.0200716E-1,6.2197E-1,-2.4846151E-1,1.5176785E-1,-8.026096E-1,-3.753566E-1,8.0158865E-1,-6.613774E-1,1.04771875E-1,-9.8195976E-1,-5.6011513E-2,-4.7165182E-1,4.018578E-1,-8.8422906E-1,2.0729518E-1,9.6173483E-1,-6.1644393E-1,1.9193304E-1,-1.3932457E0,9.764768E-1,1.13523096E-1,9.742469E-1,3.854924E-2,-2.2323461E-1,-9.885184E-1,-7.0293367E-1,4.678238E-1,2.8735405E-1,-2.4223077E-1,4.878842E-2,-1.1035897E0],"categories":[],"categories_nodes":[],"categories_segments":[],"categories_sizes":[],"default_left":[true,false,true,true,true,true,false,true,false,false,true,false,true,true,true,true,false,true,true,false,false,false,false,true,true,false,true,true,true,false,false,false,false,false,false,true,false,false,false,false,false,true,true,true,true,false,false,false,false,true,true,true,true,false,false,false,false,false,false,false,false,false,false,false,false,false,false,false,false,false,false,false,false,false,false,false,false,false,false,false,false,false,false],"id":9,"left_children":[1,3,5,7,9,11,13,15,17,-1,19,21,23,25,27,29,31,33,35,-1,37,39,-1,41,43,45,47,49,51,-1,-1,-1,-1,53,-1,55,57,-1,59,-1,-1,61,63,65,67,69,71,-1,73,75,77,79,81,-1,-1,-1,-1,-1,-1,-1,-1,-1,-1,-1,-1,-1,-1,-1,-1,-1,-1,-1,-1,-1,-1,-1,-1,-1,-1,-1,-1,-1,-1],"loss_changes":[3.0502942E2,1.5182373E1,1.0476584E2,1.4461195E1,1.8809814E0,6.452423E0,5.0824875E1,6.4494896E-1,7.2445183E0,0E0,5.4714355E0,1.2578812E0,3.55972E0,1.0660629E1,1.0750359E1,8.666611E-2,8.983375E-1,1.5276222E0,3.009625E0,0E0,3.4153357E0,3.0148473E0,0E0,2.8527594E0,4.836304E0,7.0968895E0,2.5523758E0,3.5729723E0,8.090049E0,0E0,0E0,0E0,0E0,1.2879376E0,0E0,1.2334576E0,2.3521237E0,0E0,2.2388644E0,0E0,0E0,7.2395515E-1,2.013015E0,1.5793462E0,4.4490623E0,8.293409E0,6.845024E0,0E0,8.110504E-1,8.831949E-1,2.9036665E0,7.9480214E0,1.1192316E1,0E0,0E0,0E0,0E0,0E0,0E0,0E0,0E0,0E0,0E0,0E0,0E0,0E0,0E0,0E0,0E0,0E0,0E0,0E0,0E0,0E0,0E0,0E0,0E0,0E0,0E0,0E0,0E0,0E0,0E0],"parents":[2147483647,0,0,1,1,2,2,3,3,4,4,5,5,6,6,7,7,8,8,10,10,11,11,12,12,13,13,14,14,15,15,16,16,17,17,18,18,20,20,21,21,23,23,24,24,25,25,26,26,27,27,28,28,33,33,35,35,36,36,38,38,41,41,42,42,43,43,44,44,45,45,46,46,48,48,49,49,50,50,51,51,52,52],"right_children":[2,4,6,8,10,12,14,16,18,-1,20,22,24,26,28,30,32,34,36,-1,38,40,-1,42,44,46,48,50,52,-1,-1,-1,-1,54,-1,56,58,-1,60,-1,-1,62,64,66,68,70,72,-1,74,76,78,80,82,-1,-1,-1,-1,-1,-1,-1,-1,-1,-1,-1,-1,-1,-1,-1,-1,-1,-1,-1,-1,-1,-1,-1,-1,-1,-1,-1,-1,-1,-1],"split_conditions":[5.3010002E1,6.1093997E-3,5E-1,5E-1,3.028645E1,5.5309998E1,1.21895E-2,1.514994E8,9.185E-3,-3.053149E-1,4.557E1,5.4241E1,5E-1,5E-1,5E-1,5.4945E1,6.99505E-4,6.928648E7,5E-1,-3.0352262E-1,3.2938248E1,1.1292499E-1,-2.8676248E-1,1.06455E-1,5E-1,5E-6,5E-1,5E-1,5E-1,-2.9888242E-1,-7.7868715E-2,8.795486E-2,-1.9057754E-1,5.123295E1,3.3566263E-1,5E-1,5.9995003E1,2.6336035E-1,5.4205E1,1.8912405E-1,-2.3714684E-1,1.847833E8,5E-1,5E-1,5E-1,6.0418002E-5,1.13835E-3,-3.8501088E-2,6.26E-3,5E-1,3.715408E7,5E-1,5E-1,1.86591E-1,-7.4538454E-2,4.5530356E-2,-2.407829E-1,-1.1260699E-1,2.4047661E-1,-1.9841322E-1,3.1431563E-2,-2.9458794E-1,-1.6803455E-2,-1.4149556E-1,1.20557345E-1,-2.6526874E-1,6.2188555E-2,2.8852046E-1,-1.8493319E-1,5.7579912E-2,-4.1797373E-1,2.9294306E-1,3.405693E-2,2.922741E-1,1.1564773E-2,-6.6970386E-2,-2.9655555E-1,-2.1088012E-1,1.4034715E-1,8.620622E-2,-7.266924E-2,1.4636527E-2,-3.3107692E-1],"split_indices":[10,12,5,5,10,9,12,0,13,0,9,10,8,8,7,9,12,0,8,0,10,12,0,13,7,13,7,8,90,0,0,0,0,10,0,2,9,0,9,0,0,0,91,6,92,12,12,0,13,3,0,89,92,0,0,0,0,0,0,0,0,0,0,0,0,0,0,0,0,0,0,0,0,0,0,0,0,0,0,0,0,0,0],"split_type":[0,0,0,0,0,0,0,0,0,0,0,0,0,0,0,0,0,0,0,0,0,0,0,0,0,0,0,0,0,0,0,0,0,0,0,0,0,0,0,0,0,0,0,0,0,0,0,0,0,0,0,0,0,0,0,0,0,0,0,0,0,0,0,0,0,0,0,0,0,0,0,0,0,0,0,0,0,0,0,0,0,0,0],"sum_hessian":[1.5928511E3,1.1248218E3,4.680293E2,5.0209225E1,1.0746125E3,1.2833487E2,3.3969443E2,2.6572447E1,2.363678E1,1.02091016E3,5.370244E1,9.2234665E1,3.61002E1,1.450851E2,1.9460933E2,2.4045572E1,2.5268748E0,1.0028368E1,1.3608412E1,3.5012577E1,1.8689861E1,4.668392E0,8.756627E1,2.3718012E1,1.2382188E1,5.831132E1,8.677378E1,2.415538E1,1.7045395E2,2.3040073E1,1.0054975E0,1.004711E0,1.5221639E0,5.376456E0,4.6519117E0,8.649963E0,4.958448E0,1.2372682E0,1.7452593E1,1.4069719E0,3.2614205E0,1.3458189E1,1.0259823E1,5.430329E0,6.951859E0,2.0525887E1,3.778544E1,1.9691942E0,8.480459E1,1.7505795E1,6.6495852E0,1.3623573E2,3.4218212E1,3.2648692E0,2.1115868E0,1.2743566E0,7.375607E0,2.4315133E0,2.5269346E0,1.247661E1,4.975982E0,1.2423529E1,1.0346597E0,7.277872E0,2.9819508E0,4.0791626E0,1.3511661E0,5.236389E0,1.7154698E0,1.750379E1,3.022096E0,2.1975533E1,1.5809905E1,8.378294E1,1.0216454E0,2.4216876E0,1.5084107E1,2.715219E0,3.9343662E0,9.728685E1,3.894888E1,2.139896E1,1.2819251E1],"tree_param":{"num_deleted":"0","num_feature":"96","num_nodes":"83","size_leaf_vector":"0"}},{"base_weights":[-6.5353227E-1,-9.69562E-1,-3.8900018E-2,-4.3554452E-1,-9.9549913E-1,-7.4626094E-1,2.1793684E-1,-9.145238E-1,7.707794E-2,-1.0048544E0,-7.309289E-1,-8.959821E-1,-3.619029E-1,6.3836116E-1,-4.8275854E-2,-9.6994805E-1,-4.5080972E-1,6.573669E-1,-2.7778503E-1,-7.795986E-2,-8.8790417E-1,-5.543145E-1,-9.411838E-1,-7.895971E-1,-1.8022166E-1,3.0215254E-1,8.891601E-1,1.2078528E-2,-7.476171E-1,-7.1513456E-1,1.7547634E-1,-5.8758177E-2,8.4885484E-1,-5.909189E-1,1.8050916E-1,6.066168E-1,-9.575144E-1,-9.403444E-1,1.13956355E-1,-6.906456E-1,4.330166E-1,-8.644225E-1,-8.7386094E-2,-4.430864E-1,2.6544937E-1,3.8488024E-1,-1.0188632E0,-9.271535E-2,9.2434293E-1,5.456786E-2,-9.85959E-1,-9.4771147E-1,-1.869455E-1,9.869197E-1,1.7159542E-1,1.2565798E-1,-7.4220264E-1,-2.93221E-1,8.57791E-1,-2.8456725E-2,1.0721383E0,-2.8850278E-1,-1.1397423E0,-9.773877E-1,-5.1087134E-2,-1.275131E-1,-8.034548E-1,-1.4395982E-1,-9.402709E-1,-8.839387E-1,-7.540812E-2,6.148411E-1,-6.622725E-1,-1.2001983E0,4.4838822E-1,2.357276E-1,-1.8416151E0,-4.015174E-1,2.942489E-1,9.9046993E-1,6.0628134E-1,1.467669E-1,-2.9159954E-1,-1.425385E0,-9.415269E-2,-1.2123468E0,-3.9557838E-1,-7.444728E-1,5.945959E-1],"categories":[],"categories_nodes":[],"categories_segments":[],"categories_sizes":[],"default_left":[true,false,true,true,true,true,false,true,false,false,false,false,true,true,true,false,true,true,true,true,true,false,false,true,true,true,true,true,true,false,false,false,false,true,true,false,false,true,false,false,false,false,false,true,true,false,true,true,false,true,true,false,true,false,false,false,false,false,false,false,false,false,false,false,false,false,false,false,false,false,false,false,false,false,false,false,false,false,false,false,false,false,false,false,false,false,false,false,false],"id":10,"left_children":[1,3,5,7,9,11,13,15,17,-1,19,21,23,25,27,-1,29,31,33,35,37,39,-1,41,43,45,47,49,51,-1,-1,-1,53,55,57,59,61,63,-1,65,-1,67,-1,69,71,73,75,77,79,81,83,85,87,-1,-1,-1,-1,-1,-1,-1,-1,-1,-1,-1,-1,-1,-1,-1,-1,-1,-1,-1,-1,-1,-1,-1,-1,-1,-1,-1,-1,-1,-1,-1,-1,-1,-1,-1,-1],"loss_changes":[2.4550128E2,1.1129089E1,7.8337006E1,1.0001284E1,1.2341309E0,6.284687E0,3.5448566E1,1.0211563E-1,4.3955607E0,0E0,3.091011E0,7.442627E-1,2.4897466E0,1.0082504E1,8.22657E0,0E0,8.0569696E-1,1.1552215E0,2.029419E0,4.8388786E0,1.4079819E0,1.915715E0,0E0,4.3955183E-1,3.0545464E0,6.289539E0,2.496807E0,7.6956472E0,1.5598402E0,0E0,0E0,0E0,4.3139648E-1,9.8151517E-1,2.2422493E0,1.3871408E0,9.579253E-2,7.2867393E-1,0E0,5.9244204E-1,0E0,3.426118E-1,0E0,2.550069E0,3.6246192E0,5.723336E0,3.9998689E0,5.152612E-1,8.1860733E-1,5.5897183E0,2.7700758E0,1.1517954E0,2.7599037E0,0E0,0E0,0E0,0E0,0E0,0E0,0E0,0E0,0E0,0E0,0E0,0E0,0E0,0E0,0E0,0E0,0E0,0E0,0E0,0E0,0E0,0E0,0E0,0E0,0E0,0E0,0E0,0E0,0E0,0E0,0E0,0E0,0E0,0E0,0E0,0E0],"parents":[2147483647,0,0,1,1,2,2,3,3,4,4,5,5,6,6,7,7,8,8,10,10,11,11,12,12,13,13,14,14,16,16,17,17,18,18,19,19,20,20,21,21,23,23,24,24,25,25,26,26,27,27,28,28,32,32,33,33,34,34,35,35,36,36,37,37,39,39,41,41,43,43,44,44,45,45,46,46,47,47,48,48,49,49,50,50,51,51,52,52],"right_children":[2,4,6,8,10,12,14,16,18,-1,20,22,24,26,28,-1,30,32,34,36,38,40,-1,42,44,46,48,50,52,-1,-1,-1,54,56,58,60,62,64,-1,66,-1,68,-1,70,72,74,76,78,80,82,84,86,88,-1,-1,-1,-1,-1,-1,-1,-1,-1,-1,-1,-1,-1,-1,-1,-1,-1,-1,-1,-1,-1,-1,-1,-1,-1,-1,-1,-1,-1,-1,-1,-1,-1,-1,-1,-1],"split_conditions":[4.82756E1,6.1093997E-3,5E-1,5E-1,3.028645E1,5.5309998E1,1.24435E-2,5E-1,7.2950004E-3,-3.0145633E-1,4.9855E1,3.7263498E-2,3.890541E7,5E-1,1.08485E-1,-2.9098442E-1,5E-1,1.5870298E7,5E-1,2.1604E-2,1.95E1,3.32345E-2,-2.8235516E-1,2.42205E-1,5E-1,5E-1,5E-1,5E-1,1.36015E-1,-2.1454038E-1,5.2642904E-2,-1.7627453E-2,2.5E0,5E-1,5E-1,4.797E1,3.34487E1,5.4765E1,3.4186907E-2,5.317565E1,1.2990499E-1,4.0800003E-3,-2.6215829E-2,7.9705E-2,5E-1,5.6725E1,1.5E0,2.98E-3,2.9299501E-3,5E-1,6.913331E7,1.6591999E-1,5E-1,2.960759E-1,5.1478628E-2,3.7697393E-2,-2.226608E-1,-8.79663E-2,2.573373E-1,-8.537018E-3,3.216415E-1,-8.655084E-2,-3.419227E-1,-2.9321632E-1,-1.532614E-2,-3.825393E-2,-2.4103646E-1,-4.3187946E-2,-2.8208128E-1,-2.6518163E-1,-2.2622438E-2,1.8445234E-1,-1.9868176E-1,-3.600595E-1,1.3451648E-1,7.071828E-2,-5.524846E-1,-1.2045522E-1,8.827467E-2,2.97141E-1,1.8188441E-1,4.403007E-2,-8.747987E-2,-4.2761552E-1,-2.8245809E-2,-3.6370406E-1,-1.1867352E-1,-2.2334185E-1,1.7837878E-1],"split_indices":[10,12,5,5,10,9,12,7,13,0,9,12,0,8,13,0,89,0,8,12,11,12,0,13,8,21,7,21,12,0,0,0,14,2,89,9,10,9,0,10,0,13,0,13,92,9,14,13,12,90,0,13,7,0,0,0,0,0,0,0,0,0,0,0,0,0,0,0,0,0,0,0,0,0,0,0,0,0,0,0,0,0,0,0,0,0,0,0,0],"split_type":[0,0,0,0,0,0,0,0,0,0,0,0,0,0,0,0,0,0,0,0,0,0,0,0,0,0,0,0,0,0,0,0,0,0,0,0,0,0,0,0,0,0,0,0,0,0,0,0,0,0,0,0,0,0,0,0,0,0,0,0,0,0,0,0,0,0,0,0,0,0,0,0,0,0,0,0,0,0,0,0,0,0,0,0,0,0,0,0,0],"sum_hessian":[1.2630876E3,8.3379297E2,4.2929465E2,3.944545E1,7.9434753E2,1.1384518E2,3.1544946E2,1.9986574E1,1.9458876E1,7.6451605E2,2.9831518E1,8.097242E1,3.2872753E1,1.2175939E2,1.9369008E2,1.6877626E1,3.1089492E0,7.060597E0,1.2398279E1,6.0717077E0,2.3759811E1,1.1010455E1,6.996197E1,8.803187E0,2.4069565E1,5.2963673E1,6.8795715E1,1.7920692E2,1.4483145E1,2.0864813E0,1.022468E0,1.6358835E0,5.4247136E0,7.1937165E0,5.2045627E0,3.5887885E0,2.4829195E0,2.2636362E1,1.123449E0,9.93862E0,1.071836E0,7.7467203E0,1.056467E0,1.5143474E1,8.926091E0,5.0509216E1,2.454457E0,2.323268E0,6.647245E1,1.7279584E2,6.411092E0,1.0165082E1,4.3180623E0,4.1263065E0,1.2984071E0,1.2835219E0,5.9101944E0,3.3961563E0,1.8084064E0,1.9150758E0,1.6737126E0,1.0845218E0,1.3983978E0,2.1635977E1,1.0003844E0,2.014213E0,7.924406E0,1.0139065E0,6.732814E0,6.247958E0,8.895515E0,6.729089E0,2.1970024E0,1.2562563E0,4.925296E1,1.254696E0,1.1997609E0,1.2712148E0,1.052053E0,5.328093E1,1.319152E1,1.3690758E2,3.5888264E1,3.8940413E0,2.5170507E0,6.063242E0,4.1018405E0,2.5479E0,1.7701625E0],"tree_param":{"num_deleted":"0","num_feature":"96","num_nodes":"89","size_leaf_vector":"0"}},{"base_weights":[-6.02898E-1,-9.4879603E-1,-3.8127735E-2,-4.2714137E-1,-9.8258275E-1,-8.290828E-1,1.307613E-1,-8.6512804E-1,7.85584E-2,-9.942299E-1,-6.8159354E-1,-9.7545856E-1,-6.373437E-1,6.787314E-1,-3.5143346E-2,-3.21603E-1,-8.943232E-1,6.131782E-1,-2.5034767E-1,-8.050355E-2,-8.6722434E-1,-1.0220376E0,-5.092339E-1,-8.506185E-1,-9.962105E-2,2.8784367E-1,9.2626995E-1,-1.7485334E-1,2.5688002E-1,-9.1525555E-1,-2.4895343E-1,-4.7746517E-2,7.984924E-1,-3.707003E-1,5.760368E-1,4.643956E-1,-8.562197E-1,-1.0006315E0,-4.2729124E-1,2.2014712E-1,-7.7589196E-1,-8.8794196E-1,-1.2734289E-2,-3.893419E-1,6.5957355E-1,-1.7487906E0,4.553747E-1,9.980297E-1,3.3604556E-1,-1.11832716E-1,-1.0367222E0,1.7338242E-2,8.3385736E-1,9.1805065E-1,1.7361331E-1,-5.2067125E-1,7.894601E-2,-2.293706E-2,7.936893E-1,-2.500059E-1,-1.0265769E0,-8.3273214E-1,3.1451985E-1,-9.2829514E-1,-8.400574E-2,-7.181538E-1,5.818816E-1,-3.379328E-2,1.0798696E0,6.05801E-1,-1.5036565E0,-1.718437E-1,4.696761E-1,-3.4148738E-1,7.8059755E-2,-1.531832E0,-7.4460286E-1,-1.1718384E0,1.2987345E-1,-1.4190622E-1,9.3001676E-1],"categories":[],"categories_nodes":[],"categories_segments":[],"categories_sizes":[],"default_left":[true,false,true,true,true,true,false,false,false,false,false,true,true,false,true,false,true,true,true,true,true,false,false,true,true,false,true,true,true,false,false,false,false,true,false,false,false,false,true,false,false,true,false,true,true,false,true,false,true,true,false,false,true,false,false,false,false,false,false,false,false,false,false,false,false,false,false,false,false,false,false,false,false,false,false,false,false,false,false,false,false],"id":11,"left_children":[1,3,5,7,9,11,13,15,17,-1,19,21,23,25,27,-1,29,31,33,35,37,-1,39,41,43,45,47,49,51,-1,-1,-1,53,55,-1,57,59,-1,61,-1,-1,63,-1,65,67,-1,69,-1,71,73,75,77,79,-1,-1,-1,-1,-1,-1,-1,-1,-1,-1,-1,-1,-1,-1,-1,-1,-1,-1,-1,-1,-1,-1,-1,-1,-1,-1,-1,-1],"loss_changes":[1.9892026E2,1.071167E1,5.1922436E1,8.968843E0,1.3990479E0,1.2975883E0,2.9160034E1,5.542755E-2,3.5943744E0,0E0,2.7475052E0,2.8076553E-1,3.641306E0,6.9450455E0,1.012055E1,0E0,4.171276E-2,9.865017E-1,1.4890805E0,3.3817918E0,6.986542E-1,0E0,1.2102498E0,7.120495E-1,2.5354083E0,1.11514845E1,1.578289E0,8.989426E0,1.1086861E1,0E0,0E0,0E0,2.9663825E-1,8.3703303E-1,0E0,7.877362E-1,8.050203E-2,0E0,2.1297166E0,0E0,0E0,6.3993263E-1,0E0,3.0131996E0,9.7852564E-1,0E0,9.408551E0,0E0,5.1544625E-1,6.888059E0,4.9397373E-1,7.88445E0,2.3409672E0,0E0,0E0,0E0,0E0,0E0,0E0,0E0,0E0,0E0,0E0,0E0,0E0,0E0,0E0,0E0,0E0,0E0,0E0,0E0,0E0,0E0,0E0,0E0,0E0,0E0,0E0,0E0,0E0],"parents":[2147483647,0,0,1,1,2,2,3,3,4,4,5,5,6,6,7,7,8,8,10,10,11,11,12,12,13,13,14,14,16,16,17,17,18,18,19,19,20,20,22,22,23,23,24,24,25,25,26,26,27,27,28,28,32,32,33,33,35,35,36,36,38,38,41,41,43,43,44,44,46,46,48,48,49,49,50,50,51,51,52,52],"right_children":[2,4,6,8,10,12,14,16,18,-1,20,22,24,26,28,-1,30,32,34,36,38,-1,40,42,44,46,48,50,52,-1,-1,-1,54,56,-1,58,60,-1,62,-1,-1,64,-1,66,68,-1,70,-1,72,74,76,78,80,-1,-1,-1,-1,-1,-1,-1,-1,-1,-1,-1,-1,-1,-1,-1,-1,-1,-1,-1,-1,-1,-1,-1,-1,-1,-1,-1,-1],"split_conditions":[4.82756E1,8.3163E-3,5.509E1,5E-1,3.028645E1,6.85E-4,1.9121501E-3,8.5E-5,5.8049997E-3,-2.9826897E-1,4.9855E1,5E-1,5E-1,5E-6,5E-1,-9.6480906E-2,5.4425E1,1.5870298E7,5E-1,2.1604E-2,5.0385002E1,-3.066113E-1,5.4094498E1,5E-1,5E-1,3.55E1,5.65E-4,3.8355E-2,5E-1,-2.7457666E-1,-7.4686036E-2,-1.4323955E-2,2.5E0,5E-1,1.7281105E-1,4.797E1,3.34487E1,-3.0018944E-1,5E-1,6.604414E-2,-2.327676E-1,1.8619154E8,-3.8202868E-3,5E-1,1.0695435E8,-5.246372E-1,5E-1,2.994089E-1,5E-1,6.247651E7,1.8855E-2,1E-5,1.0047424E7,2.754152E-1,5.2083995E-2,-1.5620138E-1,2.3683803E-2,-6.8811183E-3,2.381068E-1,-7.5001776E-2,-3.079731E-1,-2.4981965E-1,9.435596E-2,-2.7848855E-1,-2.5201725E-2,-2.1544614E-1,1.7456448E-1,-1.01379845E-2,3.239609E-1,1.817403E-1,-4.5109698E-1,-5.155311E-2,1.4090283E-1,-1.0244622E-1,2.3417927E-2,-4.595496E-1,-2.2338086E-1,-3.5155153E-1,3.8962036E-2,-4.2571865E-2,2.7900505E-1],"split_indices":[10,12,9,5,10,13,12,13,13,0,9,8,6,13,8,0,9,0,35,12,9,0,10,86,8,11,13,12,88,0,0,0,14,94,0,9,10,0,7,0,0,0,0,7,0,0,21,0,7,0,13,13,0,0,0,0,0,0,0,0,0,0,0,0,0,0,0,0,0,0,0,0,0,0,0,0,0,0,0,0,0],"split_type":[0,0,0,0,0,0,0,0,0,0,0,0,0,0,0,0,0,0,0,0,0,0,0,0,0,0,0,0,0,0,0,0,0,0,0,0,0,0,0,0,0,0,0,0,0,0,0,0,0,0,0,0,0,0,0,0,0,0,0,0,0,0,0,0,0,0,0,0,0,0,0,0,0,0,0,0,0,0,0,0,0],"sum_hessian":[1.01744604E3,6.3056903E2,3.86877E2,3.918642E1,5.913826E2,6.7384995E1,3.19492E2,2.0618221E1,1.8568201E1,5.671335E2,2.4249142E1,3.5894966E1,3.1490032E1,7.353165E1,2.4596037E2,1.6635537E0,1.8954668E1,6.7431936E0,1.18250065E1,6.0599923E0,1.818915E1,3.1550676E1,4.3442893E0,2.2130579E1,9.359454E0,2.9349197E1,4.4182446E1,1.6663837E2,7.9322E1,1.7954144E1,1.0005238E0,1.6392263E0,5.103967E0,1.080309E1,1.0219164E0,3.7953174E0,2.2646747E0,1.2978873E1,5.2102757E0,1.2097425E0,3.134547E0,2.1129618E1,1.0009604E0,7.126885E0,2.232569E0,1.5133356E0,2.7835863E1,3.877699E1,5.4054575E0,1.5633665E2,1.0301722E1,5.6779213E1,2.2542788E1,3.8904424E0,1.2135248E0,7.982667E0,2.8204234E0,1.9055603E0,1.8897572E0,1.0381106E0,1.226564E0,3.2897038E0,1.9205718E0,1.9972424E1,1.1571934E0,5.518979E0,1.607906E0,1.1896265E0,1.0429426E0,2.6492382E1,1.3434805E0,1.0664068E0,4.3390503E0,7.039867E1,8.593799E1,2.247909E0,8.053812E0,4.094883E0,5.268433E1,1.9795765E0,2.056321E1],"tree_param":{"num_deleted":"0","num_feature":"96","num_nodes":"81","size_leaf_vector":"0"}},{"base_weights":[-5.468316E-1,-8.990163E-1,1.220097E-2,-9.529784E-1,-4.0444335E-1,-7.1697825E-1,2.3685631E-1,-4.443865E-1,-9.8265123E-1,-1.0457376E0,-1.3586804E-1,-8.616834E-1,-7.225322E-2,3.518136E-2,6.003192E-1,-8.5640824E-1,1.13495015E-1,-7.156322E-1,-9.909257E-1,-1.0850838E0,-2.9788694E-1,-8.119484E-1,1.7576993E-1,-9.7119504E-1,-5.121528E-1,2.2899556E-1,-8.8089544E-1,9.728777E-2,-9.173344E-1,7.586655E-1,-6.7354016E-2,-9.134519E-1,-7.2739325E-3,-5.5794185E-1,3.6658457E-1,2.4915968E-1,-9.402837E-1,-9.354305E-1,-3.1655553E-1,1.4205486E0,6.01857E-2,-9.918005E-1,-3.6398792E-1,-7.6307225E-1,-5.8821693E-2,-3.389005E-1,7.7966255E-1,-3.8481158E-1,2.4374449E-1,2.6742386E-2,-1.1631647E0,2.986378E-1,8.6677146E-1,-2.0948193E0,2.4261035E-1,-1.5997782E-1,-9.644976E-1,-6.586544E-1,-1.429419E-1,1.3554196E-1,8.696923E-1,9.838954E-1,-3.371953E-1,3.8857377E-1,-7.0024216E-1,-8.8395107E-1,1.7494239E-1,-5.294668E-1,-9.4415285E-3,5.1038554E-3,-9.112405E-1,-4.7538596E-1,3.6401525E-1,-6.921533E-1,2.782353E-1,1.3311309E0,-3.9240897E-2,-1.1566107E0,-1.5137047E-1,3.1580192E-1,-5.5034214E-1,2.1399832E-1,-1.7381488E-1,-1.2672632E0,-3.006058E-1,-1.4634192E0,9.1805995E-1,9.906014E-1,6.656055E-1,-9.412335E-2,8.984564E-1],"categories":[],"categories_nodes":[],"categories_segments":[],"categories_sizes":[],"default_left":[true,true,true,false,false,true,true,true,false,true,true,true,true,false,false,false,false,false,false,false,false,true,false,true,false,false,false,false,false,false,false,false,false,false,true,false,false,false,true,false,false,false,true,false,true,true,false,true,true,false,true,false,false,false,true,false,false,false,false,false,false,false,false,false,false,false,false,false,false,false,false,false,false,false,false,false,false,false,false,false,false,false,false,false,false,false,false,false,false,false,false],"id":12,"left_children":[1,3,5,7,9,11,13,15,17,19,21,23,25,27,29,31,33,35,-1,-1,-1,37,39,41,43,45,-1,47,49,51,53,55,-1,57,59,61,-1,-1,63,-1,65,-1,67,69,71,73,75,77,79,81,83,85,87,-1,89,-1,-1,-1,-1,-1,-1,-1,-1,-1,-1,-1,-1,-1,-1,-1,-1,-1,-1,-1,-1,-1,-1,-1,-1,-1,-1,-1,-1,-1,-1,-1,-1,-1,-1,-1,-1],"loss_changes":[1.6420818E2,1.32699585E1,5.3134342E1,6.514282E0,8.826609E0,7.0654564E0,1.815186E1,6.353185E0,2.5061035E-1,1.2465477E-1,8.117595E0,1.8874435E0,3.8791065E0,9.584617E0,9.39822E0,7.573061E-1,2.3193202E0,3.8442268E0,0E0,0E0,0E0,4.4531345E-1,3.7603934E0,2.1860123E-1,1.8864965E0,3.9518971E0,0E0,1.079703E1,2.3335867E0,3.2991676E0,1.1736382E1,4.1381645E-1,0E0,6.481135E-2,1.0028425E0,2.0275717E0,0E0,0E0,1.3353095E0,0E0,2.9178445E0,0E0,1.7688915E-1,1.2391505E0,1.4294643E0,1.6101135E0,2.8927424E0,6.258585E0,6.861691E0,1.5088259E-1,3.2784557E-1,1.7867382E1,7.706337E-1,0E0,3.7050135E0,0E0,0E0,0E0,0E0,0E0,0E0,0E0,0E0,0E0,0E0,0E0,0E0,0E0,0E0,0E0,0E0,0E0,0E0,0E0,0E0,0E0,0E0,0E0,0E0,0E0,0E0,0E0,0E0,0E0,0E0,0E0,0E0,0E0,0E0,0E0,0E0],"parents":[2147483647,0,0,1,1,2,2,3,3,4,4,5,5,6,6,7,7,8,8,9,9,10,10,11,11,12,12,13,13,14,14,15,15,16,16,17,17,21,21,22,22,23,23,24,24,25,25,27,27,28,28,29,29,30,30,31,31,33,33,34,34,35,35,38,38,40,40,42,42,43,43,44,44,45,45,46,46,47,47,48,48,49,49,50,50,51,51,52,52,54,54],"right_children":[2,4,6,8,10,12,14,16,18,20,22,24,26,28,30,32,34,36,-1,-1,-1,38,40,42,44,46,-1,48,50,52,54,56,-1,58,60,62,-1,-1,64,-1,66,-1,68,70,72,74,76,78,80,82,84,86,88,-1,90,-1,-1,-1,-1,-1,-1,-1,-1,-1,-1,-1,-1,-1,-1,-1,-1,-1,-1,-1,-1,-1,-1,-1,-1,-1,-1,-1,-1,-1,-1,-1,-1,-1,-1,-1,-1],"split_conditions":[5E-1,5.99963E1,5E-1,7.1664E-3,3.7195E-2,5E-1,5E-1,5.671E1,4.6305E1,5E-1,5E-1,4.7905E1,5E-1,5.8015E-2,6.7865506E-2,6.5363E-3,1.7028E-5,1.5E0,-2.9727772E-1,-3.2552516E-1,-8.9366086E-2,1.2091474E8,5.9148997E-2,5E-1,1.1599E-1,2.7289E-2,-2.6426864E-1,5E-6,5.981995E1,5E-6,7.49375E-2,4.3754997E1,-2.1821798E-3,9.39575E-7,1.2835938E8,1.31025E-1,-2.8208512E-1,-2.8062916E-1,1.4277395E8,4.261646E-1,1.08225E-1,-2.9754016E-1,3.9009804E1,4.839615E1,7.211151E7,5E-1,5.96987E1,5.94525E1,1.4666E-2,8.5695E-2,5E-1,3.3E1,1.0113001E-2,-6.284458E-1,5E-1,-4.799335E-2,-2.893493E-1,-1.9759633E-1,-4.2882573E-2,4.066259E-2,2.609077E-1,2.9516864E-1,-1.011586E-1,1.16572134E-1,-2.1007265E-1,-2.6518533E-1,5.248272E-2,-1.5884005E-1,-2.8324586E-3,1.5311567E-3,-2.7337217E-1,-1.426158E-1,1.0920458E-1,-2.07646E-1,8.347059E-2,3.993393E-1,-1.1772269E-2,-3.4698322E-1,-4.541114E-2,9.474058E-2,-1.6510265E-1,6.41995E-2,-5.2144464E-2,-3.8017896E-1,-9.0181746E-2,-4.390258E-1,2.7541798E-1,2.9718044E-1,1.9968165E-1,-2.8237006E-2,2.6953694E-1],"split_indices":[6,10,7,12,13,8,8,9,9,15,7,9,89,13,12,12,12,14,0,0,0,0,12,32,13,12,0,13,10,13,12,9,0,12,0,12,0,0,0,0,12,0,10,10,0,88,10,10,12,13,26,11,12,0,88,0,0,0,0,0,0,0,0,0,0,0,0,0,0,0,0,0,0,0,0,0,0,0,0,0,0,0,0,0,0,0,0,0,0,0,0],"split_type":[0,0,0,0,0,0,0,0,0,0,0,0,0,0,0,0,0,0,0,0,0,0,0,0,0,0,0,0,0,0,0,0,0,0,0,0,0,0,0,0,0,0,0,0,0,0,0,0,0,0,0,0,0,0,0,0,0,0,0,0,0,0,0,0,0,0,0,0,0,0,0,0,0,0,0,0,0,0,0,0,0,0,0,0,0,0,0,0,0,0,0],"sum_hessian":[8.329849E2,5.1066382E2,3.223211E2,4.5959164E2,5.1072163E1,7.539969E1,2.469214E2,2.6216589E1,4.3337506E2,1.4221333E1,3.685083E1,6.130385E1,1.4095844E1,1.5951048E2,8.741091E1,1.4771808E1,1.1444782E1,1.5655503E1,4.1771954E2,1.3082116E1,1.1392163E0,1.1120384E1,2.5730446E1,4.5324608E1,1.5979241E1,1.0792178E1,3.3036664E0,1.5058954E2,8.920952E0,7.054426E1,1.6866655E1,1.3770949E1,1.0008581E0,2.803276E0,8.641506E0,2.9362676E0,1.2719235E1,8.190541E0,2.9298422E0,1.2269294E0,2.4503515E1,4.3224415E1,2.1001933E0,9.846135E0,6.1331067E0,5.502294E0,5.289884E0,3.4708908E1,1.1588063E2,2.0271568E0,6.8937945E0,1.4139279E1,5.640498E1,1.4730742E0,1.539358E1,1.1360464E0,1.2634903E1,1.7833675E0,1.0199084E0,6.7918763E0,1.8496299E0,1.0023193E0,1.9339483E0,1.0279554E0,1.9018868E0,1.9291345E0,2.257438E1,1.095515E0,1.0046782E0,1.7481955E0,8.0979395E0,3.026866E0,3.1062405E0,3.4219747E0,2.0803192E0,2.787329E0,2.5025554E0,7.1418915E0,2.7567019E1,1.0679233E2,9.0883E0,1.0136839E0,1.013473E0,5.7327447E0,1.1610501E0,3.3232229E0,1.0816057E1,3.2484493E1,2.3920486E1,1.0737214E1,4.656366E0],"tree_param":{"num_deleted":"0","num_feature":"96","num_nodes":"91","size_leaf_vector":"0"}},{"base_weights":[-4.9395916E-1,-9.182466E-1,-4.8248623E-2,-3.2731146E-1,-9.6297485E-1,-7.8476375E-1,6.648849E-2,-7.342526E-1,1.0962931E-2,-7.4972296E-1,-9.8127586E-1,-8.1949055E-1,-3.8223177E-2,5.5224437E-1,-4.638916E-2,-7.997843E-1,-9.919963E-3,-1.6978233E-1,4.7607544E-1,-2.43307E-2,-8.907131E-1,-8.374613E-1,-1.19374625E-1,-5.2567834E-1,4.8413134E-1,1.5796289E-1,8.849803E-1,-1.4807661E-1,2.0488387E-1,-8.998812E-1,-2.2826156E-1,-5.173637E-1,7.96831E-2,1.2701745E-1,7.277447E-1,-6.0588074E-1,8.936989E-1,-9.260724E-1,-1.350353E-1,-9.074536E-1,-5.4236484E-1,-1.3288751E0,3.2090074E-1,9.770323E-1,3.0321115E-1,-3.114641E-1,1.2949744E-1,4.2424202E-1,-6.0198724E-2,1.7038994E-1,-7.950032E-1,6.234682E-1,-3.024194E-1,3.8587952E-1,-1.7802416E-1,-7.0417196E-1,-1.4484845E-1,-9.650998E-1,-2.0501201E-1,-9.344244E-1,-2.1565884E-1,-7.626379E-1,1.0861464E-1,4.70992E-1,-9.83816E-1,1.509057E-2,6.719257E-1,-6.069488E-1,-8.620629E-2,4.3533078E-1,-2.635018E-1,5.5986893E-1,-2.2833516E-1,2.3512949E-1,-5.5195683E-1],"categories":[],"categories_nodes":[],"categories_segments":[],"categories_sizes":[],"default_left":[true,false,true,true,false,true,false,false,true,false,false,true,true,false,true,true,false,false,true,true,true,true,false,false,false,false,true,true,true,false,false,true,false,false,false,true,false,true,false,true,true,false,true,false,true,true,true,true,true,false,false,false,false,false,false,false,false,false,false,false,false,false,false,false,false,false,false,false,false,false,false,false,false,false,false],"id":13,"left_children":[1,3,5,7,9,11,13,15,17,19,-1,21,23,25,27,29,-1,31,33,35,37,39,-1,-1,-1,41,43,45,47,-1,-1,49,51,53,-1,55,-1,57,-1,59,61,-1,63,-1,65,67,69,71,73,-1,-1,-1,-1,-1,-1,-1,-1,-1,-1,-1,-1,-1,-1,-1,-1,-1,-1,-1,-1,-1,-1,-1,-1,-1,-1],"loss_changes":[1.3034909E2,9.020142E0,2.8557827E1,3.6376748E0,5.437012E-1,1.149416E0,1.6078922E1,5.608816E-1,1.3740783E0,3.0616245E0,0E0,4.4696617E-1,1.0370467E0,7.1129208E0,6.1241894E0,4.2254162E-1,0E0,1.0657465E0,3.0885124E-1,3.7095947E0,5.486603E-1,3.798008E-1,0E0,0E0,0E0,6.8509784E0,1.2977257E0,7.766753E0,4.045283E0,0E0,0E0,1.1036377E0,1.7978537E0,3.1547084E-1,0E0,8.963144E-2,0E0,4.751587E-1,0E0,4.0744972E-1,1.5998101E0,0E0,5.3013315E0,0E0,5.758652E-1,7.105176E0,7.7866955E0,3.4868083E0,4.8030024E0,0E0,0E0,0E0,0E0,0E0,0E0,0E0,0E0,0E0,0E0,0E0,0E0,0E0,0E0,0E0,0E0,0E0,0E0,0E0,0E0,0E0,0E0,0E0,0E0,0E0,0E0],"parents":[2147483647,0,0,1,1,2,2,3,3,4,4,5,5,6,6,7,7,8,8,9,9,11,11,12,12,13,13,14,14,15,15,17,17,18,18,19,19,20,20,21,21,25,25,26,26,27,27,28,28,31,31,32,32,33,33,35,35,37,37,39,39,40,40,42,42,44,44,45,45,46,46,47,47,48,48],"right_children":[2,4,6,8,10,12,14,16,18,20,-1,22,24,26,28,30,-1,32,34,36,38,40,-1,-1,-1,42,44,46,48,-1,-1,50,52,54,-1,56,-1,58,-1,60,62,-1,64,-1,66,68,70,72,74,-1,-1,-1,-1,-1,-1,-1,-1,-1,-1,-1,-1,-1,-1,-1,-1,-1,-1,-1,-1,-1,-1,-1,-1,-1,-1],"split_conditions":[3.845955E1,7.1664E-3,4.5665E1,5E-1,1.02E0,5E-1,1.9121501E-3,6.4669997E-3,5E-1,4.921E1,-2.9438278E-1,5E-1,6.4205056E7,5E-6,5E-1,5E-1,-2.975989E-3,2.4589E-4,6.2681044E7,5E-1,5E-1,5E-1,-3.581239E-2,-1.577035E-1,1.4523941E-1,3.55E1,5.65E-4,5E-1,5E-1,-2.6996437E-1,-6.847847E-2,4.774997E7,1.03675E-3,5.3754997E1,2.1832342E-1,9.848117E7,2.6810968E-1,5E-1,-4.0510595E-2,5E-1,3.5E0,-3.9866254E-1,5E-1,2.9310971E-1,5E-1,6.247651E7,5E-1,7.33395E-2,9.675498E7,5.1116984E-2,-2.3850097E-1,1.8704048E-1,-9.0725824E-2,1.1576386E-1,-5.3407248E-2,-2.112516E-1,-4.3454535E-2,-2.8952995E-1,-6.1503604E-2,-2.8032732E-1,-6.469765E-2,-2.2879139E-1,3.258439E-2,1.4129761E-1,-2.9514483E-1,4.527171E-3,2.0157772E-1,-1.8208465E-1,-2.5861887E-2,1.3059925E-1,-7.905054E-2,1.6796069E-1,-6.850055E-2,7.053885E-2,-1.6558705E-1],"split_indices":[10,12,9,5,14,86,12,12,7,9,0,19,0,13,91,7,0,12,0,8,36,88,0,0,0,11,13,88,93,0,0,0,12,9,0,0,0,26,0,16,14,0,21,0,91,0,94,12,0,0,0,0,0,0,0,0,0,0,0,0,0,0,0,0,0,0,0,0,0,0,0,0,0,0,0],"split_type":[0,0,0,0,0,0,0,0,0,0,0,0,0,0,0,0,0,0,0,0,0,0,0,0,0,0,0,0,0,0,0,0,0,0,0,0,0,0,0,0,0,0,0,0,0,0,0,0,0,0,0,0,0,0,0,0,0,0,0,0,0,0,0,0,0,0,0,0,0,0,0,0,0,0,0],"sum_hessian":[6.8851294E2,3.521904E2,3.363225E2,2.5367022E1,3.2682336E2,4.454455E1,2.9177798E2,1.0983449E1,1.4383574E1,2.9147654E1,2.9767572E2,4.2471203E1,2.0733476E0,5.428337E1,2.374946E2,9.976673E0,1.0067756E0,1.0815555E1,3.568019E0,4.93414E0,2.4213512E1,4.1217056E1,1.2541459E0,1.06921E0,1.0041375E0,2.5518963E1,2.876441E1,1.693651E2,6.812951E1,8.000863E0,1.9758093E0,4.070382E0,6.745173E0,2.12517E0,1.4428489E0,3.2287953E0,1.705345E0,2.2915762E1,1.2977496E0,3.1637924E1,9.579132E0,1.8136208E0,2.3705341E1,2.4248251E1,4.5161586E0,1.0653416E2,6.2830936E1,3.695145E1,3.1178057E1,1.281704E0,2.7886782E0,2.5229647E0,4.222208E0,1.0062487E0,1.1189213E0,2.2266884E0,1.0021069E0,2.1418064E1,1.4976983E0,3.0113186E1,1.5247393E0,7.029144E0,2.549988E0,2.1832766E1,1.8725765E0,3.1194715E0,1.3966868E0,4.535055E1,6.11836E1,3.527337E1,2.7557568E1,3.0710804E1,6.240647E0,1.9805567E1,1.137249E1],"tree_param":{"num_deleted":"0","num_feature":"96","num_nodes":"75","size_leaf_vector":"0"}},{"base_weights":[-4.3079102E-1,-9.023004E-1,-4.6130028E-2,-3.008801E-1,-9.5355266E-1,-6.04048E-1,7.86865E-2,-6.519646E-1,1.0496248E-1,-9.745802E-1,-7.629842E-1,-8.796753E-1,-4.270269E-1,-7.137358E-2,4.2185482E-1,-8.663805E-1,-2.154909E-1,-2.1679932E-1,4.5065978E-1,-6.448288E-1,-9.875308E-1,-8.576453E-1,3.7921605E-1,-2.0471697E-1,-9.028073E-1,-6.582993E-1,1.3790272E-1,-2.7710428E-2,-8.684867E-1,7.0723057E-1,1.1690181E-2,3.7792438E-1,-4.6244252E-1,2.835397E-1,-4.0415692E-1,6.9121283E-1,-2.0983183E-1,2.980446E-1,-8.953896E-1,-3.9935145E-3,-8.9058745E-1,-9.3645984E-1,-2.9164273E-1,-7.1577823E-1,3.0170044E-1,3.7272504E-1,-7.374633E-1,9.628957E-3,-6.863425E-1,-1.0954577E0,6.635146E-2,2.4948508E-1,8.26252E-1,-2.2614396E-1,6.6093755E-1,7.849174E-2,-6.66754E-1,-5.288546E-1,3.7468195E-2,2.8295547E-1,9.145159E-1,-5.20592E-1,9.8809165E-1,-9.258316E-1,-5.6320615E-2,2.5830886E-1,-7.750548E-1,-2.1442336E-1,8.204792E-1,9.45501E-2,-2.6252782E-1,-1.0317096E0,3.5010755E-1,-1.165776E0,-3.119198E-1,-1.2564508E0,8.7825197E-1,-1.0502114E-1,8.569459E-1,-8.950364E-1,3.3304036E-2,8.74824E-2,9.48895E-1],"categories":[],"categories_nodes":[],"categories_segments":[],"categories_sizes":[],"default_left":[true,false,true,true,true,true,true,true,true,false,true,false,true,true,false,false,true,false,true,false,false,false,false,false,true,true,true,true,false,false,true,false,false,false,true,true,false,true,false,false,true,false,false,false,false,false,false,false,true,true,false,false,true,false,false,false,false,false,false,false,false,false,false,false,false,false,false,false,false,false,false,false,false,false,false,false,false,false,false,false,false,false,false],"id":14,"left_children":[1,3,5,7,9,11,13,15,17,19,21,23,25,27,29,-1,31,33,35,37,-1,39,-1,-1,41,43,45,47,49,51,53,-1,55,-1,57,59,-1,61,-1,-1,63,-1,-1,65,-1,67,-1,69,71,73,-1,75,77,79,81,-1,-1,-1,-1,-1,-1,-1,-1,-1,-1,-1,-1,-1,-1,-1,-1,-1,-1,-1,-1,-1,-1,-1,-1,-1,-1,-1,-1],"loss_changes":[1.06419205E2,7.840317E0,2.2631876E1,3.2267082E0,2.2814941E-1,2.522873E0,1.372326E1,9.385233E-1,1.3370967E0,2.804718E-1,3.4288006E0,1.631794E-1,5.070847E0,6.444802E0,9.478088E0,0E0,9.502505E-1,7.18874E-1,1.0500741E0,2.8652525E0,0E0,7.504864E-1,0E0,0E0,1.6409111E-1,1.7178478E0,2.7206893E0,4.365552E0,2.1137142E0,2.3967552E0,5.441036E0,0E0,5.150159E-1,0E0,3.0079532E-1,1.4312243E-1,0E0,2.2426474E0,0E0,0E0,7.0684814E-1,0E0,0E0,1.700139E0,0E0,2.8170338E0,0E0,3.9242733E0,3.7700577E0,6.597328E-2,0E0,1.1795241E1,1.1614609E0,4.5117555E0,1.4762697E0,0E0,0E0,0E0,0E0,0E0,0E0,0E0,0E0,0E0,0E0,0E0,0E0,0E0,0E0,0E0,0E0,0E0,0E0,0E0,0E0,0E0,0E0,0E0,0E0,0E0,0E0,0E0,0E0],"parents":[2147483647,0,0,1,1,2,2,3,3,4,4,5,5,6,6,7,7,8,8,9,9,10,10,11,11,12,12,13,13,14,14,16,16,17,17,18,18,19,19,21,21,24,24,25,25,26,26,27,27,28,28,29,29,30,30,32,32,34,34,35,35,37,37,40,40,43,43,45,45,47,47,48,48,49,49,51,51,52,52,53,53,54,54],"right_children":[2,4,6,8,10,12,14,16,18,20,22,24,26,28,30,-1,32,34,36,38,-1,40,-1,-1,42,44,46,48,50,52,54,-1,56,-1,58,60,-1,62,-1,-1,64,-1,-1,66,-1,68,-1,70,72,74,-1,76,78,80,82,-1,-1,-1,-1,-1,-1,-1,-1,-1,-1,-1,-1,-1,-1,-1,-1,-1,-1,-1,-1,-1,-1,-1,-1,-1,-1,-1,-1],"split_conditions":[3.028645E1,7.1664E-3,5E-1,5.671E1,5.9504997E1,5E-1,5E-1,6.180691E7,5E-1,4.6305E1,5E-1,4.6563502E-3,5E-1,3.8355E-2,5.12615E-2,-2.5991416E-1,7.1518936E7,5.9945E1,5E-1,5.7894E-2,-2.9625925E-1,5.53065E-2,1.13764815E-1,-6.141509E-2,5E-1,5E-1,5E-1,5E-1,2.5125E-2,5E-6,5E-1,1.1337732E-1,1.5E0,8.5061915E-2,1.3253133E8,6.785544E7,-6.294955E-2,4.642092E7,-2.6861688E-1,-1.1980544E-3,5E-1,-2.8093797E-1,-8.749282E-2,4.9910004E1,9.051014E-2,2.7289E-2,-2.21239E-1,2.7345E-2,7.887594E7,1.3520653E8,1.9905439E-2,3.3E1,4.184E1,1.8445E-2,9.2738E-2,2.3547523E-2,-2.0002621E-1,-1.5865639E-1,1.1240459E-2,8.488664E-2,2.743548E-1,-1.561776E-1,2.9642752E-1,-2.777495E-1,-1.6896185E-2,7.749266E-2,-2.3251645E-1,-6.432701E-2,2.4614377E-1,2.8365033E-2,-7.875835E-2,-3.0951288E-1,1.0503227E-1,-3.4973282E-1,-9.357595E-2,-3.7693524E-1,2.634756E-1,-3.1506345E-2,2.5708377E-1,-2.6851094E-1,9.991211E-3,2.624472E-2,2.846685E-1],"split_indices":[10,12,7,9,9,6,8,0,8,9,7,12,8,12,12,0,0,9,90,12,0,12,0,0,34,19,89,21,13,13,88,0,14,0,0,0,0,0,0,0,34,0,0,9,0,12,0,13,0,0,0,11,9,13,12,0,0,0,0,0,0,0,0,0,0,0,0,0,0,0,0,0,0,0,0,0,0,0,0,0,0,0,0],"split_type":[0,0,0,0,0,0,0,0,0,0,0,0,0,0,0,0,0,0,0,0,0,0,0,0,0,0,0,0,0,0,0,0,0,0,0,0,0,0,0,0,0,0,0,0,0,0,0,0,0,0,0,0,0,0,0,0,0,0,0,0,0,0,0,0,0,0,0,0,0,0,0,0,0,0,0,0,0,0,0,0,0,0,0],"sum_hessian":[5.8597736E2,2.6266382E2,3.2331354E2,2.116567E1,2.4149815E2,5.8405773E1,2.6490775E2,1.1023265E1,1.0142405E1,2.1379381E2,2.7704344E1,2.1288935E1,3.7116837E1,1.8486313E2,8.0044624E1,6.731492E0,4.2917733E0,5.446176E0,4.6962285E0,9.998594E0,2.0379521E2,2.58141E1,1.8902422E0,1.0318204E0,2.0257114E1,2.6218258E1,1.089858E1,1.7624385E2,8.619278E0,4.677573E1,3.3268894E1,1.1053357E0,3.1864374E0,1.343907E0,4.102269E0,3.408375E0,1.2878534E0,2.0594115E0,7.939183E0,1.0008063E0,2.4813295E1,1.8695433E1,1.5616827E0,2.4977175E1,1.2410834E0,9.046111E0,1.8524683E0,1.6772075E2,8.5231E0,6.7971663E0,1.8221112E0,1.0291538E1,3.648419E1,2.482618E1,8.442714E0,1.0424018E0,2.1440356E0,3.0449696E0,1.0572996E0,2.0067108E0,1.4016644E0,1.0542607E0,1.0051508E0,2.3702223E1,1.1110723E0,1.2401526E0,2.3737022E1,4.139293E0,4.906818E0,1.2833038E2,3.939037E1,6.396293E0,2.1268065E0,5.7897325E0,1.0074339E0,2.7372873E0,7.554251E0,1.0868522E0,3.539734E1,6.253648E0,1.8572533E1,3.2581155E0,5.184598E0],"tree_param":{"num_deleted":"0","num_feature":"96","num_nodes":"83","size_leaf_vector":"0"}},{"base_weights":[-3.7288547E-1,-8.7138516E-1,-3.9388478E-2,2.4261117E-2,-9.1367835E-1,-6.987679E-1,4.5760144E-2,-6.0047144E-1,2.0326604E-1,-9.5663685E-1,-6.126616E-1,-7.40198E-1,1.8459241E-3,4.47173E-1,-2.416094E-2,-4.565416E-2,6.22724E-1,-6.1975586E-1,-9.721621E-1,1.0469247E0,-7.175531E-1,-7.885661E-1,-1.6611792E-1,7.829051E-2,8.75459E-1,-3.0805597E-1,4.472058E-2,-5.124836E-1,2.8668344E-1,-7.908317E-1,3.6842492E-1,2.7376879E-2,-8.285362E-1,-8.1372166E-1,-1.1207092E-1,-5.905058E-1,3.2614332E-1,-1.9831578E-1,7.316011E-1,9.1628605E-1,1.7658123E-1,-9.0293366E-1,2.603115E-2,-4.2183125E-1,1.0746194E-1,5.3297395E-1,-1.765963E-1,-8.8894665E-1,-8.112102E-3,-5.09744E-1,8.0893373E-1,-8.653742E-1,-8.679701E-2,-8.405034E-1,-1.3766651E-1,-1.1282521E0,1.9565616E-2,8.440316E-1,3.4225706E-2,2.3367026E-1,9.440627E-1,-4.5139706E-1,-1.0362087E0,4.2428428E-1,-2.6518837E-1,2.7976283E-1,-6.117385E-1,4.3469626E-1,1.6537962E-2],"categories":[],"categories_nodes":[],"categories_segments":[],"categories_sizes":[],"default_left":[true,false,true,false,true,true,false,false,true,false,false,true,false,false,true,true,false,true,false,false,false,true,false,true,true,false,false,false,true,false,false,false,true,true,false,false,false,false,false,false,false,false,false,false,false,false,false,false,false,false,false,false,false,false,false,false,false,false,false,false,false,false,false,false,false,false,false,false,false],"id":15,"left_children":[1,3,5,7,9,11,13,-1,15,17,19,21,-1,23,25,27,-1,29,-1,-1,31,33,35,37,39,41,43,-1,45,47,-1,49,51,53,-1,-1,-1,55,57,59,-1,61,63,65,67,-1,-1,-1,-1,-1,-1,-1,-1,-1,-1,-1,-1,-1,-1,-1,-1,-1,-1,-1,-1,-1,-1,-1,-1],"loss_changes":[8.401405E1,7.69664E0,1.7097824E1,1.2526286E0,1.9159851E0,1.0121841E0,7.5927405E0,0E0,9.2691576E-1,2.7378845E-1,5.4418716E0,7.820492E-1,0E0,6.2707014E0,4.531203E0,1.1293188E0,0E0,2.0055451E0,0E0,0E0,2.1670494E0,4.2035866E-1,9.910484E-1,4.2392044E0,3.6518764E-1,9.013094E0,5.512691E0,0E0,5.89339E-1,6.80985E-1,0E0,2.2305555E0,5.4258347E-1,4.0615463E-1,0E0,0E0,0E0,3.4064627E0,5.1621413E-1,1.05737686E-1,0E0,5.128813E-1,3.5846348E0,3.1481035E0,4.9150414E0,0E0,0E0,0E0,0E0,0E0,0E0,0E0,0E0,0E0,0E0,0E0,0E0,0E0,0E0,0E0,0E0,0E0,0E0,0E0,0E0,0E0,0E0,0E0,0E0],"parents":[2147483647,0,0,1,1,2,2,3,3,4,4,5,5,6,6,8,8,9,9,10,10,11,11,13,13,14,14,15,15,17,17,20,20,21,21,22,22,23,23,24,24,25,25,26,26,28,28,29,29,31,31,32,32,33,33,37,37,38,38,39,39,41,41,42,42,43,43,44,44],"right_children":[2,4,6,8,10,12,14,-1,16,18,20,22,-1,24,26,28,-1,30,-1,-1,32,34,36,38,40,42,44,-1,46,48,-1,50,52,54,-1,-1,-1,56,58,60,-1,62,64,66,68,-1,-1,-1,-1,-1,-1,-1,-1,-1,-1,-1,-1,-1,-1,-1,-1,-1,-1,-1,-1,-1,-1,-1,-1],"split_conditions":[2.8702E1,1.3004E-3,4.565E1,1.37325E-6,5.9504997E1,5E-1,1.14045E-3,-1.8014143E-1,5E-1,4.6305E1,6.1600003E-3,5E-1,5.5377727E-4,5E-6,5E-1,5.8965E1,1.868172E-1,2.2439E-1,-2.9164866E-1,3.1407744E-1,2.3942001E-2,5E-1,2.35E1,5E-1,1.005E-3,5.6355E-2,5E-6,-1.5374509E-1,5E-1,4.5515E1,1.1052748E-1,5.14735E-3,5E-1,5E-1,-3.3621278E-2,-1.7715174E-1,9.7843E-2,4.55E1,4.30875E-5,5.3068E1,5.2974373E-2,3.8053E-2,1.1419E-1,2.25E1,5.94646E1,1.5989219E-1,-5.2978892E-2,-2.66684E-1,-2.4336306E-3,-1.529232E-1,2.4268013E-1,-2.5961226E-1,-2.6039103E-2,-2.5215104E-1,-4.1299954E-2,-3.3847564E-1,5.869685E-3,2.5320947E-1,1.0267712E-2,7.010108E-2,2.8321883E-1,-1.3541913E-1,-3.1086263E-1,1.2728529E-1,-7.955651E-2,8.392885E-2,-1.8352155E-1,1.3040888E-1,4.961389E-3],"split_indices":[10,12,9,12,9,86,12,0,89,9,13,15,0,13,6,9,0,13,0,0,12,17,11,8,13,13,13,0,93,9,0,12,34,19,0,0,0,11,12,10,0,12,13,11,10,0,0,0,0,0,0,0,0,0,0,0,0,0,0,0,0,0,0,0,0,0,0,0,0],"split_type":[0,0,0,0,0,0,0,0,0,0,0,0,0,0,0,0,0,0,0,0,0,0,0,0,0,0,0,0,0,0,0,0,0,0,0,0,0,0,0,0,0,0,0,0,0,0,0,0,0,0,0,0,0,0,0,0,0,0,0,0,0,0,0,0,0,0,0,0,0],"sum_hessian":[5.0455984E2,2.0160092E2,3.0295892E2,9.10973E0,1.924912E2,3.3823997E1,2.6913492E2,1.5044962E0,7.6052337E0,1.6654529E2,2.5945906E1,3.188218E1,1.9418199E0,3.9125027E1,2.3000989E2,5.3321304E0,2.273103E0,9.139862E0,1.5740543E2,1.0084975E0,2.4937408E1,2.906015E1,2.822029E0,2.1655746E1,1.746928E1,4.4232693E1,1.8577719E2,1.9919758E0,3.3401546E0,7.961296E0,1.1785663E0,3.3312237E0,2.1606186E1,2.782271E1,1.2374394E0,1.4083154E0,1.4137138E0,1.5703472E1,5.952275E0,1.6211176E1,1.2581059E0,1.5295225E1,2.8937466E1,2.1343225E1,1.6443398E2,2.082573E0,1.2575818E0,6.9539E0,1.0073959E0,2.1804824E0,1.1507415E0,2.0425102E1,1.1810822E0,2.6528542E1,1.2941682E0,2.1877375E0,1.3515735E1,4.9447827E0,1.0074918E0,1.001896E0,1.5209279E1,4.4854517E0,1.0809773E1,1.2029614E1,1.6907852E1,4.445734E0,1.6897491E1,3.4932266E1,1.2950171E2],"tree_param":{"num_deleted":"0","num_feature":"96","num_nodes":"69","size_leaf_vector":"0"}},{"base_weights":[-3.153591E-1,-8.0252063E-1,-8.3088325E-3,-3.4731698E-1,-8.9884233E-1,-5.008626E-1,1.0158643E-1,-6.804827E-1,3.497513E-2,-9.415834E-1,-4.4665235E-1,-7.2856176E-1,-2.0573393E-1,7.186965E-4,3.594849E-1,-8.4006876E-1,6.368591E-1,2.3461886E-1,-6.2086684E-1,-8.5364036E-2,-9.573368E-1,-8.961288E-1,2.8108013E-1,-8.627064E-1,-3.068374E-1,-3.2128844E-1,8.792668E-1,2.7560582E-2,-8.611483E-1,6.98979E-1,2.2080576E-2,-4.214516E-2,-8.9339566E-1,4.072138E-1,-3.6918995E-1,-7.44743E-1,-1.3106124E-1,5.6216514E-1,-5.8813536E-1,-9.647208E-1,-2.4120368E-1,1.3281285E0,-7.408629E-1,-9.045262E-1,-1.4792356E-1,-8.175398E-1,2.0769735E-1,-4.7939932E-1,7.689605E-2,4.9683967E-1,-1.1534554E-2,1.12247325E-1,-1.1929266E0,2.0118734E-1,8.2444865E-1,-1.7558582E-1,5.976195E-1,-9.340574E-1,-1.7347714E-1,7.03507E-2,1.2405038E0,-7.322797E-1,9.596216E-2,2.0688565E0,-9.1554955E-2,-9.761442E-2,6.3186985E-1,-6.192518E-1,1.6026838E-2,-5.951613E-1,3.548133E-1,-2.8330325E-3,1.1482846E0,-2.7031103E-1,1.0943131E-1,-1.0737743E0,8.3472186E-1,8.71127E-1,5.0985128E-2,7.4173236E-1,-2.9071495E-1,1.0549194E0,-8.7985194E-1],"categories":[],"categories_nodes":[],"categories_segments":[],"categories_sizes":[],"default_left":[true,false,true,true,true,true,true,false,true,false,true,true,true,true,false,false,false,true,false,false,true,false,false,true,false,true,false,true,false,false,false,false,true,true,true,false,false,false,false,false,false,true,false,false,false,false,true,true,true,true,true,false,false,false,false,false,true,false,false,false,false,false,false,false,false,false,false,false,false,false,false,false,false,false,false,false,false,false,false,false,false,false,false],"id":16,"left_children":[1,3,5,7,9,11,13,15,17,19,21,23,25,27,29,31,-1,33,35,37,39,-1,41,43,45,47,-1,49,51,53,55,-1,57,59,61,-1,-1,-1,-1,-1,-1,63,-1,-1,-1,-1,65,67,69,71,73,-1,-1,75,77,79,81,-1,-1,-1,-1,-1,-1,-1,-1,-1,-1,-1,-1,-1,-1,-1,-1,-1,-1,-1,-1,-1,-1,-1,-1,-1,-1],"loss_changes":[6.655376E1,7.2302246E0,1.4879741E1,4.0578103E0,2.3112946E0,3.2196417E0,5.8478913E0,4.1031213E0,2.201336E0,1.6480026E0,4.8668995E0,1.31425E0,3.1951032E0,3.7855053E0,7.2243805E0,6.2485313E-1,0E0,1.4803038E0,1.4134014E-1,1.4423189E0,4.3265533E-1,0E0,7.562726E0,4.8266602E-1,2.3475418E0,1.4047511E0,0E0,2.9166775E0,1.730017E0,1.7997894E0,3.8286998E0,0E0,2.6373577E-1,2.8321624E0,6.3799244E-1,0E0,0E0,0E0,0E0,0E0,0E0,3.7594876E0,0E0,0E0,0E0,0E0,6.9957864E-1,1.0970387E0,1.5255361E0,3.982397E0,4.644923E0,0E0,0E0,7.082265E0,8.5144615E-1,2.8703797E0,6.7353096E0,0E0,0E0,0E0,0E0,0E0,0E0,0E0,0E0,0E0,0E0,0E0,0E0,0E0,0E0,0E0,0E0,0E0,0E0,0E0,0E0,0E0,0E0,0E0,0E0,0E0,0E0],"parents":[2147483647,0,0,1,1,2,2,3,3,4,4,5,5,6,6,7,7,8,8,9,9,10,10,11,11,12,12,13,13,14,14,15,15,17,17,18,18,19,19,20,20,22,22,23,23,24,24,25,25,27,27,28,28,29,29,30,30,32,32,33,33,34,34,41,41,46,46,47,47,48,48,49,49,50,50,53,53,54,54,55,55,56,56],"right_children":[2,4,6,8,10,12,14,16,18,20,22,24,26,28,30,32,-1,34,36,38,40,-1,42,44,46,48,-1,50,52,54,56,-1,58,60,62,-1,-1,-1,-1,-1,-1,64,-1,-1,-1,-1,66,68,70,72,74,-1,-1,76,78,80,82,-1,-1,-1,-1,-1,-1,-1,-1,-1,-1,-1,-1,-1,-1,-1,-1,-1,-1,-1,-1,-1,-1,-1,-1,-1,-1],"split_conditions":[5.6665E1,5.4241E1,5E-1,5E-1,5.8967598E1,7.5E0,5E-1,5.317225E1,3.92925E-2,4.1395E1,8.0200005E-3,5E-1,5E-1,5E-1,5.1337E-2,4.727E1,1.9105774E-1,5E-1,4.52613E1,5.5593E-2,2.2373853E8,-2.6883864E-1,9.4795E-2,5E-1,1.24400005E-1,5E-1,2.6378006E-1,1.2862253E7,1.035E2,5E-6,1.68095E-1,-1.2643549E-2,2.45E1,5E-1,2.175E-3,-2.234229E-1,-3.9318375E-2,1.6864955E-1,-1.7644061E-1,-2.8941625E-1,-7.2361104E-2,3.3469997E-2,-2.2225888E-1,-2.7135786E-1,-4.437707E-2,-2.4526195E-1,5E-1,5E-1,4.241487E7,8.838373E6,5.4154388E7,3.36742E-2,-3.57878E-1,3.3E1,2.4659999E-2,5.935595E1,1.1614939E8,-2.8021723E-1,-5.2043144E-2,2.1105211E-2,3.7215114E-1,-2.1968393E-1,2.8788649E-2,6.2065697E-1,-2.7466487E-2,-2.9284328E-2,1.8956096E-1,-1.8577555E-1,4.8080515E-3,-1.785484E-1,1.06443994E-1,-8.499098E-4,3.4448537E-1,-8.109331E-2,3.2829396E-2,-3.2213232E-1,2.5041658E-1,2.613381E-1,1.5295539E-2,2.2251971E-1,-8.7214485E-2,3.164758E-1,-2.639556E-1],"split_indices":[9,10,7,5,10,11,8,10,12,9,13,6,35,22,12,9,0,89,10,12,0,0,13,34,13,91,0,0,11,13,12,0,11,95,13,0,0,0,0,0,0,12,0,0,0,0,88,94,0,0,0,0,0,11,13,10,0,0,0,0,0,0,0,0,0,0,0,0,0,0,0,0,0,0,0,0,0,0,0,0,0,0,0],"split_type":[0,0,0,0,0,0,0,0,0,0,0,0,0,0,0,0,0,0,0,0,0,0,0,0,0,0,0,0,0,0,0,0,0,0,0,0,0,0,0,0,0,0,0,0,0,0,0,0,0,0,0,0,0,0,0,0,0,0,0,0,0,0,0,0,0,0,0,0,0,0,0,0,0,0,0,0,0,0,0,0,0,0,0],"sum_hessian":[4.4397293E2,1.7102054E2,2.729524E2,3.0672436E1,1.403481E2,4.914143E1,2.2381096E2,1.5972486E1,1.4699949E1,1.2723917E2,1.3108943E1,2.6910604E1,2.2230825E1,1.6160696E2,6.2203983E1,1.4569767E1,1.4027182E0,1.1761818E1,2.9381318E0,2.4147093E0,1.24824455E2,7.9607E0,5.1482425E0,1.9623102E1,7.287502E0,2.072722E1,1.5036042E0,1.576647E2,3.942269E0,3.0471806E1,3.1732176E1,1.0248829E0,1.3544884E1,9.4003725E0,2.3614457E0,1.9296255E0,1.0085063E0,1.0037836E0,1.4109257E0,1.2320695E2,1.6175065E0,2.394899E0,2.7533436E0,1.828769E1,1.3354124E0,3.361825E0,3.9256768E0,1.4690116E1,6.0371056E0,1.1224366E1,1.4644034E2,1.170335E0,2.7719343E0,6.658431E0,2.3813375E1,2.4137257E1,7.5949197E0,1.2539207E1,1.0056764E0,7.466439E0,1.9339333E0,1.003697E0,1.3577487E0,1.2732875E0,1.1216112E0,2.7303154E0,1.1953613E0,1.1261267E1,3.4288487E0,1.4322191E0,4.6048865E0,6.9155993E0,4.3087673E0,4.6254883E1,1.00185455E2,1.9796247E0,4.6788063E0,2.2338957E1,1.4744186E0,2.084657E0,2.20526E1,6.0181937E0,1.576726E0],"tree_param":{"num_deleted":"0","num_feature":"96","num_nodes":"83","size_leaf_vector":"0"}},{"base_weights":[-2.6292333E-1,-8.389912E-1,-4.208928E-2,-9.1343325E-1,-4.3380317E-1,-4.7697344E-1,6.79844E-2,8.356434E-2,-9.343442E-1,-8.409153E-2,-7.902988E-1,-7.095401E-1,-1.882379E-1,-1.0547469E-2,2.8335539E-1,-5.75935E-1,-9.6682096E-1,-5.27089E-1,7.6255083E-1,-6.4219465E-3,-8.8458174E-1,-8.760531E-1,-2.497926E-1,-6.605433E-1,3.9577326E-3,1.7424302E-1,-1.2405106E-1,7.396627E-1,9.691803E-2,-7.503234E-1,4.929211E-1,-9.7850204E-1,-3.4346092E-1,-8.369794E-1,3.2560566E-1,-6.3315914E-3,1.48342E0,-9.1161233E-1,-3.005986E-1,-6.686474E-1,1.489081E-1,8.170819E-2,-9.2259526E-1,1.847844E-1,-5.109881E-1,-1.2813786E-2,5.326333E-1,-1.6985703E-1,5.817958E-1,3.1029925E-1,8.817268E-1,2.733679E-1,-4.7815728E-1,-8.245792E-1,-2.8495488E-1,-5.107323E-1,-1.5355531E-3,-9.0899885E-2,-7.9020184E-1,3.677223E-1,-3.4759435E-1,-3.4942096E-1,5.1861227E-1,1.13189906E-1,-6.743499E-1,1.4045925E-1,-5.11436E-1,6.7281795E-1,-3.297784E-1,-1.2956001E-1,-7.8359735E-1,9.415034E-1,-3.6018273E-1,-9.2755246E-1,8.002756E-1,2.6903576E-1,9.39659E-1,3.327596E-1,-8.594697E-1,3.481781E-1,-6.0860103E-1],"categories":[],"categories_nodes":[],"categories_segments":[],"categories_sizes":[],"default_left":[true,true,true,false,false,true,true,false,false,false,true,true,true,false,false,false,true,true,true,false,false,true,false,false,true,true,true,false,true,true,false,false,true,false,false,false,false,false,false,false,true,false,false,true,false,true,false,true,true,false,false,true,false,false,false,false,false,false,false,false,false,false,false,false,false,false,false,false,false,false,false,false,false,false,false,false,false,false,false,false,false],"id":17,"left_children":[1,3,5,7,9,11,13,-1,15,17,19,21,23,25,27,29,31,33,35,-1,-1,37,39,41,43,45,47,49,51,53,-1,-1,55,-1,-1,-1,-1,-1,-1,57,59,-1,-1,61,63,65,67,69,71,73,75,77,79,-1,-1,-1,-1,-1,-1,-1,-1,-1,-1,-1,-1,-1,-1,-1,-1,-1,-1,-1,-1,-1,-1,-1,-1,-1,-1,-1,-1],"loss_changes":[5.0485916E1,2.9216385E0,1.3825146E1,1.9965515E0,2.29942E0,3.782874E0,3.9067802E0,0E0,4.9325562E-1,4.4146028E0,6.8004227E-1,2.226511E0,2.488101E0,3.589367E0,5.178064E0,2.2279916E0,2.555008E-1,2.284716E0,2.2728813E0,0E0,0E0,1.9765091E-1,1.7514989E0,1.6169343E0,1.9991429E0,4.373809E0,3.5247152E0,8.0902576E-1,4.692911E0,7.489729E-2,0E0,0E0,1.728164E-1,0E0,0E0,0E0,0E0,0E0,0E0,2.797439E-1,7.6725775E-1,0E0,0E0,3.011989E0,6.4548767E-1,3.4175584E0,2.9254937E0,2.378509E0,2.6036289E0,4.3544745E0,2.0128632E-1,2.6435452E0,1.3889616E0,0E0,0E0,0E0,0E0,0E0,0E0,0E0,0E0,0E0,0E0,0E0,0E0,0E0,0E0,0E0,0E0,0E0,0E0,0E0,0E0,0E0,0E0,0E0,0E0,0E0,0E0,0E0,0E0],"parents":[2147483647,0,0,1,1,2,2,3,3,4,4,5,5,6,6,8,8,9,9,10,10,11,11,12,12,13,13,14,14,15,15,16,16,17,17,18,18,21,21,22,22,23,23,24,24,25,25,26,26,27,27,28,28,29,29,32,32,39,39,40,40,43,43,44,44,45,45,46,46,47,47,48,48,49,49,50,50,51,51,52,52],"right_children":[2,4,6,8,10,12,14,-1,16,18,20,22,24,26,28,30,32,34,36,-1,-1,38,40,42,44,46,48,50,52,54,-1,-1,56,-1,-1,-1,-1,-1,-1,58,60,-1,-1,62,64,66,68,70,72,74,76,78,80,-1,-1,-1,-1,-1,-1,-1,-1,-1,-1,-1,-1,-1,-1,-1,-1,-1,-1,-1,-1,-1,-1,-1,-1,-1,-1,-1,-1],"split_conditions":[4.5105E1,5.161035E1,5E-1,8.7367E-4,9.4624996E-2,7.5E0,5E-1,2.5069304E-2,1.8744E-2,2.6039999E-2,1.4638647E7,5E-1,2.5493624E7,1.5E0,1.0113001E-2,1.68315E-2,5E-1,5E-1,5E-1,-1.926584E-3,-2.6537454E-1,5E-1,1.1599E-1,3.1972001E-3,5E-1,1.0596458E8,5E-1,5E-6,5E-1,5E-1,1.4787634E-1,-2.935506E-1,1.4817E-1,-2.5109383E-1,9.76817E-2,-1.8994774E-3,4.45026E-1,-2.7348372E-1,-9.017958E-2,5.3225E1,5E-1,2.4512459E-2,-2.7677858E-1,5E-1,7.3818E-4,5E-1,4.9525E-2,5E-1,5E-1,3.3E1,5.5735E1,5E-1,1.505E-3,-2.4737376E-1,-8.5486464E-2,-1.532197E-1,-4.6066596E-4,-2.7269967E-2,-2.3706056E-1,1.10316694E-1,-1.0427831E-1,-1.04826294E-1,1.5558368E-1,3.3956975E-2,-2.0230497E-1,4.213778E-2,-1.534308E-1,2.018454E-1,-9.8933525E-2,-3.8868003E-2,-2.3507921E-1,2.8245103E-1,-1.08054824E-1,-2.7826574E-1,2.400827E-1,8.071073E-2,2.8189772E-1,9.982788E-2,-2.5784093E-1,1.0445343E-1,-1.8258032E-1],"split_indices":[9,10,7,12,13,11,8,0,12,13,0,6,0,14,12,12,19,8,7,0,0,34,13,12,90,0,86,13,90,94,0,0,12,0,0,0,0,0,0,9,94,0,0,8,12,92,13,19,92,11,9,36,13,0,0,0,0,0,0,0,0,0,0,0,0,0,0,0,0,0,0,0,0,0,0,0,0,0,0,0,0],"split_type":[0,0,0,0,0,0,0,0,0,0,0,0,0,0,0,0,0,0,0,0,0,0,0,0,0,0,0,0,0,0,0,0,0,0,0,0,0,0,0,0,0,0,0,0,0,0,0,0,0,0,0,0,0,0,0,0,0,0,0,0,0,0,0,0,0,0,0,0,0,0,0,0,0,0,0,0,0,0,0,0,0],"sum_hessian":[3.961314E2,1.0899854E2,2.8713287E2,9.102152E1,1.7977016E1,5.7323463E1,2.298094E2,1.8083084E0,8.921322E1,9.698732E0,8.278285E0,3.0942736E1,2.6380728E1,1.6910043E2,6.0708965E1,8.968779E0,8.024444E1,6.614956E0,3.0837762E0,1.0034688E0,7.274816E0,2.205079E1,8.891944E0,6.925366E0,1.9455362E1,6.414062E1,1.04959816E2,1.6748787E1,4.3960182E1,7.9669504E0,1.0018288E0,7.820916E1,2.0352786E0,4.8652377E0,1.7497181E0,1.9718299E0,1.1119462E0,2.0217337E1,1.8334554E0,4.006184E0,4.88576E0,1.9866E0,4.938766E0,1.4873568E1,4.5817947E0,4.277766E1,2.1362957E1,9.927661E1,5.6832037E0,4.9555964E0,1.179319E1,3.404027E1,9.919909E0,6.204978E0,1.7619722E0,1.0351725E0,1.000106E0,1.0001743E0,3.0060096E0,3.5712464E0,1.3145137E0,5.7021065E0,9.171461E0,1.014123E0,3.5676718E0,3.3269234E1,9.508429E0,1.8565056E1,2.7979014E0,9.429639E1,4.9802227E0,4.113074E0,1.57013E0,1.1520529E0,3.8035436E0,1.5063205E0,1.0286869E1,3.301561E1,1.0246603E0,1.1248738E0,8.795035E0],"tree_param":{"num_deleted":"0","num_feature":"96","num_nodes":"81","size_leaf_vector":"0"}},{"base_weights":[-2.1756566E-1,-8.164433E-1,-4.187503E-2,-9.148916E-1,-3.7509388E-1,-4.1589898E-1,4.9738653E-2,-8.167206E-2,-9.2638344E-1,3.9815852E-1,-5.2614325E-1,-1.1530146E-1,-6.400205E-1,1.1255465E-1,-1.4712414E-1,-9.3980396E-1,-3.1715333E-1,7.761658E-1,-1.19304515E-1,-8.771256E-1,-9.395553E-2,1.0572638E-1,-6.8376964E-1,-7.558571E-1,2.7587608E-1,3.8264754E-1,3.6977436E-2,-2.132676E-1,7.4024445E-1,4.6237645E-1,-7.4646926E-1,-4.1504157E-1,3.270998E-1,-8.621876E-1,-1.5729569E-1,-8.1946933E-1,-8.624904E-2,-5.228271E-1,6.9390607E-1,3.34853E-2,6.361869E-1,1.21069305E-1,-1.7556524E-1,-7.806564E-3,-4.7884652E-1,9.833436E-1,1.3198284E-2,-1.757603E-1,1.2986002E0,1.719591E-1,-7.9646915E-1,-5.2247312E-2,1.1267691E0,1.19993165E-1,-3.5649294E-1,-9.265715E-1,-4.1371268E-1,-6.13515E-1,6.117194E-1,1.3202349E0,-1.7800173E-1,3.238572E-1,-8.5198504E-1,7.1607554E-1,-4.736174E-1,-2.5664943E-1,2.3466824E-1,1.5449871E-1,-6.213129E-1,3.668684E-1,-2.6484185E-1,3.4531813E-2,-7.185583E-1],"categories":[],"categories_nodes":[],"categories_segments":[],"categories_sizes":[],"default_left":[true,true,true,false,false,false,true,false,true,false,true,true,true,false,true,false,false,false,false,false,true,true,true,true,true,false,true,true,false,false,false,false,false,false,false,true,true,false,true,false,true,false,true,false,true,false,false,false,false,false,false,false,false,false,false,false,false,false,false,false,false,false,false,false,false,false,false,false,false,false,false,false,false],"id":18,"left_children":[1,3,5,7,9,11,13,-1,15,17,19,21,23,25,27,-1,-1,-1,-1,-1,29,31,33,35,37,39,41,43,45,47,-1,49,51,-1,53,55,57,-1,59,61,63,65,67,69,71,-1,-1,-1,-1,-1,-1,-1,-1,-1,-1,-1,-1,-1,-1,-1,-1,-1,-1,-1,-1,-1,-1,-1,-1,-1,-1,-1,-1],"loss_changes":[3.8084732E1,3.2250214E0,9.655053E0,5.606041E-1,2.1567888E0,3.6602745E0,2.8204615E0,0E0,2.3706055E-1,7.368837E-1,2.098652E0,3.200114E0,3.5539255E0,3.5062282E0,3.4025517E0,0E0,0E0,0E0,0E0,0E0,3.090892E0,2.3020072E0,5.3159904E-1,1.1330414E0,1.7894247E0,3.307232E0,2.4494853E0,2.8458805E0,7.043309E-1,2.7364275E0,0E0,1.4905976E0,4.228365E0,0E0,2.0964544E-1,7.3309135E-1,1.6888726E0,0E0,2.0013914E0,4.614114E0,2.2654629E0,4.26255E0,5.822465E0,3.030676E0,2.826026E0,0E0,0E0,0E0,0E0,0E0,0E0,0E0,0E0,0E0,0E0,0E0,0E0,0E0,0E0,0E0,0E0,0E0,0E0,0E0,0E0,0E0,0E0,0E0,0E0,0E0,0E0,0E0,0E0],"parents":[2147483647,0,0,1,1,2,2,3,3,4,4,5,5,6,6,8,8,9,9,10,10,11,11,12,12,13,13,14,14,20,20,21,21,22,22,23,23,24,24,25,25,26,26,27,27,28,28,29,29,31,31,32,32,34,34,35,35,36,36,38,38,39,39,40,40,41,41,42,42,43,43,44,44],"right_children":[2,4,6,8,10,12,14,-1,16,18,20,22,24,26,28,-1,-1,-1,-1,-1,30,32,34,36,38,40,42,44,46,48,-1,50,52,-1,54,56,58,-1,60,62,64,66,68,70,72,-1,-1,-1,-1,-1,-1,-1,-1,-1,-1,-1,-1,-1,-1,-1,-1,-1,-1,-1,-1,-1,-1,-1,-1,-1,-1,-1,-1],"split_conditions":[3.7845E1,5.161035E1,5E-1,6.0553E-4,5.4241E1,9.84105E-2,5E-1,-2.4501618E-2,5E-1,3.7398E-2,8.115E-3,1.5E0,5E-1,1.00995E-2,5E-1,-2.819412E-1,-9.514601E-2,2.3284975E-1,-3.5791356E-2,-2.631377E-1,3.3469997E-2,4.057284E7,5E-1,1.6096906E8,6.296764E7,5E-6,5E-1,5E-1,1.087E-2,2.5E0,-2.2394079E-1,3.1972001E-3,1.8709E-2,-2.586563E-1,5.7769997E1,5E-1,5E-1,-1.5684813E-1,1.0216513E8,1.1074E-4,5E-1,4.45E-4,5E-1,1.5E0,5.992265E1,2.950031E-1,3.9594853E-3,-5.272809E-2,3.8958007E-1,5.1587734E-2,-2.3894076E-1,-1.5674194E-2,3.3803073E-1,3.599795E-2,-1.06947884E-1,-2.7797145E-1,-1.24113806E-1,-1.8405451E-1,1.8351583E-1,3.9607048E-1,-5.340052E-2,9.715716E-2,-2.5559554E-1,2.1482266E-1,-1.4208522E-1,-7.699484E-2,7.040048E-2,4.6349615E-2,-1.8639389E-1,1.1006053E-1,-7.945256E-2,1.0359544E-2,-2.155675E-1],"split_indices":[9,10,7,12,10,12,89,0,19,12,13,14,34,12,34,0,0,0,0,0,12,0,88,0,0,13,90,95,13,14,0,12,12,0,9,91,6,0,0,12,33,13,92,14,10,0,0,0,0,0,0,0,0,0,0,0,0,0,0,0,0,0,0,0,0,0,0,0,0,0,0,0,0],"split_type":[0,0,0,0,0,0,0,0,0,0,0,0,0,0,0,0,0,0,0,0,0,0,0,0,0,0,0,0,0,0,0,0,0,0,0,0,0,0,0,0,0,0,0,0,0,0,0,0,0,0,0,0,0,0,0,0,0,0,0,0,0,0,0,0,0,0,0,0,0,0,0,0,0],"sum_hessian":[3.6128793E2,8.1121506E1,2.801664E2,6.544931E1,1.56721945E1,5.4425995E1,2.2574042E2,1.0006927E0,6.444862E1,2.2938027E0,1.3378392E1,2.3893663E1,3.0532333E1,1.7145874E2,5.4281677E1,6.252859E1,1.9200301E0,1.0366122E0,1.2571907E0,6.8146605E0,6.563731E0,1.7790499E1,6.1031632E0,2.725947E1,3.2728634E0,3.6599354E1,1.3485939E2,5.122322E1,3.0584576E0,3.7002754E0,2.8634558E0,5.045771E0,1.2744728E1,4.0821047E0,2.0210588E0,2.4690123E1,2.5693479E0,1.0383197E0,2.2345438E0,1.5872532E1,2.0726822E1,9.693695E1,3.7922436E1,2.9460758E1,2.1762463E1,2.0278845E0,1.0305734E0,2.5466783E0,1.1535972E0,2.2036374E0,2.8421338E0,9.278064E0,3.466664E0,1.0111384E0,1.0099204E0,1.8518482E1,6.1716385E0,1.532586E0,1.0367618E0,1.0011697E0,1.233374E0,1.2430469E1,3.4420636E0,1.966595E1,1.06087E0,2.2121908E1,7.481505E1,2.2163996E1,1.5758439E1,1.181336E1,1.7647398E1,7.1995344E0,1.4562929E1],"tree_param":{"num_deleted":"0","num_feature":"96","num_nodes":"73","size_leaf_vector":"0"}},{"base_weights":[-1.7790408E-1,-7.68637E-1,-3.5055973E-2,-8.8742805E-1,-3.1445268E-1,-2.9742122E-1,5.6881323E-2,-3.169001E-1,-9.1821253E-1,-2.6656792E-2,-6.938131E-1,-5.329618E-1,1.0010016E-2,9.156027E-2,-5.764616E-1,-6.6081196E-1,2.7239904E-1,-9.367223E-1,-2.7069378E-1,-4.2893717E-1,5.233866E-1,-6.1995415E-3,-8.193768E-1,-1.6472039E-1,-7.9168624E-1,-4.9642086E-1,2.0123835E-1,1.4391437E-1,-3.616917E-1,-9.715061E-1,-8.249117E-2,-9.562573E-1,-3.748689E-1,-7.724958E-1,2.5424895E-1,8.814861E-1,-1.7482287E-1,-2.9260752E-1,7.651639E-1,