{"learner":{"attributes":{"best_iteration":"99","best_ntree_limit":"100","scikit_learn":"{\"use_label_encoder\": false, \"n_estimators\": 100, \"objective\": \"binary:logistic\", \"max_depth\": null, \"learning_rate\": null, \"verbosity\": null, \"booster\": null, \"tree_method\": null, \"gamma\": null, \"min_child_weight\": null, \"max_delta_step\": null, \"subsample\": null, \"colsample_bytree\": null, \"colsample_bylevel\": null, \"colsample_bynode\": null, \"reg_alpha\": null, \"reg_lambda\": null, \"scale_pos_weight\": null, \"base_score\": null, \"missing\": NaN, \"num_parallel_tree\": null, \"random_state\": null, \"n_jobs\": null, \"monotone_constraints\": null, \"interaction_constraints\": null, \"importance_type\": null, \"gpu_id\": null, \"validate_parameters\": null, \"predictor\": null, \"enable_categorical\": false, \"classes_\": [false, true], \"n_classes_\": 2, \"_estimator_type\": \"classifier\"}"},"feature_names":["Mutect2","Freebayes","Vardict","Varscan","FILTER_Mutect2","FILTER_Freebayes","FILTER_Vardict","FILTER_Varscan","m2_MQ","f_MQMR","vs_SSC","vs_SPV","vd_SSF","vd_MSI"],"feature_types":["i","i","i","i","i","i","i","i","float","float","float","float","float","float"],"gradient_booster":{"model":{"gbtree_model_param":{"num_trees":"100","size_leaf_vector":"0"},"tree_info":[0,0,0,0,0,0,0,0,0,0,0,0,0,0,0,0,0,0,0,0,0,0,0,0,0,0,0,0,0,0,0,0,0,0,0,0,0,0,0,0,0,0,0,0,0,0,0,0,0,0,0,0,0,0,0,0,0,0,0,0,0,0,0,0,0,0,0,0,0,0,0,0,0,0,0,0,0,0,0,0,0,0,0,0,0,0,0,0,0,0,0,0,0,0,0,0,0,0,0,0],"trees":[{"base_weights":[-9.313354E-1,-1.90991E0,1.2187842E0,-1.9742723E0,-1.4004662E0,-1.4293835E0,1.8412919E0,-1.9876531E0,-1.9145805E0,-1.8897655E0,1.0620005E0,-1.5801859E0,-2.5879917E-1,2.2036728E-2,1.9203359E0,-1.9911253E0,-1.9369154E0,-1.9521931E0,-1.7579474E0,-1.9597651E0,-7.43614E-1,-8.206522E-1,1.5388333E0,-1.790814E0,-1.2787417E0,-9.420655E-1,8.348993E-1,-5.9717697E-1,1.0077788E0,1.9603561E0,1.4466344E0,-1.8185567E0,-1.9674841E0,-1.9805636E0,-1.908376E0,-1.831149E0,-4.1717792E-1,-1.9821826E0,-1.6034648E0,-5.3169735E-2,-1.3286713E0,-1.3710692E0,1.9011407E-1,1.7124382E0,-1.6176471E-1,-1.9217471E0,-1.7461375E0,-1.4625965E0,-1.4351852E-1,3.4554973E-1,-1.1832669E0,1.7663817E-1,1.4070352E0,8.4249085E-1,-1.2E0,5.117647E-1,1.7006238E0,1.9624457E0,4.680851E-1,-8.993289E-1,1.5123256E0,-1.9402391E0,-1.6808511E0,-1.9685473E0,-7.692308E-1,-1.8607209E0,-1.9922823E0,-1.9004712E0,-1.1777004E0,-1.0714285E0,9.811321E-1,-1.4018692E0,-1.9894698E0,-1.8242344E0,-1.0136986E0,-1.2621359E0,2.6666668E-1,-1.5802997E0,-2.0183486E-1,-7.8918916E-1,-1.7162162E0,-3.1724137E-1,7.8688526E-1,8.095238E-1,1.7711967E0,-6.229508E-1,7.5268817E-1,-1.1836735E0,-1.9524715E0,-1.6798997E0,-1.9164835E0,-1.6068664E0,-1.2769231E0,5.338078E-1,-1.385621E0,-1.4666667E0,8.8E-1,-1.0294118E0,-1.8125E0,-8.3687943E-1,8.411215E-1,1.6021506E0,-1.2E0,-1.2258065E0,9.5953757E-1,-1.7291006E0,2.0612814E-1,1.4929577E0,-1.1162791E0,1.0344827E0,1.8291457E0,1.7340751E0,1.9760472E0,6.666667E-1,-8.5714287E-1,-1.6363636E0,-6.666667E-1,1.2662722E0,1.6881579E0],"categories":[],"categories_nodes":[],"categories_segments":[],"categories_sizes":[],"default_left":[true,true,true,true,true,true,true,true,true,true,true,true,true,true,false,false,false,true,true,true,false,false,false,false,true,false,false,true,true,false,false,true,true,false,false,true,true,false,false,true,true,false,true,false,false,false,true,true,true,true,true,true,false,false,true,true,false,true,false,false,true,false,false,false,false,false,false,false,false,false,false,false,false,false,false,false,false,false,false,false,false,false,false,false,false,false,false,false,false,false,false,false,false,false,false,false,false,false,false,false,false,false,false,false,false,false,false,false,false,false,false,false,false,false,false,false,false,false,false],"id":0,"left_children":[1,3,5,7,9,11,13,15,17,19,21,23,25,27,29,-1,31,33,35,37,39,41,43,45,47,49,51,53,55,57,59,61,63,-1,65,67,69,71,73,75,77,79,81,83,85,87,89,91,93,95,97,99,101,103,105,107,109,111,113,115,117,-1,-1,-1,-1,-1,-1,-1,-1,-1,-1,-1,-1,-1,-1,-1,-1,-1,-1,-1,-1,-1,-1,-1,-1,-1,-1,-1,-1,-1,-1,-1,-1,-1,-1,-1,-1,-1,-1,-1,-1,-1,-1,-1,-1,-1,-1,-1,-1,-1,-1,-1,-1,-1,-1,-1,-1,-1,-1],"loss_changes":[1.4919278E5,1.5950156E3,3.6563586E4,3.075E1,6.5918145E3,7.448428E2,2.5822656E3,2.359375E0,4.3398438E1,3.646338E2,8.157106E2,2.3515625E2,3.6172632E2,4.5762756E2,3.2342188E2,0E0,4.7382812E0,4.1777344E0,1.5128955E2,3.1166016E1,1.06673004E2,1.02627754E2,2.14099E2,9.507324E0,3.2157837E2,9.288248E1,6.9895966E1,4.006628E2,9.853357E1,4.8554688E1,2.0855981E2,4.8654785E0,7.973633E-1,0E0,6.4609375E0,6.4293945E1,7.56111E1,1.4299805E1,3.1970825E1,4.7607147E1,4.022783E1,2.2595047E1,2.0157097E1,3.343579E1,2.914673E1,1.0149902E1,1.5403809E1,3.3487793E1,1.8246233E2,4.753843E1,2.2433685E1,5.9800518E1,5.2535507E1,3.4221146E1,2.4215094E2,2.7322885E2,8.4028015E0,4.5785156E1,6.755825E0,5.296726E0,5.4462646E1,0E0,0E0,0E0,0E0,0E0,0E0,0E0,0E0,0E0,0E0,0E0,0E0,0E0,0E0,0E0,0E0,0E0,0E0,0E0,0E0,0E0,0E0,0E0,0E0,0E0,0E0,0E0,0E0,0E0,0E0,0E0,0E0,0E0,0E0,0E0,0E0,0E0,0E0,0E0,0E0,0E0,0E0,0E0,0E0,0E0,0E0,0E0,0E0,0E0,0E0,0E0,0E0,0E0,0E0,0E0,0E0,0E0,0E0],"parents":[2147483647,0,0,1,1,2,2,3,3,4,4,5,5,6,6,7,7,8,8,9,9,10,10,11,11,12,12,13,13,14,14,16,16,17,17,18,18,19,19,20,20,21,21,22,22,23,23,24,24,25,25,26,26,27,27,28,28,29,29,30,30,31,31,32,32,34,34,35,35,36,36,37,37,38,38,39,39,40,40,41,41,42,42,43,43,44,44,45,45,46,46,47,47,48,48,49,49,50,50,51,51,52,52,53,53,54,54,55,55,56,56,57,57,58,58,59,59,60,60],"right_children":[2,4,6,8,10,12,14,16,18,20,22,24,26,28,30,-1,32,34,36,38,40,42,44,46,48,50,52,54,56,58,60,62,64,-1,66,68,70,72,74,76,78,80,82,84,86,88,90,92,94,96,98,100,102,104,106,108,110,112,114,116,118,-1,-1,-1,-1,-1,-1,-1,-1,-1,-1,-1,-1,-1,-1,-1,-1,-1,-1,-1,-1,-1,-1,-1,-1,-1,-1,-1,-1,-1,-1,-1,-1,-1,-1,-1,-1,-1,-1,-1,-1,-1,-1,-1,-1,-1,-1,-1,-1,-1,-1,-1,-1,-1,-1,-1,-1,-1,-1],"split_conditions":[5.9125E1,5E-1,5E-1,4.4335E-2,5E-1,5E-1,5E-1,5.821525E1,5E-1,5E-1,5E-1,5E-1,5E-1,5E-1,1.24855E-1,-5.973376E-1,1.20085E-1,9.56085E-2,5E-1,5E-1,5.6754E-2,5.4605003E1,1.3757E-1,5.9995003E1,5E-1,4.5284003E-2,2.2949001E-1,5E-1,5E-1,1.155E2,5E-6,5E-1,5.9004997E1,-5.9416914E-1,3.08635E-1,5E-1,5.981565E1,4.5679502E-2,5.1202E-2,3.7088654E1,5E-1,1.7629999E-1,5E-1,4.8614998E1,5.7614998E1,4.72675E-2,5E-1,9.793E-2,5E-1,5E-1,9.8083004E-2,5E-1,6.038075E1,2.2465E-2,5E-1,5E-1,1.983E-2,5E-1,1.945E2,5.981705E1,5E-1,-5.820717E-1,-5.0425535E-1,-5.9056425E-1,-2.3076925E-1,-5.582163E-1,-5.976847E-1,-5.701414E-1,-3.5331014E-1,-3.2142857E-1,2.9433963E-1,-4.2056078E-1,-5.96841E-1,-5.4727036E-1,-3.0410957E-1,-3.7864077E-1,8.0000006E-2,-4.7408995E-1,-6.055046E-2,-2.3675676E-1,-5.1486486E-1,-9.517241E-2,2.3606558E-1,2.4285716E-1,5.31359E-1,-1.8688524E-1,2.2580646E-1,-3.5510206E-1,-5.8574146E-1,-5.039699E-1,-5.749451E-1,-4.8205993E-1,-3.8307694E-1,1.6014235E-1,-4.156863E-1,-4.4000003E-1,2.64E-1,-3.0882356E-1,-5.4375005E-1,-2.5106385E-1,2.5233647E-1,4.8064518E-1,-3.6E-1,-3.6774194E-1,2.878613E-1,-5.187302E-1,6.1838444E-2,4.4788733E-1,-3.3488375E-1,3.1034482E-1,5.487437E-1,5.2022254E-1,5.9281415E-1,2.0000002E-1,-2.5714287E-1,-4.909091E-1,-2.0000002E-1,3.7988168E-1,5.064474E-1],"split_indices":[8,4,6,12,6,5,4,9,6,5,5,7,7,7,11,0,11,11,5,7,11,8,11,8,4,11,12,1,5,10,12,5,8,0,12,7,9,11,11,9,7,11,7,8,8,11,1,12,1,4,11,4,9,12,5,1,12,5,10,9,5,0,0,0,0,0,0,0,0,0,0,0,0,0,0,0,0,0,0,0,0,0,0,0,0,0,0,0,0,0,0,0,0,0,0,0,0,0,0,0,0,0,0,0,0,0,0,0,0,0,0,0,0,0,0,0,0,0,0],"split_type":[0,0,0,0,0,0,0,0,0,0,0,0,0,0,0,0,0,0,0,0,0,0,0,0,0,0,0,0,0,0,0,0,0,0,0,0,0,0,0,0,0,0,0,0,0,0,0,0,0,0,0,0,0,0,0,0,0,0,0,0,0,0,0,0,0,0,0,0,0,0,0,0,0,0,0,0,0,0,0,0,0,0,0,0,0,0,0,0,0,0,0,0,0,0,0,0,0,0,0,0,0,0,0,0,0,0,0,0,0,0,0,0,0,0,0,0,0,0,0],"sum_hessian":[7.090525E4,4.8728E4,2.217725E4,4.325975E4,5.46825E3,4.22075E3,1.79565E4,3.531175E4,7.948E3,4.562E3,9.0625E2,3.73875E3,4.82E2,7.4775E2,1.720875E4,3.301425E4,2.2975E3,6.39975E3,1.54825E3,4.29875E3,2.6325E2,1.83E2,7.2325E2,2.198E3,1.54075E3,2.9675E2,1.8525E2,4.595E2,2.8825E2,1.586525E4,1.3435E3,4.84E2,1.8135E3,3.85775E3,2.542E3,1.46775E3,8.05E1,4.04E3,2.5875E2,1.2125E2,1.42E2,1.1825E2,6.475E1,6.5625E2,6.7E1,5.485E2,1.6495E3,1.32575E3,2.15E2,4.675E1,2.5E2,8.675E1,9.85E1,1.355E2,3.24E2,1.69E2,1.1925E2,1.584275E4,2.25E1,3.625E1,1.30725E3,2.5E2,2.34E2,1.81125E3,2.25E0,1.636E3,9.06E2,1.32525E3,1.425E2,5.5E1,2.55E1,5.25E1,3.9875E3,1.8675E2,7.2E1,2.475E1,9.65E1,1.1575E2,2.625E1,4.525E1,7.3E1,3.525E1,2.95E1,4.1E1,6.1525E2,4.475E1,2.225E1,2.35E1,5.25E2,1.1955E3,4.54E2,7.4175E2,5.84E2,1.395E2,7.55E1,1.025E1,3.65E1,2.03E2,4.7E1,3.425E1,5.25E1,9.2E1,6.5E0,6.75E0,1.2875E2,2.3525E2,8.875E1,1.055E2,6.35E1,2.075E1,9.85E1,8.9775E2,1.4945E4,2E1,2.5E0,7.25E0,2.9E1,5.4825E2,7.59E2],"tree_param":{"num_deleted":"0","num_feature":"14","num_nodes":"119","size_leaf_vector":"0"}},{"base_weights":[-7.168738E-1,-1.4715228E0,9.384168E-1,-1.5253175E0,-1.0557463E0,-1.0661837E0,1.415027E0,-1.5392584E0,-1.4769002E0,-1.4522264E0,8.1525975E-1,-1.1833271E0,-1.7069651E-1,2.1506503E-2,1.4777352E0,-1.508406E0,-1.3666669E0,-1.5120852E0,-5.3106844E-1,-5.756739E-1,1.1689571E0,-7.801111E-1,-1.2900305E0,-6.696202E-1,6.1362725E-1,-4.3399003E-1,7.509717E-1,1.5118468E0,1.0639434E0,-1.5311357E0,-1.4673532E0,-1.4281944E0,-5.0156707E-1,-5.102762E-1,-1.5192872E0,-2.3084559E-2,-9.7508067E-1,-9.923386E-1,2.4215998E-1,1.3040922E0,-8.7167576E-2,-3.4365362E-1,-1.3924922E0,-1.0154283E0,-1.364211E0,5.053059E-1,-8.199344E-1,1.9430336E-2,9.719618E-1,6.171938E-1,-8.8746756E-1,3.775488E-1,1.288157E0,1.3115798E0,1.5246652E0,-5.3480524E-1,1.1228651E0,-3.6333948E-1,-1.5313561E0,-1.4157556E0,-1.525042E0,-1.4759663E0,-9.7486424E-1,-1.180139E0,4.498367E-1,4.1762742E-1,-1.4777751E0,-1.536317E0,-1.2460248E0,-5.008191E-1,4.5748147E-1,-1.173781E0,-1.264481E-1,-1.3659928E0,-6.0856545E-1,-2.4005786E-1,6.6825336E-1,1.3741115E0,7.406965E-1,-5.326476E-1,4.3110913E-1,-1.2271992E0,-2.3205139E-2,-1.4193505E0,-4.8127452E-1,-1.1201372E0,-4.9147186E-1,-1.4920278E0,-1.3305023E0,-1.0192972E0,9.247472E-1,-6.963366E-1,-1.3834406E0,-1.1942302E0,4.093703E-1,-8.874875E-1,1.0667949E0,-4.7439766E-1,7.45949E-1,-1.3052003E0,1.5250297E-1,1.109894E0,-8.1162447E-1,1.3329436E0,-2.1978801E-1,2.5134048E-1,1.4606361E0,4.429598E-1,1.5270088E0,-1.0542532E0,-3.7394118E-1,8.950333E-1,1.2807814E0],"categories":[],"categories_nodes":[],"categories_segments":[],"categories_sizes":[],"default_left":[true,true,true,true,true,true,true,false,true,true,true,false,true,true,false,true,true,false,false,false,false,true,false,false,true,true,true,true,false,false,false,true,true,true,true,false,true,false,true,false,false,false,false,false,false,true,true,false,false,false,true,true,false,false,false,true,true,false,false,false,false,false,false,false,false,false,false,false,false,false,false,false,false,false,false,false,false,false,false,false,false,false,false,false,false,false,false,false,false,false,false,false,false,false,false,false,false,false,false,false,false,false,false,false,false,false,false,false,false,false,false,false,false],"id":1,"left_children":[1,3,5,7,9,11,13,-1,15,17,19,21,23,25,27,29,31,33,35,37,39,41,43,45,47,49,51,53,55,57,59,61,63,65,67,69,71,73,75,77,79,81,83,85,87,89,91,93,95,97,99,101,103,105,107,109,111,-1,-1,-1,-1,-1,-1,-1,-1,-1,-1,-1,-1,-1,-1,-1,-1,-1,-1,-1,-1,-1,-1,-1,-1,-1,-1,-1,-1,-1,-1,-1,-1,-1,-1,-1,-1,-1,-1,-1,-1,-1,-1,-1,-1,-1,-1,-1,-1,-1,-1,-1,-1,-1,-1,-1,-1],"loss_changes":[8.154411E4,1.0012422E3,1.9531814E4,2.4523438E1,3.8140176E3,4.1176025E2,1.4431797E3,0E0,2.8847656E1,2.3307031E2,4.4313452E2,1.4840527E2,1.7864568E2,2.3697041E2,2.2147266E2,4.203125E0,1.0514526E2,2.7956055E1,5.8698532E1,6.2600918E1,1.2188373E2,1.9442426E2,5.4520508E1,4.9664032E1,3.7797813E1,2.0984756E2,5.4504868E1,3.5476562E1,1.14302E2,5.8203125E-1,5.2441406E0,3.8760742E1,8.678254E1,2.748567E1,1.6482422E1,2.8341421E1,2.3272629E1,1.6581947E1,1.3016788E1,2.4534912E1,1.653359E1,1.2089392E2,6.7354736E0,3.168805E1,7.3120117E0,2.1565018E1,1.6282654E1,3.25923E1,2.0480263E1,1.9035194E1,1.336354E2,1.429714E2,7.8572083E0,1.3954834E2,3.408789E1,3.2473679E0,4.0747803E1,0E0,0E0,0E0,0E0,0E0,0E0,0E0,0E0,0E0,0E0,0E0,0E0,0E0,0E0,0E0,0E0,0E0,0E0,0E0,0E0,0E0,0E0,0E0,0E0,0E0,0E0,0E0,0E0,0E0,0E0,0E0,0E0,0E0,0E0,0E0,0E0,0E0,0E0,0E0,0E0,0E0,0E0,0E0,0E0,0E0,0E0,0E0,0E0,0E0,0E0,0E0,0E0,0E0,0E0,0E0,0E0],"parents":[2147483647,0,0,1,1,2,2,3,3,4,4,5,5,6,6,8,8,9,9,10,10,11,11,12,12,13,13,14,14,15,15,16,16,17,17,18,18,19,19,20,20,21,21,22,22,23,23,24,24,25,25,26,26,27,27,28,28,29,29,30,30,31,31,32,32,33,33,34,34,35,35,36,36,37,37,38,38,39,39,40,40,41,41,42,42,43,43,44,44,45,45,46,46,47,47,48,48,49,49,50,50,51,51,52,52,53,53,54,54,55,55,56,56],"right_children":[2,4,6,8,10,12,14,-1,16,18,20,22,24,26,28,30,32,34,36,38,40,42,44,46,48,50,52,54,56,58,60,62,64,66,68,70,72,74,76,78,80,82,84,86,88,90,92,94,96,98,100,102,104,106,108,110,112,-1,-1,-1,-1,-1,-1,-1,-1,-1,-1,-1,-1,-1,-1,-1,-1,-1,-1,-1,-1,-1,-1,-1,-1,-1,-1,-1,-1,-1,-1,-1,-1,-1,-1,-1,-1,-1,-1,-1,-1,-1,-1,-1,-1,-1,-1,-1,-1,-1,-1,-1,-1,-1,-1,-1,-1],"split_conditions":[5.9225E1,5E-1,5E-1,1.7535001E-2,5E-1,5E-1,5E-1,-4.6177754E-1,5E-1,5E-1,5E-1,1.19265005E-1,5E-1,5E-1,1.4978E-1,9.37615E-2,5E-1,1.3104E-3,5.6754E-2,5.5445E1,1.37855E-1,5E-1,2.6668E-1,1.1459E-2,5E-1,5E-1,5E-1,5E-1,1.5E-5,1.7565E-2,2.4361E-1,5E-1,5.834715E1,5E-1,5E-1,5.4385002E1,5E-1,4.9245003E1,7.14285E-3,2.6557501E-2,5.6504997E1,1.11080006E-1,1.02195E-1,2.35255E-1,5.9995003E1,5E-1,9.8083004E-2,9.3779996E-2,4.975E-3,3.9245002E-2,5E-1,5E-1,6.0084747E1,6.02778E1,1.76415E-11,5.974075E1,5E-1,-1.0900185E-1,-4.5940685E-1,-4.247267E-1,-4.5751265E-1,-4.427899E-1,-2.9245928E-1,-3.540417E-1,1.3495101E-1,1.2528823E-1,-4.4333255E-1,-4.6089512E-1,-3.7380746E-1,-1.5024573E-1,1.3724445E-1,-3.5213432E-1,-3.793443E-2,-4.0979785E-1,-1.8256964E-1,-7.201736E-2,2.0047602E-1,4.1223347E-1,2.2220896E-1,-1.5979429E-1,1.2933275E-1,-3.6815977E-1,-6.9615417E-3,-4.2580518E-1,-1.4438236E-1,-3.3604118E-1,-1.4744157E-1,-4.4760835E-1,-3.991507E-1,-3.0578917E-1,2.774242E-1,-2.08901E-1,-4.150322E-1,-3.5826907E-1,1.22811094E-1,-2.6624626E-1,3.2003847E-1,-1.423193E-1,2.237847E-1,-3.915601E-1,4.5750894E-2,3.3296824E-1,-2.4348734E-1,3.998831E-1,-6.593641E-2,7.540215E-2,4.3819085E-1,1.3288794E-1,4.5810264E-1,-3.1627598E-1,-1.1218236E-1,2.6851E-1,3.8423443E-1],"split_indices":[8,4,6,12,6,5,4,0,6,5,5,11,7,7,11,11,5,11,11,8,11,1,12,11,4,1,5,5,12,12,12,7,9,1,7,8,7,8,11,11,8,12,11,12,8,4,11,12,12,12,5,1,9,9,11,9,5,0,0,0,0,0,0,0,0,0,0,0,0,0,0,0,0,0,0,0,0,0,0,0,0,0,0,0,0,0,0,0,0,0,0,0,0,0,0,0,0,0,0,0,0,0,0,0,0,0,0,0,0,0,0,0,0],"split_type":[0,0,0,0,0,0,0,0,0,0,0,0,0,0,0,0,0,0,0,0,0,0,0,0,0,0,0,0,0,0,0,0,0,0,0,0,0,0,0,0,0,0,0,0,0,0,0,0,0,0,0,0,0,0,0,0,0,0,0,0,0,0,0,0,0,0,0,0,0,0,0,0,0,0,0,0,0,0,0,0,0,0,0,0,0,0,0,0,0,0,0,0,0,0,0,0,0,0,0,0,0,0,0,0,0,0,0,0,0,0,0,0,0],"sum_hessian":[6.5276875E4,4.483614E4,2.0440736E4,3.9697277E4,5.1388594E3,3.9261785E3,1.6514559E4,3.0798666E4,8.898612E3,4.2404917E3,8.983679E2,3.471705E3,4.5447333E2,7.1120795E2,1.5803351E4,6.91076E3,1.987853E3,3.9811467E3,2.5934485E2,1.8200317E2,7.1636475E2,7.282128E2,2.7434922E3,2.778645E2,1.7660881E2,4.3807062E2,2.7313733E2,1.4597343E4,1.2060076E3,4.4246665E3,2.4860933E3,1.8552529E3,1.326001E2,2.8928867E1,3.9522178E3,1.21449425E2,1.3789542E2,1.2043258E2,6.1570587E1,6.467487E2,6.961602E1,4.2609018E2,3.0212268E2,5.8662067E2,2.1568716E3,3.1248663E1,2.4661583E2,6.683539E1,1.0977343E2,1.319177E2,3.061529E2,1.6213351E2,1.11003815E2,8.8434283E2,1.3713E4,4.2580357E1,1.1634272E3,1.1462587E0,4.42352E3,1.3258109E3,1.1602823E3,1.6763439E3,1.7890897E2,7.7257286E1,5.5342815E1,1.5056705E1,1.3872161E1,3.716012E3,2.3620581E2,6.0883E1,6.0566425E1,1.1142339E2,2.6472017E1,5.9723976E1,6.07086E1,2.908789E1,3.24827E1,5.739755E2,7.277316E1,3.7422295E1,3.2193726E1,1.1265271E2,3.1343747E2,2.9293082E2,9.191851E0,4.8796628E2,9.865437E1,4.4108853E2,1.7157831E3,6.4335594E0,2.4815104E1,2.0408757E2,4.252826E1,1.5750493E1,5.1084892E1,4.921245E0,1.0485219E2,1.3635012E1,1.18282684E2,2.1823698E2,8.7915924E1,1.00381096E2,6.1752422E1,1.07914764E2,3.0890546E0,1.0933412E2,7.7500867E2,3.0055323E1,1.3682944E4,8.755185E0,3.382517E1,4.7900967E2,6.8441754E2],"tree_param":{"num_deleted":"0","num_feature":"14","num_nodes":"113","size_leaf_vector":"0"}},{"base_weights":[-6.1351377E-1,-1.2725469E0,7.827643E-1,-1.317799E0,-9.203991E-1,-8.597483E-1,1.2045447E0,-1.3316636E0,-1.2565576E0,-1.2630172E0,5.273874E-1,-3.784755E-1,-1.0184247E0,1.02676E-2,1.2632227E0,-1.3355805E0,-1.275976E0,-1.2927678E0,-1.1106658E0,-1.3028173E0,-4.6852413E-1,-4.2086563E-1,9.228705E-1,-6.054465E-1,3.58304E-1,-7.3527706E-1,-1.1098033E0,-9.1817564E-1,2.791393E-1,1.3025341E0,8.468688E-1,-1.1474954E0,-1.3105135E0,-1.3234416E0,-1.2465929E0,-1.2125657E0,-4.1181675E-1,-1.325654E0,-9.739601E-1,-9.72569E-1,-4.53709E-2,-7.775313E-2,-9.171457E-1,1.121797E0,1.917574E-1,-2.5695693E-1,-1.1503018E0,-2.1535331E-1,8.6288583E-1,-8.794685E-1,5.063552E-1,-1.1312338E0,-5.590706E-1,-1.1363328E0,1.04909286E-1,-2.1941774E-2,1.2272948E0,1.0825437E0,1.316431E0,-2.5915724E-1,9.047626E-1,-1.28033E0,-1.006931E0,-1.3209636E0,-1.1421139E0,2.08711E-1,-1.3241125E0,-1.195733E0,-1.3389868E0,-1.2374334E0,-6.097154E-1,-6.2040716E-1,4.5728981E-1,-7.610673E-1,-1.3335856E0,-1.2084808E0,-4.0164044E-1,-1.0496249E0,1.1750758E0,-5.083722E-1,4.4394782E-1,-1.1490244E0,9.050845E-2,-1.0112871E0,-1.1317908E-1,5.1787996E-1,1.1625282E0,-9.1955954E-1,3.839285E-1,1.9460865E0,-3.678744E-1,-1.3467026E0,-1.0094107E0,-1.0899329E0,1.7117527E-1,1.0570196E0,-1.0098903E0,-6.97054E-1,-9.661268E-1,8.887891E-1,-1.2389888E0,-1.2799823E0,-1.0889637E0,-9.5905685E-1,4.2197692E-1,-4.0571558E-1,-1.2907708E0,-1.0038275E0,4.9054295E-1,6.934102E-1,-8.71942E-1,-9.4047236E-1,1.2553467E0,1.2563088E0,2.5147235E-1,4.5825613E-1,1.3195236E0,-5.643963E-1,2.2020449E-1,7.0649815E-1,1.0642622E0],"categories":[],"categories_nodes":[],"categories_segments":[],"categories_sizes":[],"default_left":[true,true,true,true,true,false,true,true,true,true,true,true,false,false,false,false,false,true,true,true,false,false,false,true,false,false,true,true,true,true,false,true,true,false,false,true,true,false,false,true,true,false,false,false,false,false,false,true,false,false,true,false,true,false,true,true,true,true,false,false,true,false,false,false,false,false,false,false,false,false,false,false,false,false,false,false,false,false,false,false,false,false,false,false,false,false,false,false,false,false,false,false,false,false,false,false,false,false,false,false,false,false,false,false,false,false,false,false,false,false,false,false,false,false,false,false,false,false,false,false,false],"id":2,"left_children":[1,3,5,7,9,11,13,15,17,19,21,23,25,27,29,-1,31,33,35,37,39,41,43,45,47,49,51,53,55,57,59,61,63,65,67,69,71,73,75,77,79,81,83,85,87,89,91,93,95,97,99,101,103,105,107,109,111,113,115,117,119,-1,-1,-1,-1,-1,-1,-1,-1,-1,-1,-1,-1,-1,-1,-1,-1,-1,-1,-1,-1,-1,-1,-1,-1,-1,-1,-1,-1,-1,-1,-1,-1,-1,-1,-1,-1,-1,-1,-1,-1,-1,-1,-1,-1,-1,-1,-1,-1,-1,-1,-1,-1,-1,-1,-1,-1,-1,-1,-1,-1],"loss_changes":[5.0757016E4,5.9591797E2,1.2254199E4,2.6519531E1,2.1188835E3,2.756355E2,9.862324E2,4.1992188E0,3.103711E1,1.08589355E2,3.071082E2,1.5035255E2,6.949878E1,1.6503761E2,2.1845703E2,0E0,6.4855957E0,5.317383E0,8.704968E1,2.3402344E1,3.542717E1,4.1034603E1,8.377194E1,1.300976E2,6.1569695E1,1.1968503E2,2.3593262E1,3.3255806E1,1.4636847E2,3.604297E1,7.452179E1,5.982971E0,9.758301E-1,3.2978516E0,7.7055664E0,1.5322998E1,2.892039E1,1.2741211E1,2.8677551E1,1.3785721E1,2.0945736E1,2.6027826E1,7.347E0,1.055957E1,2.698929E1,1.0337613E2,6.0454407E0,3.4005177E1,4.2159958E1,8.765167E0,4.777964E1,1.1022705E1,3.1348833E1,1.3293701E1,1.2040733E1,2.3778215E2,8.694778E0,1.0565387E2,2.9972656E1,8.6816635E0,3.4118103E1,0E0,0E0,0E0,0E0,0E0,0E0,0E0,0E0,0E0,0E0,0E0,0E0,0E0,0E0,0E0,0E0,0E0,0E0,0E0,0E0,0E0,0E0,0E0,0E0,0E0,0E0,0E0,0E0,0E0,0E0,0E0,0E0,0E0,0E0,0E0,0E0,0E0,0E0,0E0,0E0,0E0,0E0,0E0,0E0,0E0,0E0,0E0,0E0,0E0,0E0,0E0,0E0,0E0,0E0,0E0,0E0,0E0,0E0,0E0,0E0],"parents":[2147483647,0,0,1,1,2,2,3,3,4,4,5,5,6,6,7,7,8,8,9,9,10,10,11,11,12,12,13,13,14,14,16,16,17,17,18,18,19,19,20,20,21,21,22,22,23,23,24,24,25,25,26,26,27,27,28,28,29,29,30,30,31,31,32,32,33,33,34,34,35,35,36,36,37,37,38,38,39,39,40,40,41,41,42,42,43,43,44,44,45,45,46,46,47,47,48,48,49,49,50,50,51,51,52,52,53,53,54,54,55,55,56,56,57,57,58,58,59,59,60,60],"right_children":[2,4,6,8,10,12,14,16,18,20,22,24,26,28,30,-1,32,34,36,38,40,42,44,46,48,50,52,54,56,58,60,62,64,66,68,70,72,74,76,78,80,82,84,86,88,90,92,94,96,98,100,102,104,106,108,110,112,114,116,118,120,-1,-1,-1,-1,-1,-1,-1,-1,-1,-1,-1,-1,-1,-1,-1,-1,-1,-1,-1,-1,-1,-1,-1,-1,-1,-1,-1,-1,-1,-1,-1,-1,-1,-1,-1,-1,-1,-1,-1,-1,-1,-1,-1,-1,-1,-1,-1,-1,-1,-1,-1,-1,-1,-1,-1,-1,-1,-1,-1,-1],"split_conditions":[5.9035E1,5E-1,5E-1,4.5105E-2,5E-1,1.18495E-1,5E-1,5.809475E1,5E-1,5E-1,5E-1,5E-1,2.4362999E-1,2.118E-2,1.24855E-1,-4.0067416E-1,1.20085E-1,9.56085E-2,5E-1,5E-1,5.1620003E1,5.7195E-2,2.6557501E-2,5E-1,1.09435E-1,2.35255E-1,5E-1,5E-1,5E-1,5E-1,6.5E-5,5E-1,1.6095E-2,4.5125E-2,3.08635E-1,5E-1,5E-1,4.5679502E-2,5.1202E-2,3.15E1,7.14285E-3,9.15E-3,5.8315002E1,4.834E1,4.9045E1,1.0482E-3,2.73875E-6,5E-1,6.01473E1,1.24815E-1,2.4608499E-1,5.9995003E1,5E-1,2.16885E-4,5E-1,5E-1,5.83684E1,5E-1,3.184E-10,5E-6,5E-1,-3.84099E-1,-3.020793E-1,-3.962891E-1,-3.426342E-1,6.26133E-2,-3.9723378E-1,-3.587199E-1,-4.0169606E-1,-3.7123004E-1,-1.8291463E-1,-1.8612215E-1,1.3718694E-1,-2.283202E-1,-4.000757E-1,-3.6254427E-1,-1.2049214E-1,-3.148875E-1,3.5252273E-1,-1.5251166E-1,1.3318436E-1,-3.447073E-1,2.7152536E-2,-3.0338615E-1,-3.3953726E-2,1.5536399E-1,3.4875846E-1,-2.7586788E-1,1.15178555E-1,5.83826E-1,-1.1036233E-1,-4.040108E-1,-3.0282325E-1,-3.2697988E-1,5.1352583E-2,3.171059E-1,-3.029671E-1,-2.0911622E-1,-2.8983805E-1,2.6663676E-1,-3.7169665E-1,-3.8399473E-1,-3.2668912E-1,-2.8771707E-1,1.2659308E-1,-1.2171468E-1,-3.8723126E-1,-3.0114824E-1,1.4716288E-1,2.0802307E-1,-2.615826E-1,-2.8214172E-1,3.7660402E-1,3.7689266E-1,7.544171E-2,1.3747685E-1,3.958571E-1,-1.693189E-1,6.606135E-2,2.1194945E-1,3.1927866E-1],"split_indices":[8,4,6,12,5,11,4,9,6,6,6,5,12,12,11,0,11,11,7,7,8,12,11,1,12,12,5,7,5,5,12,5,12,12,12,5,5,11,11,10,11,12,8,8,8,11,11,4,9,12,11,8,4,11,5,1,9,1,11,12,5,0,0,0,0,0,0,0,0,0,0,0,0,0,0,0,0,0,0,0,0,0,0,0,0,0,0,0,0,0,0,0,0,0,0,0,0,0,0,0,0,0,0,0,0,0,0,0,0,0,0,0,0,0,0,0,0,0,0,0,0],"split_type":[0,0,0,0,0,0,0,0,0,0,0,0,0,0,0,0,0,0,0,0,0,0,0,0,0,0,0,0,0,0,0,0,0,0,0,0,0,0,0,0,0,0,0,0,0,0,0,0,0,0,0,0,0,0,0,0,0,0,0,0,0,0,0,0,0,0,0,0,0,0,0,0,0,0,0,0,0,0,0,0,0,0,0,0,0,0,0,0,0,0,0,0,0,0,0,0,0,0,0,0,0,0,0,0,0,0,0,0,0,0,0,0,0,0,0,0,0,0,0,0,0],"sum_hessian":[5.5156992E4,3.7471027E4,1.7685963E4,3.3201754E4,4.269275E3,3.6134177E3,1.4072546E4,2.705576E4,6.1459927E3,3.4523948E3,8.1688007E2,8.967922E2,2.7166255E3,6.590966E2,1.3413449E4,2.5256371E4,1.79939E3,4.917589E3,1.2284038E3,3.287088E3,1.6530692E2,2.4040204E2,5.76478E2,6.857267E2,2.1106552E2,6.650214E2,2.0516042E3,1.474659E2,5.116307E2,1.2254291E4,1.1591582E3,3.884748E2,1.4109153E3,2.9381345E3,1.9794543E3,1.0714408E3,1.56963E2,3.070812E3,2.162758E2,7.484997E1,9.0456955E1,1.428185E2,9.758356E1,4.527549E2,1.2372313E2,4.191255E2,2.6660117E2,9.904024E1,1.1202529E2,5.96089E2,6.893248E1,1.9737466E3,7.785753E1,1.2145648E2,2.6009413E1,3.8906296E2,1.2256775E2,7.3280597E2,1.1521485E4,5.7484043E1,1.1016742E3,1.9556024E2,1.9291454E2,1.3220317E3,8.888348E1,1.1501795E0,2.9369844E3,1.285673E3,6.937813E2,1.0279834E3,4.345736E1,1.2681326E2,3.0149736E1,4.3885815E1,3.0269263E3,1.5262341E2,6.365239E1,7.275098E1,2.0989869E0,4.6458363E1,4.3998592E1,1.8595797E1,1.24222694E2,8.712382E1,1.045974E1,2.9473227E1,4.2328168E2,1.7682266E1,1.0604086E2,1.9297293E1,3.998282E2,1.077877E2,1.5881348E2,2.9797981E1,6.9242256E1,1.0189803E2,1.0127257E1,1.9489056E2,4.011984E2,5.694553E1,1.1986948E1,4.302861E2,1.5434604E3,5.532372E1,2.253381E1,2.1826502E1,9.962998E1,6.298245E0,1.9711166E1,2.1136469E2,1.7769826E2,1.1502941E0,1.2141745E2,6.056596E2,1.2714641E2,4.190464E1,1.147958E4,3.501222E1,2.2471823E1,4.935726E2,6.0810156E2],"tree_param":{"num_deleted":"0","num_feature":"14","num_nodes":"121","size_leaf_vector":"0"}},{"base_weights":[-5.4947215E-1,-1.1518908E0,6.8586147E-1,-1.1974709E0,-8.16663E-1,-7.0582503E-1,1.0721644E0,-1.2135897E0,-1.1401136E0,-1.0943769E0,3.403343E-1,-2.9465792E-1,-8.509995E-1,6.878739E-3,1.1303009E0,-1.043442E0,-1.2159495E0,-1.179616E0,-1.0112921E0,-7.7738297E-1,-1.1675144E0,-8.240839E-1,6.4950895E-1,-4.0213126E-1,8.338325E-1,-5.7917285E-1,-9.448725E-1,-5.484777E-1,3.24053E-1,1.1762471E0,6.684E-1,-1.1674968E0,3.778876E-1,-1.2198697E0,-1.1839577E0,-2.4427201E-1,-1.1806241E0,-3.8800785E-1,-1.0906773E0,-1.1015446E0,-4.4301465E-1,-2.7871147E-1,-1.173903E0,-9.2807907E-1,-1.3543841E-1,8.7607527E-1,-3.206957E-1,-5.9288436E-1,2.1270384E-1,-1.2469777E0,1.058758E0,-6.9832754E-1,3.3279613E-1,-9.680581E-1,-4.205303E-1,-7.8774226E-1,1.2381804E-1,9.29177E-2,1.0966469E0,9.253723E-1,1.1938912E0,-1.7470187E-1,7.1873116E-1,-1.2288002E0,-7.390304E-1,-1.0588412E0,6.333989E-1,-1.1938686E0,-5.028438E-1,-9.0405726E-1,4.956729E-1,-1.2057861E0,-1.1323334E0,-6.6509724E-1,9.738027E-1,-1.115716E0,-6.5717536E-1,-1.1108601E0,-2.3692888E-1,-1.0541005E0,-9.697766E-2,5.676954E-1,-1.1330211E0,-1.0725715E0,-1.212808E0,-9.814666E-1,4.3613392E-1,1.0519005E0,-5.6003255E-1,9.64837E-1,3.7043482E-1,1.2606089E-1,-7.3218435E-1,-3.3677444E-1,-1.0044672E0,-1.9801465E-1,6.046847E-1,8.33447E-2,1.1706988E0,-8.393887E-1,-5.7936543E-1,-1.0639206E0,6.2758034E-1,-1.1475142E0,-9.183509E-1,-7.5272906E-1,3.1850874E-1,-5.1119703E-1,-9.6849597E-1,-3.9750907E-1,5.151743E-1,5.9634286E-1,-6.579086E-1,-4.8618737E-1,1.1463518E0,-4.883151E-2,1.0614642E0,4.018084E-1,1.1978612E0,-9.263131E-1,2.4033032E-2,5.0877243E-1,8.9200723E-1],"categories":[],"categories_nodes":[],"categories_segments":[],"categories_sizes":[],"default_left":[true,true,true,true,true,false,true,false,true,false,true,false,false,false,false,true,true,false,false,true,false,true,false,true,true,false,true,true,true,true,false,true,false,false,true,true,true,true,true,false,true,true,false,true,false,false,false,true,false,false,false,true,false,false,true,false,true,true,false,true,false,false,true,false,false,false,false,false,false,false,false,false,false,false,false,false,false,false,false,false,false,false,false,false,false,false,false,false,false,false,false,false,false,false,false,false,false,false,false,false,false,false,false,false,false,false,false,false,false,false,false,false,false,false,false,false,false,false,false,false,false,false,false],"id":3,"left_children":[1,3,5,7,9,11,13,15,17,19,21,23,25,27,29,31,33,35,37,39,41,43,45,47,49,51,53,55,57,59,61,63,65,-1,67,69,71,73,75,77,79,81,83,85,87,89,91,93,95,-1,97,99,101,103,105,107,109,111,113,115,117,119,121,-1,-1,-1,-1,-1,-1,-1,-1,-1,-1,-1,-1,-1,-1,-1,-1,-1,-1,-1,-1,-1,-1,-1,-1,-1,-1,-1,-1,-1,-1,-1,-1,-1,-1,-1,-1,-1,-1,-1,-1,-1,-1,-1,-1,-1,-1,-1,-1,-1,-1,-1,-1,-1,-1,-1,-1,-1,-1,-1,-1],"loss_changes":[3.3432027E4,4.604336E2,7.917911E3,2.3191406E1,1.162758E3,1.9077368E2,7.139004E2,7.0566406E0,2.8564453E1,6.673413E1,2.5290604E2,1.0180174E2,5.9791016E1,1.0543079E2,2.3119238E2,5.169693E1,1.1191406E0,3.9262695E0,6.782654E1,5.9120575E1,1.3122559E1,1.0439095E1,1.22167175E2,8.979245E1,3.55204E1,6.647116E1,2.0941528E1,3.509713E1,6.792659E1,4.2896484E1,4.2188477E1,6.120819E0,9.514356E0,0E0,1.4694092E1,3.412998E0,4.059082E0,6.0036537E1,1.254126E1,1.9804382E0,5.749586E1,1.3814522E1,7.968994E0,9.750153E0,1.0936854E1,1.9829742E1,1.9524727E1,6.1197113E1,2.9383408E1,0E0,7.1618805E0,8.566132E0,2.9948944E1,1.394043E1,1.893018E1,7.533142E0,1.203308E1,1.1164172E2,7.45179E0,8.724072E1,2.8711914E1,8.483554E0,3.3584076E1,0E0,0E0,0E0,0E0,0E0,0E0,0E0,0E0,0E0,0E0,0E0,0E0,0E0,0E0,0E0,0E0,0E0,0E0,0E0,0E0,0E0,0E0,0E0,0E0,0E0,0E0,0E0,0E0,0E0,0E0,0E0,0E0,0E0,0E0,0E0,0E0,0E0,0E0,0E0,0E0,0E0,0E0,0E0,0E0,0E0,0E0,0E0,0E0,0E0,0E0,0E0,0E0,0E0,0E0,0E0,0E0,0E0,0E0,0E0,0E0],"parents":[2147483647,0,0,1,1,2,2,3,3,4,4,5,5,6,6,7,7,8,8,9,9,10,10,11,11,12,12,13,13,14,14,15,15,16,16,17,17,18,18,19,19,20,20,21,21,22,22,23,23,24,24,25,25,26,26,27,27,28,28,29,29,30,30,31,31,32,32,34,34,35,35,36,36,37,37,38,38,39,39,40,40,41,41,42,42,43,43,44,44,45,45,46,46,47,47,48,48,50,50,51,51,52,52,53,53,54,54,55,55,56,56,57,57,58,58,59,59,60,60,61,61,62,62],"right_children":[2,4,6,8,10,12,14,16,18,20,22,24,26,28,30,32,34,36,38,40,42,44,46,48,50,52,54,56,58,60,62,64,66,-1,68,70,72,74,76,78,80,82,84,86,88,90,92,94,96,-1,98,100,102,104,106,108,110,112,114,116,118,120,122,-1,-1,-1,-1,-1,-1,-1,-1,-1,-1,-1,-1,-1,-1,-1,-1,-1,-1,-1,-1,-1,-1,-1,-1,-1,-1,-1,-1,-1,-1,-1,-1,-1,-1,-1,-1,-1,-1,-1,-1,-1,-1,-1,-1,-1,-1,-1,-1,-1,-1,-1,-1,-1,-1,-1,-1,-1,-1,-1,-1],"split_conditions":[5.8995003E1,4.9125E1,5E-1,1.7535001E-2,5E-1,1.18495E-1,5E-1,4.6816E-4,5E-1,5.827605E1,5E-1,1.11080006E-1,2.4362999E-1,4.978E-2,1.4636E-1,5E-1,1.698295E1,1.7675001E-2,1.18735E-1,5E-1,2.9655E-4,1.06034994E-1,2.2687E-1,5E-1,5E-1,2.35255E-1,5E-1,5E-1,5E-1,5E-1,6.5E-5,5E-1,4.115E1,-3.6596093E-1,5E-1,5E-1,1.02705E-1,5.83466E1,5E-1,5.8805E1,5E-1,5E-1,2.49275E-1,3.4E1,1.1846E-1,5.846585E1,5.8586403E1,5E-1,9.1485E-2,-3.7409332E-1,1.1107E-1,5E-1,2.3025E-1,5.9995003E1,5E-1,6.75E1,5E-1,5E-1,5.9559998E1,5E-1,7.9999496E-10,5.981725E1,5E-1,-3.6864007E-1,-2.2170913E-1,-3.1765237E-1,1.9001968E-1,-3.5816061E-1,-1.5085314E-1,-2.712172E-1,1.4870188E-1,-3.6173585E-1,-3.3970004E-1,-1.9952919E-1,2.921408E-1,-3.347148E-1,-1.9715261E-1,-3.3325803E-1,-7.1078666E-2,-3.1623018E-1,-2.9093299E-2,1.7030862E-1,-3.3990633E-1,-3.2177147E-1,-3.6384243E-1,-2.9444E-1,1.3084018E-1,3.1557018E-1,-1.6800977E-1,2.8945112E-1,1.1113045E-1,3.7818268E-2,-2.1965532E-1,-1.0103234E-1,-3.013402E-1,-5.9404396E-2,1.8140543E-1,2.500341E-2,3.5120964E-1,-2.5181663E-1,-1.7380963E-1,-3.191762E-1,1.8827412E-1,-3.4425429E-1,-2.7550527E-1,-2.2581872E-1,9.555263E-2,-1.5335912E-1,-2.905488E-1,-1.1925273E-1,1.5455231E-1,1.7890286E-1,-1.973726E-1,-1.4585622E-1,3.4390557E-1,-1.4649454E-2,3.1843928E-1,1.20542526E-1,3.5935837E-1,-2.7789393E-1,7.20991E-3,1.5263173E-1,2.6760218E-1],"split_indices":[8,8,6,12,6,11,4,11,6,9,4,11,12,12,11,4,9,12,11,4,11,11,11,5,7,12,5,7,5,5,12,6,8,0,4,5,11,9,5,8,5,1,12,10,11,9,9,1,12,0,12,7,11,8,4,10,5,1,8,7,11,9,5,0,0,0,0,0,0,0,0,0,0,0,0,0,0,0,0,0,0,0,0,0,0,0,0,0,0,0,0,0,0,0,0,0,0,0,0,0,0,0,0,0,0,0,0,0,0,0,0,0,0,0,0,0,0,0,0,0,0,0,0],"split_type":[0,0,0,0,0,0,0,0,0,0,0,0,0,0,0,0,0,0,0,0,0,0,0,0,0,0,0,0,0,0,0,0,0,0,0,0,0,0,0,0,0,0,0,0,0,0,0,0,0,0,0,0,0,0,0,0,0,0,0,0,0,0,0,0,0,0,0,0,0,0,0,0,0,0,0,0,0,0,0,0,0,0,0,0,0,0,0,0,0,0,0,0,0,0,0,0,0,0,0,0,0,0,0,0,0,0,0,0,0,0,0,0,0,0,0,0,0,0,0,0,0,0,0],"sum_hessian":[4.4922113E4,3.0196607E4,1.4725507E4,2.658001E4,3.6165972E3,3.1992239E3,1.1526282E4,2.0733299E4,5.8467104E3,2.916584E3,7.0001324E2,8.3561127E2,2.3636125E3,5.965373E2,1.0929745E4,2.896926E2,2.0443607E4,4.468357E3,1.3783536E3,5.4894836E2,2.3676357E3,1.4652042E2,5.5349286E2,7.635383E2,7.2072975E1,6.085665E2,1.755046E3,2.165826E2,3.7995468E2,9.939498E3,9.902473E2,2.6660196E2,2.3090649E1,1.817892E4,2.2646873E3,5.0730286E0,4.4632837E3,1.5638687E2,1.2219668E3,2.7756326E2,2.7138507E2,1.7215223E1,2.3504204E3,1.26994736E2,1.9525679E1,4.4878717E2,1.0470567E2,5.8276935E2,1.8076895E2,6.5874853E0,6.548549E1,5.384489E2,7.011758E1,1.6799164E3,7.5129654E1,1.5960777E2,5.6974823E1,2.9332233E2,8.6632355E1,6.566266E2,9.282871E3,5.5646E1,9.346013E2,2.3159785E2,3.5004097E1,3.0117426E0,2.0078907E1,2.2314644E3,3.3222713E1,2.5645294E0,2.508499E0,2.91858E3,1.5447037E3,1.303716E2,2.601527E1,1.1537533E3,6.8213455E1,2.7432288E2,3.2403722E0,9.7376434E1,1.7400864E2,8.816135E0,8.399089E0,6.599897E2,1.6904308E3,1.22482056E2,4.5126867E0,4.7540326E0,1.47716465E1,3.8099747E2,6.7789696E1,5.0534065E1,5.4171604E1,3.6035474E2,2.2241463E2,8.851625E1,9.22527E1,6.9211864E0,5.8564304E1,2.4357274E2,2.948762E2,1.1764946E1,5.835263E1,3.5959622E2,1.3203202E3,5.1818615E1,2.3311043E1,6.460029E1,9.500748E1,2.4423916E1,3.2550907E1,1.7571326E2,1.1760907E2,2.3702765E0,8.426208E1,8.056303E1,5.7606354E2,4.6803913E1,9.236067E3,1.0871013E1,4.4774986E1,4.24351E2,5.1025027E2],"tree_param":{"num_deleted":"0","num_feature":"14","num_nodes":"123","size_leaf_vector":"0"}},{"base_weights":[-5.025784E-1,-1.0592988E0,6.294573E-1,-1.1167461E0,-6.930988E-1,-5.6291693E-1,9.769898E-1,-1.1373663E0,-1.044716E0,-9.8617023E-1,3.2625532E-1,-7.7024066E-1,-3.1991488E-1,2.0997386E-2,1.035655E0,-9.765339E-1,-1.1403508E0,-1.0926502E0,-8.953521E-1,-6.4275444E-1,-1.0726612E0,7.083595E-1,-3.4145617E-1,-8.582127E-1,-2.9125965E-1,-5.468617E-1,5.124953E-1,-2.5444356E-1,4.86379E-1,1.091943E0,5.561988E-1,-1.093293E0,2.869115E-1,-1.1437091E0,-1.079702E0,-1.125329E0,-1.0353338E0,-9.8918265E-1,-3.121263E-1,-1.0011884E0,-3.2451466E-1,-1.653676E-1,-1.0823975E0,-5.4261E-1,8.230289E-1,-7.4330187E-1,-9.041827E-2,-8.039785E-1,-1.2033423E0,-1.3625082E-1,-9.524753E-1,-7.186685E-1,-3.2614478E-1,-2.250091E-1,6.686292E-1,2.1571365E-1,-4.859363E-1,2.7676478E-1,8.021814E-1,8.017406E-1,1.1128412E0,-3.5170138E-1,5.8974147E-1,-1.12041E0,-1.0419195E-1,-3.390492E-1,8.704862E-1,-1.1153312E0,-7.594599E-1,-7.1986325E-2,-1.126092E0,-9.717988E-1,-1.1542612E0,-1.030472E0,-3.7776002E-1,-4.2324218E-1,4.0926695E-1,-1.0310253E0,-6.100996E-1,1.24227725E-1,-7.598537E-1,4.021069E-1,-1.0129411E0,-1.1345766E0,-9.4936925E-1,-3.871369E-2,-8.776646E-1,1.8992767E-1,8.759036E-1,-9.135807E-1,-3.1297456E-2,-3.3471382E-1,3.580174E-1,-8.351047E-1,-7.967887E-2,-4.3715572E-1,1.646933E-1,-3.9095262E-1,-1.1433464E0,-6.084306E-1,-8.580893E-1,7.4174994E-1,-4.277859E-1,-8.496214E-1,3.8361564E-1,8.510971E-1,4.2812568E-1,3.9005506E-1,-6.346131E-1,-8.0970526E-1,1.1592622E-1,6.2432323E-2,5.9943634E-1,1.0925485E0,4.2767218E-1,-2.4468446E-2,9.855287E-1,3.1298262E-1,1.1181262E0,-8.922583E-1,-2.3034008E-1,4.196602E-1,7.4412674E-1],"categories":[],"categories_nodes":[],"categories_segments":[],"categories_sizes":[],"default_left":[true,true,true,true,true,true,true,false,true,false,false,true,true,true,false,true,true,true,true,true,false,true,true,true,true,true,false,true,false,true,false,true,true,false,true,false,false,true,true,true,false,true,true,false,true,true,false,true,false,true,false,false,false,true,true,false,true,true,false,false,false,false,true,false,false,false,false,false,false,false,false,false,false,false,false,false,false,false,false,false,false,false,false,false,false,false,false,false,false,false,false,false,false,false,false,false,false,false,false,false,false,false,false,false,false,false,false,false,false,false,false,false,false,false,false,false,false,false,false,false,false,false,false],"id":4,"left_children":[1,3,5,7,9,11,13,15,17,19,21,23,25,27,29,31,33,35,37,39,41,43,45,47,49,51,53,55,57,59,61,63,65,-1,67,69,71,73,75,77,79,81,83,85,87,89,91,93,-1,95,97,99,101,103,105,107,109,111,113,115,117,119,121,-1,-1,-1,-1,-1,-1,-1,-1,-1,-1,-1,-1,-1,-1,-1,-1,-1,-1,-1,-1,-1,-1,-1,-1,-1,-1,-1,-1,-1,-1,-1,-1,-1,-1,-1,-1,-1,-1,-1,-1,-1,-1,-1,-1,-1,-1,-1,-1,-1,-1,-1,-1,-1,-1,-1,-1,-1,-1,-1,-1],"loss_changes":[2.2678297E4,5.0667188E2,4.916434E3,2.9777344E1,9.7826685E2,1.3466742E2,5.1516406E2,6.6621094E0,3.2331055E1,7.4836914E1,1.8693637E2,6.0609802E1,2.335097E2,6.8335846E1,2.3296875E2,4.4872772E1,2.0019531E0,5.42334E0,6.184955E1,5.8313416E1,1.7750977E1,6.725552E1,2.686842E1,2.1862793E1,2.2995548E1,3.657083E1,3.066539E1,3.6559334E1,1.2897793E1,4.607617E1,2.796167E1,7.3051453E0,9.918758E0,0E0,8.873169E0,1.7102051E0,8.623901E0,2.4299805E1,1.2908199E1,2.186493E0,5.357863E1,1.1340029E1,1.286084E1,6.6702814E0,1.4128387E1,1.2401924E1,1.8248507E1,2.3765076E1,0E0,1.672915E1,4.1275444E0,7.8532104E0,4.6627163E1,1.8211725E1,9.24424E0,1.6732475E1,4.388845E1,8.3067255E0,8.073872E0,7.9564575E1,3.0177734E1,1.965766E0,2.2775635E1,0E0,0E0,0E0,0E0,0E0,0E0,0E0,0E0,0E0,0E0,0E0,0E0,0E0,0E0,0E0,0E0,0E0,0E0,0E0,0E0,0E0,0E0,0E0,0E0,0E0,0E0,0E0,0E0,0E0,0E0,0E0,0E0,0E0,0E0,0E0,0E0,0E0,0E0,0E0,0E0,0E0,0E0,0E0,0E0,0E0,0E0,0E0,0E0,0E0,0E0,0E0,0E0,0E0,0E0,0E0,0E0,0E0,0E0,0E0,0E0],"parents":[2147483647,0,0,1,1,2,2,3,3,4,4,5,5,6,6,7,7,8,8,9,9,10,10,11,11,12,12,13,13,14,14,15,15,16,16,17,17,18,18,19,19,20,20,21,21,22,22,23,23,24,24,25,25,26,26,27,27,28,28,29,29,30,30,31,31,32,32,34,34,35,35,36,36,37,37,38,38,39,39,40,40,41,41,42,42,43,43,44,44,45,45,46,46,47,47,49,49,50,50,51,51,52,52,53,53,54,54,55,55,56,56,57,57,58,58,59,59,60,60,61,61,62,62],"right_children":[2,4,6,8,10,12,14,16,18,20,22,24,26,28,30,32,34,36,38,40,42,44,46,48,50,52,54,56,58,60,62,64,66,-1,68,70,72,74,76,78,80,82,84,86,88,90,92,94,-1,96,98,100,102,104,106,108,110,112,114,116,118,120,122,-1,-1,-1,-1,-1,-1,-1,-1,-1,-1,-1,-1,-1,-1,-1,-1,-1,-1,-1,-1,-1,-1,-1,-1,-1,-1,-1,-1,-1,-1,-1,-1,-1,-1,-1,-1,-1,-1,-1,-1,-1,-1,-1,-1,-1,-1,-1,-1,-1,-1,-1,-1,-1,-1,-1,-1,-1,-1,-1,-1],"split_conditions":[5.9375E1,4.8855E1,5E-1,1.7535001E-2,5E-1,5E-1,5E-1,9.2219E-4,5E-1,5.87836E1,6.0588002E-2,5E-1,5E-1,5E-1,1.24855E-1,5E-1,5.930385E1,9.37615E-2,5E-1,5E-1,5.2408E-4,5E-1,5E-1,4.5284003E-2,6.6861E-2,1.11080006E-1,5.3460002E-2,5E-1,1.08185E-1,5E-1,5E-6,4.5E0,2.5E-5,-3.4311274E-1,5E-1,1.7585E-2,3.08635E-1,5E-1,5.985165E1,2.35085E-1,5.5265002E-2,5E-1,5E-1,5.6467552E1,5E-1,1.09945E-1,5.785E1,1.1504501E-6,-3.610027E-1,5E-1,6.3025E-2,1.4087999E-1,1.15005E-1,5.998295E1,5E-1,1.4079E-1,5E-1,5E-1,1.208E-1,1.2E2,1.3063E-9,5.981705E1,5E-1,-3.36123E-1,-3.125759E-2,-1.0171476E-1,2.6114586E-1,-3.3459938E-1,-2.2783798E-1,-2.1595899E-2,-3.378276E-1,-2.9153964E-1,-3.4627837E-1,-3.0914164E-1,-1.1332801E-1,-1.2697266E-1,1.2278009E-1,-3.093076E-1,-1.8302989E-1,3.726832E-2,-2.2795613E-1,1.20632075E-1,-3.0388236E-1,-3.4037298E-1,-2.8481078E-1,-1.16141075E-2,-2.632994E-1,5.6978304E-2,2.627711E-1,-2.7407423E-1,-9.3892375E-3,-1.0041415E-1,1.0740523E-1,-2.5053144E-1,-2.3903662E-2,-1.3114673E-1,4.9407993E-2,-1.1728579E-1,-3.4300393E-1,-1.825292E-1,-2.574268E-1,2.2252499E-1,-1.2833577E-1,-2.5488645E-1,1.150847E-1,2.5532913E-1,1.2843771E-1,1.17016524E-1,-1.9038394E-1,-2.4291159E-1,3.477787E-2,1.8729698E-2,1.7983091E-1,3.2776457E-1,1.2830167E-1,-7.340534E-3,2.9565862E-1,9.389479E-2,3.3543786E-1,-2.676775E-1,-6.910203E-2,1.2589806E-1,2.2323804E-1],"split_indices":[8,8,6,12,6,7,4,11,6,9,11,5,4,7,11,4,9,11,7,4,11,4,4,11,11,12,12,1,12,5,12,13,12,0,7,12,12,5,9,12,12,1,7,9,5,11,8,11,0,4,12,11,11,9,1,12,5,5,12,9,11,9,5,0,0,0,0,0,0,0,0,0,0,0,0,0,0,0,0,0,0,0,0,0,0,0,0,0,0,0,0,0,0,0,0,0,0,0,0,0,0,0,0,0,0,0,0,0,0,0,0,0,0,0,0,0,0,0,0,0,0,0,0],"split_type":[0,0,0,0,0,0,0,0,0,0,0,0,0,0,0,0,0,0,0,0,0,0,0,0,0,0,0,0,0,0,0,0,0,0,0,0,0,0,0,0,0,0,0,0,0,0,0,0,0,0,0,0,0,0,0,0,0,0,0,0,0,0,0,0,0,0,0,0,0,0,0,0,0,0,0,0,0,0,0,0,0,0,0,0,0,0,0,0,0,0,0,0,0,0,0,0,0,0,0,0,0,0,0,0,0,0,0,0,0,0,0,0,0,0,0,0,0,0,0,0,0,0,0],"sum_hessian":[3.5982258E4,2.4120281E4,1.1861976E4,2.0847754E4,3.2725264E3,2.6769197E3,9.185056E3,1.6196398E4,4.651356E3,2.5417795E3,7.30747E2,1.4433324E3,1.2335874E3,5.3113727E2,8.653918E3,3.010574E2,1.5895341E4,3.516513E3,1.1348431E3,5.130648E2,2.0287146E3,4.6473636E2,2.6601062E2,1.2187068E3,2.2462553E2,9.695846E2,2.6400284E2,3.3394293E2,1.9719432E2,7.74355E3,9.1036804E2,2.757126E2,2.5344807E1,1.5044432E4,8.509091E2,2.2277412E3,1.288772E3,9.769701E2,1.5787299E2,2.4028522E2,2.727796E2,2.1730259E1,2.0069844E3,3.8709454E1,4.2602692E2,1.015288E2,1.6448181E2,1.0560819E3,1.626249E2,1.8294402E2,4.168151E1,5.4393097E2,4.2565366E2,4.604876E1,2.1795407E2,1.10199036E2,2.237439E2,1.19651726E2,7.7542595E1,5.228183E2,7.220732E3,3.2097557E1,8.7827045E2,2.6822617E2,7.486416E0,1.2430487E1,1.291432E1,7.634836E2,8.7425514E1,1.6814432E0,2.2260598E3,8.4598846E2,4.4278348E2,9.145268E2,6.244334E1,1.3715965E2,2.071334E1,2.217325E2,1.8552717E1,1.3467393E2,1.3810567E2,1.3330614E1,8.399646E0,1.4361425E3,5.708419E2,1.5905042E1,2.2804409E1,3.319187E1,3.9283505E2,8.1705475E1,1.9823322E1,1.0664054E2,5.784127E1,1.0124209E3,4.3661E1,9.1251656E1,9.169237E1,1.1347274E1,3.0334236E1,3.0675137E2,2.3717958E2,3.6445065E1,3.892086E2,2.2530476E1,2.3518284E1,1.2248613E2,9.546794E1,9.189849E1,1.8300543E1,1.4525783E2,7.848606E1,7.26127E1,4.7039024E1,4.259796E1,3.494463E1,9.529444E1,4.2752386E2,4.7791786E1,7.17294E3,4.720378E0,2.7377178E1,4.1966135E2,4.5860913E2],"tree_param":{"num_deleted":"0","num_feature":"14","num_nodes":"123","size_leaf_vector":"0"}},{"base_weights":[-4.637086E-1,-1.0047894E0,5.441582E-1,-1.0580858E0,-6.7282325E-1,-4.726514E-1,8.878062E-1,-1.0846179E0,-9.671104E-1,-9.113769E-1,1.9045578E-1,-6.69844E-1,-2.535728E-1,9.982008E-1,2.885688E-1,-1.0933083E0,-1.016697E0,-1.0275537E0,-7.899975E-1,-6.0233796E-1,-1.0374861E0,4.9014628E-1,-4.428644E-1,-7.577217E-1,-2.5483227E-1,-4.4455153E-1,3.8128516E-1,1.814863E-1,1.0243958E0,-1.0667995E-1,4.3319678E-1,-1.1090587E0,-1.0815953E0,-1.0404787E0,1.04405335E-5,-1.0710382E0,-9.5343626E-1,-8.973708E-1,-2.1201347E-1,-9.717006E-1,-3.1633133E-1,-5.598907E-2,-1.0522032E0,1.8677147E-1,8.95522E-1,-8.251206E-1,-1.9279328E-1,-7.043378E-1,-1.1177002E0,-1.2393514E-1,-8.2250345E-1,-6.015738E-1,-2.498933E-1,-9.191753E-2,4.8599702E-1,-3.7596825E-1,5.248336E-1,6.85003E-1,1.0506299E0,-1.2365893E0,1.4926821E-2,-2.2779112E-1,4.7475192E-1,-1.0687953E0,-1.1059598E0,-5.3584844E-1,-1.0495865E0,-5.822646E-1,5.949485E-1,-1.0875041E0,-9.389145E-1,-8.7690467E-1,-1.1022642E0,-9.4512624E-1,-3.003262E-1,-4.6421793E-1,1.4118537E-1,-1.0484381E0,1.892329E-1,-6.683577E-1,1.9795296E-1,-1.052342E0,4.6223816E-1,-1.0904008E0,-9.311377E-1,3.630773E-1,-1.6691083E0,-7.9021776E-1,9.307581E-1,-1.001859E0,-3.2947767E-1,1.4980993E-1,-6.1874145E-1,-7.4092084E-1,5.0871863E-6,-1.9738728E-2,-9.493275E-1,-5.0191706E-1,-1.1656873E0,-1.0894542E0,-5.4765964E-1,5.218647E-1,-3.2906368E-1,-7.264626E-1,2.440741E-1,5.0768656E-1,-8.976039E-1,-2.6468998E-1,-1.2517773E0,2.9719347E-1,9.634228E-1,9.131946E-1,2.669298E-2,1.4843985E-1,1.0565194E0,-1.11339584E-1,-1.2731286E0,-1.3212526E-1,7.4055326E-1,2.586038E-1,-5.4349476E-1,-1.5829694E-1,5.2013177E-1],"categories":[],"categories_nodes":[],"categories_segments":[],"categories_sizes":[],"default_left":[true,true,true,true,true,true,false,true,true,false,false,true,true,true,true,true,true,true,true,true,false,false,true,true,true,true,false,false,true,false,false,false,false,false,true,true,false,true,false,false,true,true,true,false,false,false,false,true,false,false,false,false,false,true,true,false,false,true,false,false,true,false,false,false,false,false,false,false,false,false,false,false,false,false,false,false,false,false,false,false,false,false,false,false,false,false,false,false,false,false,false,false,false,false,false,false,false,false,false,false,false,false,false,false,false,false,false,false,false,false,false,false,false,false,false,false,false,false,false,false,false,false,false],"id":5,"left_children":[1,3,5,7,9,11,13,15,17,19,21,23,25,27,29,31,33,35,37,39,41,43,45,47,49,51,53,55,57,59,61,-1,63,65,67,69,71,73,75,77,79,81,83,85,87,89,91,93,-1,95,97,99,101,103,105,107,109,111,113,115,117,119,121,-1,-1,-1,-1,-1,-1,-1,-1,-1,-1,-1,-1,-1,-1,-1,-1,-1,-1,-1,-1,-1,-1,-1,-1,-1,-1,-1,-1,-1,-1,-1,-1,-1,-1,-1,-1,-1,-1,-1,-1,-1,-1,-1,-1,-1,-1,-1,-1,-1,-1,-1,-1,-1,-1,-1,-1,-1,-1,-1,-1],"loss_changes":[1.5625056E4,3.291289E2,3.4978416E3,3.7722656E1,5.318611E2,1.0908136E2,4.9461035E2,6.2226562E0,3.811206E1,7.8216064E1,1.0646686E2,4.8324524E1,1.4561298E2,1.3495801E2,6.665498E1,8.310547E-1,3.4430176E1,7.704834E0,5.749115E1,6.1878708E1,2.0674072E1,4.6622185E1,1.707957E1,2.030072E1,1.7284042E1,2.8050812E1,1.3817032E1,3.8004E1,5.3774414E1,4.3019863E1,2.3545212E1,0E0,7.9833984E-1,5.8326416E0,1.1967547E1,2.673584E0,1.0539978E1,2.205597E1,1.3153213E1,2.3041336E1,6.0464054E1,1.1980261E1,5.523926E0,7.222134E1,1.0393158E1,5.890705E0,1.6192228E1,2.4693604E1,0E0,1.643462E1,4.218937E0,1.2817673E1,2.5446611E1,1.1093742E1,7.2903137E0,7.062975E0,1.1959633E1,6.6376114E1,3.0020508E1,1.1090317E0,3.0352262E1,7.994381E0,2.3154129E1,0E0,0E0,0E0,0E0,0E0,0E0,0E0,0E0,0E0,0E0,0E0,0E0,0E0,0E0,0E0,0E0,0E0,0E0,0E0,0E0,0E0,0E0,0E0,0E0,0E0,0E0,0E0,0E0,0E0,0E0,0E0,0E0,0E0,0E0,0E0,0E0,0E0,0E0,0E0,0E0,0E0,0E0,0E0,0E0,0E0,0E0,0E0,0E0,0E0,0E0,0E0,0E0,0E0,0E0,0E0,0E0,0E0,0E0,0E0,0E0],"parents":[2147483647,0,0,1,1,2,2,3,3,4,4,5,5,6,6,7,7,8,8,9,9,10,10,11,11,12,12,13,13,14,14,15,15,16,16,17,17,18,18,19,19,20,20,21,21,22,22,23,23,24,24,25,25,26,26,27,27,28,28,29,29,30,30,32,32,33,33,34,34,35,35,36,36,37,37,38,38,39,39,40,40,41,41,42,42,43,43,44,44,45,45,46,46,47,47,49,49,50,50,51,51,52,52,53,53,54,54,55,55,56,56,57,57,58,58,59,59,60,60,61,61,62,62],"right_children":[2,4,6,8,10,12,14,16,18,20,22,24,26,28,30,32,34,36,38,40,42,44,46,48,50,52,54,56,58,60,62,-1,64,66,68,70,72,74,76,78,80,82,84,86,88,90,92,94,-1,96,98,100,102,104,106,108,110,112,114,116,118,120,122,-1,-1,-1,-1,-1,-1,-1,-1,-1,-1,-1,-1,-1,-1,-1,-1,-1,-1,-1,-1,-1,-1,-1,-1,-1,-1,-1,-1,-1,-1,-1,-1,-1,-1,-1,-1,-1,-1,-1,-1,-1,-1,-1,-1,-1,-1,-1,-1,-1,-1,-1,-1,-1,-1,-1,-1,-1,-1,-1,-1],"split_conditions":[5.8925E1,4.7905E1,5E-1,1.7535001E-2,5E-1,5E-1,1.21175006E-1,1.698295E1,5E-1,1.1799E-1,5.85238E1,5E-1,5E-1,5E-1,5E-1,5.4589E-2,5E-1,9.37615E-2,5E-1,5E-1,1.3018E-3,5.6415E1,5E-1,4.5284003E-2,5.4454E-2,1.11080006E-1,5.3460002E-2,2.0365E-2,5E-1,1.1115E-2,5.9795E1,-3.3271763E-1,2.48215E-1,4.0018E-4,5E-1,5.94776E1,3.08635E-1,5E-1,9.2345E-2,1.0512E-1,5E-1,5E-1,5E-1,5.317605E1,1.1313E-7,1.1028E-1,5.65E1,7.4577997E-7,-3.3531007E-1,6.01473E1,9.7849995E-2,5.9625E1,1.15005E-1,5E-1,2.4467E-1,6.75E1,1.02855E-1,5E-1,3.184E-10,5.917E1,5E-1,5.9463E1,1.3500001E-4,-3.206386E-1,-3.3178794E-1,-1.6075453E-1,-3.1487596E-1,-1.7467938E-1,1.7848454E-1,-3.2625127E-1,-2.8167436E-1,-2.6307142E-1,-3.3067927E-1,-2.835379E-1,-9.009786E-2,-1.3926539E-1,4.2355612E-2,-3.1453145E-1,5.6769874E-2,-2.0050731E-1,5.938589E-2,-3.1570262E-1,1.3867146E-1,-3.2712024E-1,-2.793413E-1,1.089232E-1,-5.007325E-1,-2.3706533E-1,2.7922744E-1,-3.005577E-1,-9.884331E-2,4.494298E-2,-1.8562244E-1,-2.2227626E-1,1.526156E-6,-5.9216185E-3,-2.8479826E-1,-1.5057513E-1,-3.497062E-1,-3.2683626E-1,-1.642979E-1,1.5655942E-1,-9.871911E-2,-2.179388E-1,7.3222235E-2,1.5230598E-1,-2.6928118E-1,-7.9407E-2,-3.755332E-1,8.915804E-2,2.8902686E-1,2.7395838E-1,8.007894E-3,4.4531956E-2,3.1695583E-1,-3.3401877E-2,-3.819386E-1,-3.963758E-2,2.2216599E-1,7.7581145E-2,-1.6304843E-1,-4.7489084E-2,1.5603954E-1],"split_indices":[8,8,6,12,6,7,11,9,6,12,9,5,4,4,4,11,4,11,7,4,11,8,4,11,11,12,12,12,5,12,8,0,11,11,7,9,12,5,12,12,7,4,7,9,11,12,10,11,0,9,12,8,11,5,12,10,11,1,11,8,5,9,12,0,0,0,0,0,0,0,0,0,0,0,0,0,0,0,0,0,0,0,0,0,0,0,0,0,0,0,0,0,0,0,0,0,0,0,0,0,0,0,0,0,0,0,0,0,0,0,0,0,0,0,0,0,0,0,0,0,0,0,0],"split_type":[0,0,0,0,0,0,0,0,0,0,0,0,0,0,0,0,0,0,0,0,0,0,0,0,0,0,0,0,0,0,0,0,0,0,0,0,0,0,0,0,0,0,0,0,0,0,0,0,0,0,0,0,0,0,0,0,0,0,0,0,0,0,0,0,0,0,0,0,0,0,0,0,0,0,0,0,0,0,0,0,0,0,0,0,0,0,0,0,0,0,0,0,0,0,0,0,0,0,0,0,0,0,0,0,0,0,0,0,0,0,0,0,0,0,0,0,0,0,0,0,0,0,0],"sum_hessian":[2.8650088E4,1.8641998E4,1.0008091E4,1.6061218E4,2.58078E3,2.5279224E3,7.4801685E3,1.2426287E4,3.6349307E3,2.0219814E3,5.587986E2,1.3293326E3,1.1985896E3,6.315947E3,1.1642217E3,1.1003316E4,1.4229702E3,2.7064866E3,9.284442E2,5.876594E2,1.434322E3,3.7946143E2,1.7933711E2,1.0963561E3,2.329765E2,9.2164044E2,2.769492E2,1.9652652E2,6.11942E3,3.1195453E2,8.5226715E2,4.652909E3,6.350407E3,1.3904237E3,3.2546593E1,1.6972583E3,1.0092282E3,7.82521E2,1.459232E2,2.5541145E2,3.32248E2,2.1260313E1,1.4130616E3,2.178716E2,1.6158984E2,7.001434E1,1.0932278E2,9.5734143E2,1.3901472E2,1.903116E2,4.26649E1,5.089789E2,4.1266153E2,5.0202335E1,2.2674686E2,7.487133E1,1.216552E2,4.410192E2,5.678401E3,2.9420956E1,2.8253357E2,5.014615E1,8.02121E2,4.1926455E3,2.1577615E3,2.5710896E1,1.3647128E3,1.645911E1,1.6087484E1,1.5027471E3,1.945113E2,6.710481E2,3.3818008E2,7.240258E2,5.849518E1,8.49498E1,6.0973404E1,2.3966646E2,1.5744997E1,1.9706079E2,1.3518721E2,6.9217587E0,1.4338554E1,1.0680669E3,3.449948E2,1.9970433E2,1.8167255E1,2.8697767E0,1.5872008E2,5.08579E1,1.9156443E1,6.09484E1,4.837438E1,9.100235E2,4.731789E1,1.6988896E2,2.0422638E1,2.3331879E1,1.9333021E1,4.873739E1,4.6024155E2,3.7873795E1,3.7478772E2,1.69773E1,3.3225037E1,2.238705E2,2.8763614E0,6.7586205E1,7.2851224E0,8.119192E1,4.046328E1,3.272103E2,1.1380889E2,3.699825E1,5.641403E3,1.0526011E0,2.8368355E1,2.356049E2,4.6928677E1,1.9808565E1,3.0337585E1,5.3487133E1,7.4863385E2],"tree_param":{"num_deleted":"0","num_feature":"14","num_nodes":"123","size_leaf_vector":"0"}},{"base_weights":[-4.2780071E-1,-9.590491E-1,4.6434417E-1,-1.0112929E0,-6.5311563E-1,-3.9640743E-1,8.028039E-1,-1.0451832E0,-8.975394E-1,-8.506206E-2,-9.143876E-1,-5.8335847E-1,-1.9823387E-1,9.3294984E-1,2.1504031E-1,-1.0529499E0,-9.329254E-1,-9.717709E-1,-6.960952E-1,-7.6312995E-1,1.7692508E-1,-9.755416E-1,-4.4383752E-1,-6.714196E-1,-2.2599706E-1,-3.5751754E-1,2.949061E-1,4.5227775E-1,9.850852E-1,-9.1028154E-2,3.3370617E-1,-1.0549843E0,-9.424284E-1,-6.0158455E-1,-1.0115644E0,-1.0279652E0,-8.797606E-1,-8.628657E-2,-8.012096E-1,-8.414582E-1,2.4357662E-1,4.8125643E-1,-3.5424283E-1,-8.28425E-1,-1.0405482E0,-7.982537E-1,-1.822953E-1,-9.412023E-1,-5.6016135E-1,-5.034119E-1,4.0883645E-2,-5.0573456E-1,-1.9774152E-1,7.080457E-2,4.8264542E-1,7.808669E-1,-1.3164754E-1,1.3250425E-1,9.970666E-1,-9.5324194E-1,2.7074477E-2,3.223684E-2,4.0606982E-1,-1.0746796E0,-1.0402149E0,2.58937E-1,-1.0273992E0,-9.1982955E-1,-2.9645526E-1,-1.0209391E0,-7.242096E-1,-1.0499171E0,-8.6411464E-1,-7.893089E-1,-1.0644246E0,-3.622585E-1,1.1796529E0,-8.4270525E-1,-3.552504E-1,-8.7044275E-1,7.075495E-1,-8.792995E-1,6.8587613E-1,3.2664946E-1,8.34623E-1,-8.852553E-2,-9.9653333E-1,-9.674219E-1,-5.503443E-1,-3.5903957E-1,-1.0580955E0,-1.1745653E0,-8.325267E-2,-4.5651948E-1,1.8938157E-1,-5.6717675E-3,-9.968397E-1,-4.2345417E-1,-9.3789905E-1,-1.0929228E0,-3.6345068E-1,-2.2776595E-1,4.6450362E-1,-9.483676E-1,-4.340191E-1,1.23803355E-1,-2.5944924E-1,2.381458E-1,-7.960885E-1,9.2066973E-1,2.7739048E-1,4.7633517E-1,8.3173686E-1,-3.3096266E-1,2.856132E-1,-7.041802E-1,3.1999716E-1,4.3381792E-1,1.0069878E0,-1.1170635E0,-5.0616E-1,-8.680541E-2,6.500281E-1,-2.0887575E0,1.9340354E-1,4.9290928E-1,1.869132E-2],"categories":[],"categories_nodes":[],"categories_segments":[],"categories_sizes":[],"default_left":[true,true,true,true,false,true,false,true,true,true,true,true,true,true,true,true,false,true,false,false,false,false,false,false,true,true,false,true,false,false,false,true,false,true,true,true,false,false,true,true,true,false,false,true,false,false,true,false,true,false,false,false,false,true,false,true,false,true,true,false,true,true,false,false,false,false,false,false,false,false,false,false,false,false,false,false,false,false,false,false,false,false,false,false,false,false,false,false,false,false,false,false,false,false,false,false,false,false,false,false,false,false,false,false,false,false,false,false,false,false,false,false,false,false,false,false,false,false,false,false,false,false,false,false,false,false,false],"id":6,"left_children":[1,3,5,7,9,11,13,15,17,19,21,23,25,27,29,31,33,35,37,39,41,43,45,47,49,51,53,55,57,59,61,63,65,67,69,71,73,75,77,79,81,83,85,87,89,91,93,95,97,99,101,103,105,107,109,111,113,115,117,119,121,123,125,-1,-1,-1,-1,-1,-1,-1,-1,-1,-1,-1,-1,-1,-1,-1,-1,-1,-1,-1,-1,-1,-1,-1,-1,-1,-1,-1,-1,-1,-1,-1,-1,-1,-1,-1,-1,-1,-1,-1,-1,-1,-1,-1,-1,-1,-1,-1,-1,-1,-1,-1,-1,-1,-1,-1,-1,-1,-1,-1,-1,-1,-1,-1,-1],"loss_changes":[1.0835834E4,2.2837012E2,2.48633E3,4.6240234E1,3.1054767E2,8.91376E1,4.683506E2,7.232422E0,4.1434082E1,1.1746295E2,4.081653E1,3.884305E1,9.208273E1,1.2521924E2,4.0407673E1,9.84375E-1,1.5507141E1,9.72229E0,4.8763306E1,1.4734108E1,7.7311646E1,1.1262329E1,1.5307205E1,2.9297363E1,1.826952E1,2.0870605E1,1.2016533E1,9.460395E1,4.60708E1,3.1734114E1,1.7468216E1,1.3955078E0,1.746878E1,1.1487003E1,6.0321045E-1,3.6608887E0,1.2292419E1,3.9950993E1,1.1723358E1,8.301308E0,7.5943003E0,1.6325317E1,2.9676126E1,1.4674194E1,1.0087952E1,1.8868168E1,9.995036E0,1.50191345E1,3.6059296E1,9.580755E0,1.4508163E1,1.4150406E1,8.520206E0,1.9300758E1,1.3741787E1,4.48851E0,1.4915552E1,1.0239286E1,2.4486816E1,2.1841888E0,1.9554388E1,5.379873E1,2.1726326E1,0E0,0E0,0E0,0E0,0E0,0E0,0E0,0E0,0E0,0E0,0E0,0E0,0E0,0E0,0E0,0E0,0E0,0E0,0E0,0E0,0E0,0E0,0E0,0E0,0E0,0E0,0E0,0E0,0E0,0E0,0E0,0E0,0E0,0E0,0E0,0E0,0E0,0E0,0E0,0E0,0E0,0E0,0E0,0E0,0E0,0E0,0E0,0E0,0E0,0E0,0E0,0E0,0E0,0E0,0E0,0E0,0E0,0E0,0E0,0E0,0E0,0E0,0E0,0E0],"parents":[2147483647,0,0,1,1,2,2,3,3,4,4,5,5,6,6,7,7,8,8,9,9,10,10,11,11,12,12,13,13,14,14,15,15,16,16,17,17,18,18,19,19,20,20,21,21,22,22,23,23,24,24,25,25,26,26,27,27,28,28,29,29,30,30,31,31,32,32,33,33,34,34,35,35,36,36,37,37,38,38,39,39,40,40,41,41,42,42,43,43,44,44,45,45,46,46,47,47,48,48,49,49,50,50,51,51,52,52,53,53,54,54,55,55,56,56,57,57,58,58,59,59,60,60,61,61,62,62],"right_children":[2,4,6,8,10,12,14,16,18,20,22,24,26,28,30,32,34,36,38,40,42,44,46,48,50,52,54,56,58,60,62,64,66,68,70,72,74,76,78,80,82,84,86,88,90,92,94,96,98,100,102,104,106,108,110,112,114,116,118,120,122,124,126,-1,-1,-1,-1,-1,-1,-1,-1,-1,-1,-1,-1,-1,-1,-1,-1,-1,-1,-1,-1,-1,-1,-1,-1,-1,-1,-1,-1,-1,-1,-1,-1,-1,-1,-1,-1,-1,-1,-1,-1,-1,-1,-1,-1,-1,-1,-1,-1,-1,-1,-1,-1,-1,-1,-1,-1,-1,-1,-1,-1,-1,-1,-1,-1],"split_conditions":[5.8305E1,4.6215E1,5E-1,1.7535001E-2,5.6516403E1,5E-1,1.21175006E-1,5.809465E1,5E-1,5E-1,5E-1,5E-1,5E-1,5E-1,5E-1,4.0675E1,1.20085E-1,9.37615E-2,1.18735E-1,5.7254997E1,5.6801E-2,2.49275E-1,2.4895001E-2,5.9995003E1,5E-1,9.793E-2,4.77475E-2,5E-1,8.40585E-9,2.118E-2,8.39E-3,5.4589E-2,1.74E-3,5E-1,5E-1,5.94776E1,3.08635E-1,1.058E-1,5E-1,3.4E1,5E-1,5.6125E1,1.17395E-1,5.2798E-2,2.4825E-3,5.7050003E1,5E-1,4.72675E-2,5E-1,1.95E1,3.5E0,5.9665E1,1.19275E-1,2.8285E-2,7.304E-2,5E-1,4.0815003E-2,5.971115E1,5E-1,1.1115E-2,5E-1,5E-1,1.19235E-1,-3.224039E-1,-3.1206447E-1,7.76811E-2,-3.0821976E-1,-2.7594888E-1,-8.893658E-2,-3.0628175E-1,-2.172629E-1,-3.1497514E-1,-2.592344E-1,-2.3679268E-1,-3.193274E-1,-1.0867755E-1,3.538959E-1,-2.5281158E-1,-1.06575124E-1,-2.6113284E-1,2.1226487E-1,-2.6378986E-1,2.0576285E-1,9.799484E-2,2.503869E-1,-2.6557662E-2,-2.9896E-1,-2.9022658E-1,-1.6510329E-1,-1.07711874E-1,-3.1742865E-1,-3.523696E-1,-2.49758E-2,-1.3695586E-1,5.6814473E-2,-1.7015303E-3,-2.990519E-1,-1.2703626E-1,-2.8136972E-1,-3.2787687E-1,-1.0903521E-1,-6.832979E-2,1.3935108E-1,-2.8451028E-1,-1.3020574E-1,3.7141006E-2,-7.783478E-2,7.1443744E-2,-2.3882656E-1,2.7620092E-1,8.3217144E-2,1.4290056E-1,2.4952106E-1,-9.92888E-2,8.5683964E-2,-2.1125406E-1,9.599915E-2,1.3014539E-1,3.0209637E-1,-3.3511907E-1,-1.5184802E-1,-2.6041625E-2,1.9500844E-1,-6.2662727E-1,5.8021065E-2,1.4787279E-1,5.6073964E-3],"split_indices":[8,8,6,12,9,7,11,9,6,4,6,5,4,5,4,8,11,11,11,8,11,12,12,8,4,12,11,1,11,12,12,11,12,5,7,9,12,11,5,10,5,8,12,11,11,8,7,11,1,10,13,8,11,12,11,4,12,9,4,12,5,5,12,0,0,0,0,0,0,0,0,0,0,0,0,0,0,0,0,0,0,0,0,0,0,0,0,0,0,0,0,0,0,0,0,0,0,0,0,0,0,0,0,0,0,0,0,0,0,0,0,0,0,0,0,0,0,0,0,0,0,0,0,0,0,0,0],"split_type":[0,0,0,0,0,0,0,0,0,0,0,0,0,0,0,0,0,0,0,0,0,0,0,0,0,0,0,0,0,0,0,0,0,0,0,0,0,0,0,0,0,0,0,0,0,0,0,0,0,0,0,0,0,0,0,0,0,0,0,0,0,0,0,0,0,0,0,0,0,0,0,0,0,0,0,0,0,0,0,0,0,0,0,0,0,0,0,0,0,0,0,0,0,0,0,0,0,0,0,0,0,0,0,0,0,0,0,0,0,0,0,0,0,0,0,0,0,0,0,0,0,0,0,0,0,0,0],"sum_hessian":[2.2860854E4,1.4328525E4,8.532328E3,1.2236595E4,2.0919312E3,2.4080754E3,6.1242524E3,9.421491E3,2.815103E3,6.594627E2,1.4324684E3,1.238123E3,1.1699523E3,5.013539E3,1.1107135E3,8.803997E3,6.1749396E2,2.0542827E3,7.6082025E2,1.832548E2,4.762079E2,1.266763E3,1.6570538E2,9.9263794E2,2.4548514E2,8.8452625E2,2.85426E2,4.9152307E2,4.522016E3,3.103856E2,8.0032794E2,8.636477E3,1.6752061E2,1.2010178E2,4.973922E2,1.269051E3,7.852317E2,1.1213038E2,6.486899E2,1.7017801E2,1.3076803E1,3.028085E2,1.7339941E2,3.9241977E2,8.743432E2,6.948885E1,9.621653E1,2.8765747E2,7.0498047E2,1.1993249E2,1.2555265E2,4.5773804E2,4.267882E2,1.3074036E2,1.5468564E2,3.1431372E2,1.7720935E2,6.2835007E1,4.459181E3,3.654148E1,2.738441E2,1.5520099E2,6.4512695E2,3.6702844E3,4.9661924E3,1.0930576E1,1.5659003E2,5.780134E1,6.230044E1,4.7920557E2,1.8186644E1,1.1143483E3,1.5470284E2,5.306058E2,2.5462589E2,9.2647316E1,1.9483063E1,5.926549E2,5.603497E1,1.6748221E2,2.6958094E0,3.416143E0,9.66066E0,2.119843E2,9.082419E1,1.2346107E2,4.9938347E1,2.5998764E2,1.3243211E2,2.248592E1,8.518573E2,4.510627E1,2.4382586E1,5.523542E1,4.0981113E1,1.6209E1,2.714485E2,5.1919824E2,1.857822E2,2.1704647E1,9.822784E1,7.711225E1,4.84404E1,6.2117893E1,3.9562015E2,6.8555374E1,3.5823285E2,1.1019423E2,2.0546122E1,4.8244328E1,1.0644131E2,4.647229E1,2.6784143E2,1.2006439E2,5.7144962E1,1.0998517E1,5.183649E1,7.795959E1,4.3812217E3,2.564571E1,1.0895773E1,2.3224829E2,4.159581E1,1.0115694E1,1.450853E2,5.267679E2,1.183591E2],"tree_param":{"num_deleted":"0","num_feature":"14","num_nodes":"127","size_leaf_vector":"0"}},{"base_weights":[-3.924219E-1,-9.0645385E-1,4.0507272E-1,-7.1333486E-1,-1.0107853E0,-1.8539956E-1,7.957499E-1,-8.5374606E-1,-1.5014583E-1,-1.0174004E0,-9.2264986E-1,-3.9007065E-1,1.666557E-1,9.1853505E-1,2.6281017E-1,-8.779157E-1,1.0115113E0,-5.4191273E-1,1.8189019E-1,-1.0411081E0,-9.9765265E-1,-6.7276543E-1,-9.637984E-1,-5.721764E-1,-2.2887659E-1,4.431715E-1,-4.2493585E-1,3.348195E-2,9.42275E-1,-1.0100151E-1,4.2608634E-1,-9.902464E-1,-7.17489E-1,6.0569656E-1,4.309383E0,-7.3255783E-1,-6.5846145E-2,4.7339556E-1,-1.7414325E-1,-8.3016795E-1,-1.0460943E0,6.198558E-1,-9.984382E-1,-1.0174992E0,-2.621479E-1,-9.6768105E-1,-1.6531242E-1,-8.74994E-1,-4.5927054E-1,-3.108404E-1,9.7985886E-2,2.3241086E-1,6.535649E-1,-1.2665829E-1,-9.669166E-1,-1.6073743E-1,9.295439E-1,1.14433974E-1,9.547405E-1,-2.5040638E-1,3.4115347E-1,-6.0683244E-1,4.9865094E-1,-1.0363779E0,-8.0121326E-1,-8.6727506E-1,-4.3254715E-1,1.0090815E0,-9.544212E-1,-2.2996974E-1,6.7166724E0,1.992452E-1,-8.068216E-1,-6.3506424E-1,7.06691E-1,5.184082E-1,-5.1466256E-1,-4.303858E-1,1.4315006E-1,-1.04759E0,1.9481398E-1,-8.621698E-1,-1.0023744E0,-4.2407644E-1,1.9004732E0,4.1120303E-1,-6.1081207E-1,-1.1697648E-2,-9.408422E-1,-3.3265612E-1,-8.559311E-1,-7.682325E-1,-2.6565534E-1,3.544749E-1,-5.103904E-1,3.7782207E-1,-4.8134732E-1,1.6177396E-1,6.8448865E-1,2.9374915E-1,-2.286727E-1,-1.2500514E0,-5.4086125E-1,4.291647E-3,-1.1062216E0,-1.7742792E-1,1.0485821E0,2.378619E-1,-1.1076849E0,4.4748724E-1,9.699179E-1,-7.131769E-1,-1.3216147E-1,1.218658E0,2.4044791E-1,-4.4840327E-1,-3.1034024E0,-1.614419E0,5.199037E-1],"categories":[],"categories_nodes":[],"categories_segments":[],"categories_sizes":[],"default_left":[true,false,true,true,true,true,false,false,true,true,false,true,true,true,true,false,true,true,false,false,false,true,true,false,true,true,false,true,false,true,false,true,true,true,true,false,false,false,true,true,false,false,false,false,false,false,false,false,true,false,true,false,false,false,false,false,true,false,true,false,false,true,true,false,false,false,false,false,false,false,false,false,false,false,false,false,false,false,false,false,false,false,false,false,false,false,false,false,false,false,false,false,false,false,false,false,false,false,false,false,false,false,false,false,false,false,false,false,false,false,false,false,false,false,false,false,false,false,false],"id":7,"left_children":[1,3,5,7,9,11,13,15,17,19,21,23,25,27,29,31,33,35,37,39,41,43,45,47,49,51,53,55,57,59,61,63,65,67,69,71,73,75,77,79,-1,-1,81,-1,83,-1,85,87,89,91,93,95,97,99,101,103,105,107,109,111,113,115,117,-1,-1,-1,-1,-1,-1,-1,-1,-1,-1,-1,-1,-1,-1,-1,-1,-1,-1,-1,-1,-1,-1,-1,-1,-1,-1,-1,-1,-1,-1,-1,-1,-1,-1,-1,-1,-1,-1,-1,-1,-1,-1,-1,-1,-1,-1,-1,-1,-1,-1,-1,-1,-1,-1,-1,-1],"loss_changes":[7.5289277E3,2.2428613E2,1.6607523E3,3.0989185E2,3.286621E0,2.0666101E2,2.8326074E2,1.4235059E2,1.0202707E2,2.1137695E0,4.6651917E0,5.3100464E1,1.7273227E2,7.394385E1,4.8316128E1,5.512256E1,5.173142E1,3.2598846E1,4.417785E1,2.3251953E0,5.316162E0,1.0544659E1,1.2084656E0,2.8687103E1,2.5846188E1,3.174318E1,5.427368E1,1.6335897E1,3.5273926E1,1.6768543E1,4.235961E1,1.5037842E1,5.4238342E1,2.4448792E1,4.837439E1,1.792778E1,4.6163017E1,1.0668343E1,1.5671713E1,1.690944E1,0E0,0E0,1.1179199E0,0E0,1.348439E1,0E0,1.1094975E0,1.3061691E1,3.0945969E1,1.5723221E1,3.0445E1,3.76372E1,5.355118E0,9.424747E0,1.3714607E1,1.2064911E1,2.3887014E0,8.107402E0,2.55708E1,1.0266387E1,5.380847E0,1.3354804E1,2.4408585E1,0E0,0E0,0E0,0E0,0E0,0E0,0E0,0E0,0E0,0E0,0E0,0E0,0E0,0E0,0E0,0E0,0E0,0E0,0E0,0E0,0E0,0E0,0E0,0E0,0E0,0E0,0E0,0E0,0E0,0E0,0E0,0E0,0E0,0E0,0E0,0E0,0E0,0E0,0E0,0E0,0E0,0E0,0E0,0E0,0E0,0E0,0E0,0E0,0E0,0E0,0E0,0E0,0E0,0E0,0E0,0E0],"parents":[2147483647,0,0,1,1,2,2,3,3,4,4,5,5,6,6,7,7,8,8,9,9,10,10,11,11,12,12,13,13,14,14,15,15,16,16,17,17,18,18,19,19,20,20,21,21,22,22,23,23,24,24,25,25,26,26,27,27,28,28,29,29,30,30,31,31,32,32,33,33,34,34,35,35,36,36,37,37,38,38,39,39,42,42,44,44,46,46,47,47,48,48,49,49,50,50,51,51,52,52,53,53,54,54,55,55,56,56,57,57,58,58,59,59,60,60,61,61,62,62],"right_children":[2,4,6,8,10,12,14,16,18,20,22,24,26,28,30,32,34,36,38,40,42,44,46,48,50,52,54,56,58,60,62,64,66,68,70,72,74,76,78,80,-1,-1,82,-1,84,-1,86,88,90,92,94,96,98,100,102,104,106,108,110,112,114,116,118,-1,-1,-1,-1,-1,-1,-1,-1,-1,-1,-1,-1,-1,-1,-1,-1,-1,-1,-1,-1,-1,-1,-1,-1,-1,-1,-1,-1,-1,-1,-1,-1,-1,-1,-1,-1,-1,-1,-1,-1,-1,-1,-1,-1,-1,-1,-1,-1,-1,-1,-1,-1,-1,-1,-1,-1],"split_conditions":[5.8285E1,2.4361E-1,5E-1,5E-1,5.02582E1,5E-1,5.73265E-2,2.3683E-1,5E-1,6.749301E-2,1.18635E-1,5E-1,5E-1,5E-1,5E-1,4.5105E-2,5.99101E1,5E-1,2.5925498E-2,2.90295E-4,6.755E-2,5E-1,5.7955E1,5.9995003E1,5E-1,5E-1,3.6789E-1,4.7265E-2,3.5613499E-9,5E-1,5E-6,5E-1,5E-1,2.43415E-1,5E-1,4.5165002E-2,5.4394998E-2,2.803E-2,5E-1,5E-1,-3.138283E-1,1.8595675E-1,3.1401E-1,-3.0524978E-1,1.08245E-1,-2.9030433E-1,5.8065002E1,4.72675E-2,5E-1,5.9625E1,5E-1,1.24815E-1,5.9805E1,6.1598E-3,9.3085006E-2,6.002705E1,5E-1,1.755E2,5E-1,5.9535E1,5.907335E1,7.5E0,5.5224197E1,-3.1091338E-1,-2.4036399E-1,-2.6018253E-1,-1.2976415E-1,3.0272445E-1,-2.8632638E-1,-6.899092E-2,2.0150018E0,5.977356E-2,-2.4204649E-1,-1.9051929E-1,2.1200731E-1,1.5552247E-1,-1.5439877E-1,-1.2911575E-1,4.294502E-2,-3.1427702E-1,5.84442E-2,-2.5865096E-1,-3.0071235E-1,-1.2722294E-1,5.70142E-1,1.2336091E-1,-1.8324363E-1,-3.5092945E-3,-2.8225267E-1,-9.979684E-2,-2.5677934E-1,-2.3046976E-1,-7.96966E-2,1.0634247E-1,-1.5311712E-1,1.1334663E-1,-1.444042E-1,4.853219E-2,2.053466E-1,8.812475E-2,-6.860181E-2,-3.7501544E-1,-1.6225839E-1,1.2874942E-3,-3.3186647E-1,-5.322838E-2,3.1457463E-1,7.135858E-2,-3.3230546E-1,1.3424617E-1,2.909754E-1,-2.1395308E-1,-3.9648443E-2,3.655974E-1,7.2134376E-2,-1.34521E-1,-9.3102074E-1,-4.843257E-1,1.5597112E-1],"split_indices":[8,12,5,4,9,6,11,12,5,11,11,7,1,4,6,12,9,7,11,11,11,5,8,8,4,7,11,12,11,7,12,5,6,11,5,11,11,12,7,4,0,0,12,0,11,0,8,11,1,8,1,12,8,11,12,9,7,10,6,8,9,10,9,0,0,0,0,0,0,0,0,0,0,0,0,0,0,0,0,0,0,0,0,0,0,0,0,0,0,0,0,0,0,0,0,0,0,0,0,0,0,0,0,0,0,0,0,0,0,0,0,0,0,0,0,0,0,0,0],"split_type":[0,0,0,0,0,0,0,0,0,0,0,0,0,0,0,0,0,0,0,0,0,0,0,0,0,0,0,0,0,0,0,0,0,0,0,0,0,0,0,0,0,0,0,0,0,0,0,0,0,0,0,0,0,0,0,0,0,0,0,0,0,0,0,0,0,0,0,0,0,0,0,0,0,0,0,0,0,0,0,0,0,0,0,0,0,0,0,0,0,0,0,0,0,0,0,0,0,0,0,0,0,0,0,0,0,0,0,0,0,0,0,0,0,0,0,0,0,0,0],"sum_hessian":[1.836413E4,1.116652E4,7.1976123E3,3.9194312E3,7.2470884E3,2.8661772E3,4.331435E3,3.1368525E3,7.825788E2,6.7313193E3,5.1576917E2,1.812407E3,1.0537703E3,3.5197812E3,8.116539E2,3.0972483E3,3.9604187E1,3.587088E2,4.2387E2,3.035443E3,3.695876E3,7.537659E1,4.403926E2,8.49806E2,9.6260095E2,7.1828674E2,3.354835E2,9.200836E1,3.427773E3,2.5154445E2,5.6010944E2,1.8186543E3,1.278594E3,3.6318707E1,3.2854817E0,2.5575189E2,1.02956894E2,2.3287335E2,1.9099664E2,7.3961105E1,2.961482E3,1.4114505E0,3.6944646E3,4.0172123E1,3.5204464E1,4.380507E2,2.3419187E0,2.2896477E2,6.2084125E2,7.6965247E2,1.9294849E2,3.5988156E2,3.5840515E2,2.1718826E2,1.1829523E2,7.629271E1,1.5715651E1,5.1000397E1,3.3767725E3,1.8833829E2,6.320615E1,3.6282627E1,5.238268E2,1.4582913E3,3.6036298E2,8.367133E2,4.418807E2,2.9137978E1,7.1807294E0,1.4519857E0,1.8334961E0,1.8754343E1,2.3699756E2,5.9381542E1,4.3575348E1,2.2318129E2,9.692066E0,1.0546658E2,8.553007E1,6.099963E1,1.2961471E1,1.09898056E2,3.5845664E3,3.3500023E1,1.7044432E0,1.0544077E0,1.287511E0,1.6310135E1,2.1265463E2,4.7201297E2,1.488283E2,6.775825E1,7.018942E2,1.3602023E2,5.692824E1,2.9936395E2,6.051761E1,2.1571896E1,3.3683325E2,4.2043797E1,1.7514447E2,6.990555E1,4.8389683E1,6.580267E1,1.0490035E1,1.4782689E0,1.4237382E1,4.7053585E1,3.9468088E0,9.898567E1,3.2777869E3,3.7305576E1,1.5103271E2,5.3641424E0,5.7842007E1,3.5226788E1,1.0558397E0,4.469618E0,5.193572E2],"tree_param":{"num_deleted":"0","num_feature":"14","num_nodes":"119","size_leaf_vector":"0"}},{"base_weights":[-3.572677E-1,-8.6057836E-1,3.3949584E-1,-6.53857E-1,-9.792327E-1,-1.5581752E-1,7.140166E-1,-7.860644E-1,-1.5267251E-1,-9.876875E-1,-8.6947733E-1,-3.211314E-1,1.2632991E-1,8.571348E-1,1.9224578E-1,-8.951105E-1,-4.6575734E-1,1.3834313E-1,-5.6927586E-1,-1.0213761E0,-9.6321684E-1,-5.7597184E-1,-9.220237E-1,-6.87879E-1,-2.4805625E-1,3.3290893E-1,-3.6139697E-1,6.4691473E-3,8.8633007E-1,2.3012005E-1,-9.921395E-1,-9.440605E-1,-5.291498E-1,2.684378E-1,-6.3205576E-1,5.631197E-1,-5.3216662E-2,-7.839036E-1,-1.062668E-1,-1.0271668E0,-7.848033E-1,-7.915118E-1,-9.682692E-1,-9.844953E-1,-1.7173295E-1,-7.697549E-1,-9.428878E-1,-2.758187E-1,-8.672154E-1,-1.7239614E-1,-6.5250707E-1,1.4255242E-1,5.499717E-1,-1.3185778E-1,-8.0426973E-1,1.1874732E-1,-1.0558531E0,5.589388E-1,9.298758E-1,3.1087032E-1,-2.8700885E-1,-1.0521206E0,-3.4635347E-1,-9.9486685E-1,-7.921874E-1,-9.080669E-1,4.4732265E-2,-7.687552E-1,6.996243E-1,-7.539831E-1,4.8503643E-1,-9.256657E-1,6.4790875E-1,-2.1036452E-1,5.868651E-1,-8.601398E-1,-3.309471E-1,-4.2606792E-1,1.0738676E0,-1.0228552E0,4.929195E-2,-9.9912953E-1,-5.5682665E-1,-9.4440717E-1,-1.018558E0,-8.2372457E-1,2.6278174E-1,-9.3613523E-1,-5.2152014E-1,-6.294987E-1,-7.415926E-2,-9.2994267E-1,1.7023215E-1,4.428547E-1,-2.4643035E-1,-8.20281E-1,-2.539307E-1,1.7506132E-1,-2.2114134E0,7.29725E-1,4.5694667E-1,-2.7157208E-1,3.080328E-1,-1.113491E0,-3.7414452E-1,-9.471353E-1,2.232737E-1,-3.006718E-1,6.3220924E-1,1.7565943E-1,9.5047504E-1,2.063102E-1,1.0581852E0,-7.0942837E-1,4.3815723E-1,7.9942845E-2,-5.5916065E-1],"categories":[],"categories_nodes":[],"categories_segments":[],"categories_sizes":[],"default_left":[true,false,true,true,true,true,false,false,false,true,false,false,true,true,false,true,false,false,true,true,false,true,false,false,true,true,false,false,true,true,true,false,true,false,false,true,false,false,false,false,true,false,false,false,false,false,false,true,true,false,true,true,false,false,false,false,false,true,true,true,false,false,false,false,false,false,false,false,false,false,false,false,false,false,false,false,false,false,false,false,false,false,false,false,false,false,false,false,false,false,false,false,false,false,false,false,false,false,false,false,false,false,false,false,false,false,false,false,false,false,false,false,false,false,false,false,false],"id":8,"left_children":[1,3,5,7,9,11,13,15,17,19,21,23,25,27,29,31,33,35,37,39,41,43,45,47,49,51,53,55,57,59,61,63,65,67,69,71,73,75,77,-1,79,81,83,-1,85,87,-1,89,91,93,95,97,99,101,103,105,-1,107,109,111,113,-1,115,-1,-1,-1,-1,-1,-1,-1,-1,-1,-1,-1,-1,-1,-1,-1,-1,-1,-1,-1,-1,-1,-1,-1,-1,-1,-1,-1,-1,-1,-1,-1,-1,-1,-1,-1,-1,-1,-1,-1,-1,-1,-1,-1,-1,-1,-1,-1,-1,-1,-1,-1,-1,-1,-1],"loss_changes":[5.2194785E3,2.1131348E2,1.1581287E3,2.0887646E2,4.2338867E0,1.2544608E2,2.652953E2,8.674878E1,8.004854E1,3.2104492E0,5.65152E0,4.5271774E1,1.0027277E2,6.927002E1,3.4610912E1,3.283191E1,7.781052E1,3.1694553E1,2.6893585E1,2.104004E0,1.8059082E0,1.0323296E1,3.4909058E-1,2.053743E1,4.3201332E1,2.8795212E1,3.0008297E1,1.1285297E1,3.7927734E1,3.1138271E1,5.6288147E-1,1.1865356E1,4.8269913E1,5.3371544E1,7.102371E1,1.587812E1,2.719248E1,6.1150436E0,3.3344296E1,0E0,1.0969662E1,3.8397675E0,2.4887695E0,0E0,9.606904E0,1.4207096E0,0E0,6.1387577E0,1.2876205E1,5.448389E1,1.46838E1,2.8980549E1,5.120178E0,1.2148474E1,1.30073395E1,9.739431E0,0E0,2.02882E1,3.6789795E1,5.0072033E1,3.1232325E1,0E0,3.6451027E-1,0E0,0E0,0E0,0E0,0E0,0E0,0E0,0E0,0E0,0E0,0E0,0E0,0E0,0E0,0E0,0E0,0E0,0E0,0E0,0E0,0E0,0E0,0E0,0E0,0E0,0E0,0E0,0E0,0E0,0E0,0E0,0E0,0E0,0E0,0E0,0E0,0E0,0E0,0E0,0E0,0E0,0E0,0E0,0E0,0E0,0E0,0E0,0E0,0E0,0E0,0E0,0E0,0E0,0E0],"parents":[2147483647,0,0,1,1,2,2,3,3,4,4,5,5,6,6,7,7,8,8,9,9,10,10,11,11,12,12,13,13,14,14,15,15,16,16,17,17,18,18,19,19,20,20,21,21,22,22,23,23,24,24,25,25,26,26,27,27,28,28,29,29,30,30,31,31,32,32,33,33,34,34,35,35,36,36,37,37,38,38,40,40,41,41,42,42,44,44,45,45,47,47,48,48,49,49,50,50,51,51,52,52,53,53,54,54,55,55,57,57,58,58,59,59,60,60,62,62],"right_children":[2,4,6,8,10,12,14,16,18,20,22,24,26,28,30,32,34,36,38,40,42,44,46,48,50,52,54,56,58,60,62,64,66,68,70,72,74,76,78,-1,80,82,84,-1,86,88,-1,90,92,94,96,98,100,102,104,106,-1,108,110,112,114,-1,116,-1,-1,-1,-1,-1,-1,-1,-1,-1,-1,-1,-1,-1,-1,-1,-1,-1,-1,-1,-1,-1,-1,-1,-1,-1,-1,-1,-1,-1,-1,-1,-1,-1,-1,-1,-1,-1,-1,-1,-1,-1,-1,-1,-1,-1,-1,-1,-1,-1,-1,-1,-1,-1,-1],"split_conditions":[5.7785E1,2.4361E-1,5E-1,5E-1,5.02582E1,5E-1,5.73265E-2,1.02555E-1,5.547725E1,5.1317498E-2,1.18635E-1,5.9815002E1,5.55577E1,5E-1,6.1339302E1,5.933095E1,1.18664995E-1,3.9999997E-3,5E-1,3.65E1,3.1401E-1,5E-1,3.0624998E-1,2.7815998E-1,5E-1,5E-1,3.65E1,6.069995E1,5E-6,1.18845E-1,3.5E0,4.5105E-2,5E-1,9.9437505E-2,2.3683E-1,5E-1,5.5535E1,5.6745003E1,1.0993E-1,-3.0815005E-1,5E-1,2.5893998E-1,2.4842E-1,-2.9534858E-1,1.61155E-2,2.0519501E-1,-2.8286636E-1,4.0740497E-2,3.15E1,7.227E-2,5.999825E1,4.6992503E-2,5.72875E-2,9.1455E-2,9.332E-2,1.8518E-7,-3.1675595E-1,5.9282402E1,5E-1,1.08504996E-1,2.29785E-1,-3.156362E-1,3.6510002E-2,-2.9846007E-1,-2.3765622E-1,-2.7242008E-1,1.341968E-2,-2.3062657E-1,2.098873E-1,-2.2619493E-1,1.4551094E-1,-2.776997E-1,1.9437264E-1,-6.310936E-2,1.7605954E-1,-2.5804195E-1,-9.9284135E-2,-1.2782039E-1,3.2216027E-1,-3.0685657E-1,1.47875855E-2,-2.9973888E-1,-1.67048E-1,-2.8332216E-1,-3.055674E-1,-2.4711739E-1,7.8834526E-2,-2.8084058E-1,-1.5645605E-1,-1.8884963E-1,-2.2247778E-2,-2.7898282E-1,5.1069647E-2,1.3285641E-1,-7.392911E-2,-2.4608432E-1,-7.617921E-2,5.2518398E-2,-6.63424E-1,2.189175E-1,1.37084E-1,-8.147163E-2,9.240985E-2,-3.3404732E-1,-1.1224336E-1,-2.8414062E-1,6.698211E-2,-9.020154E-2,1.8966278E-1,5.2697834E-2,2.851425E-1,6.189306E-2,3.174556E-1,-2.1282852E-1,1.3144718E-1,2.3982855E-2,-1.677482E-1],"split_indices":[8,12,5,4,9,6,11,12,9,11,11,8,9,4,9,9,12,12,7,10,12,5,11,12,1,7,10,9,12,12,13,12,5,11,12,6,8,8,11,0,4,11,11,0,11,11,0,11,10,11,9,11,11,12,12,11,0,9,6,12,12,0,12,0,0,0,0,0,0,0,0,0,0,0,0,0,0,0,0,0,0,0,0,0,0,0,0,0,0,0,0,0,0,0,0,0,0,0,0,0,0,0,0,0,0,0,0,0,0,0,0,0,0,0,0,0,0],"split_type":[0,0,0,0,0,0,0,0,0,0,0,0,0,0,0,0,0,0,0,0,0,0,0,0,0,0,0,0,0,0,0,0,0,0,0,0,0,0,0,0,0,0,0,0,0,0,0,0,0,0,0,0,0,0,0,0,0,0,0,0,0,0,0,0,0,0,0,0,0,0,0,0,0,0,0,0,0,0,0,0,0,0,0,0,0,0,0,0,0,0,0,0,0,0,0,0,0,0,0,0,0,0,0,0,0,0,0,0,0,0,0,0,0,0,0,0,0],"sum_hessian":[1.4881683E4,8.640174E3,6.2415083E3,3.1531753E3,5.4869985E3,2.687631E3,3.5538774E3,2.494566E3,6.5860944E2,5.087121E3,3.9987738E2,1.6946029E3,9.9302814E2,2.7883962E3,7.6548114E2,1.8596631E3,6.349029E2,3.881427E2,2.704667E2,2.123279E3,2.9638423E3,6.253578E1,3.373416E2,2.801551E2,1.4144479E3,6.9779236E2,2.952358E2,9.256414E1,2.695832E3,7.425419E2,2.2939295E1,1.6388721E3,2.2079102E2,1.1713709E2,5.177658E2,1.2003343E2,2.6810928E2,1.8432832E2,8.61384E1,2.0692864E3,5.3992714E1,8.922328E1,2.874619E3,3.0389132E1,3.2146652E1,4.5219315E1,2.921223E2,8.572445E1,1.9443063E2,1.1927482E3,2.2169965E2,3.726489E2,3.2514346E2,1.953068E2,9.992901E1,8.4519394E1,8.044742E0,3.180983E2,2.377734E3,6.425982E2,9.994363E1,2.0414019E1,2.5252774E0,1.2238907E3,4.1498126E2,1.3263426E2,8.815677E1,3.4167168E1,8.296993E1,4.6710742E2,5.0658356E1,5.9333954E0,1.1410004E2,2.1579929E2,5.2309994E1,1.570043E2,2.732402E1,6.8275566E1,1.786283E1,4.18285E1,1.2164217E1,4.5613388E1,4.3609894E1,1.9629694E3,9.116495E2,1.2497841E1,1.9648811E1,2.5414185E1,1.9805128E1,3.035856E1,5.536589E1,1.8344273E2,1.0987892E1,1.27574715E2,1.0651735E3,1.5527937E2,6.642026E1,3.6848563E2,4.163254E0,1.0854884E2,2.1659462E2,1.4851831E2,4.6788486E1,5.721082E1,4.271819E1,6.828295E0,7.76911E1,2.474036E1,2.9335794E2,6.3467766E1,2.314266E3,5.648444E2,7.7753815E1,6.316868E1,3.677495E1,1.0487527E0,1.4765248E0],"tree_param":{"num_deleted":"0","num_feature":"14","num_nodes":"117","size_leaf_vector":"0"}},{"base_weights":[-3.2005978E-1,-8.060325E-1,2.836284E-1,-5.802E-1,-9.472692E-1,6.718223E-1,-8.05843E-2,-7.1378016E-1,-1.2773491E-1,-9.5822287E-1,-8.108074E-1,-6.1925314E-2,7.8205305E-1,6.976996E-2,-3.3627552E-1,-9.0911007E-1,-4.924255E-1,1.09348275E-1,-4.7451165E-1,-1.0020316E0,-9.270065E-1,-5.8432966E-1,-8.9954126E-1,-1.4660181E-1,8.7816465E-1,-2.3135448E-2,8.1930774E-1,3.665324E-2,8.031637E-1,-8.227544E-1,-2.6030877E-1,-9.86296E-1,-6.297267E-1,-8.307181E-1,-3.3645675E-1,1.727656E-1,-8.6300933E-1,-6.925493E-1,-7.708431E-2,-7.596475E-1,-1.0111554E0,-7.148945E-1,-9.3366367E-1,-8.5627747E-1,-1.8181941E-1,-4.5866016E-1,-9.0591866E-1,-9.573518E-1,-7.184269E-2,1.6297525E-1,1.2074467E0,-2.0396516E-1,1.0222864E0,-4.3695964E-2,8.389972E-1,1.2882513E-1,-2.2991404E-1,1.058347E0,-5.7101685E-1,-3.753036E-2,-8.7511986E-1,1.0887932E-1,-3.4635735E-1,-9.886029E-1,3.0051398E-1,-8.9894557E-1,-5.86298E-2,-9.5268774E-1,-3.0473843E-2,4.8592627E-1,-4.301814E-1,9.9014595E-2,1.2765085E0,-9.6527416E-1,-1.6617236E-1,-5.347494E-1,-1.0505182E0,-4.4451004E-1,3.8878202E-1,-1.0130627E0,1.3831954E-1,-4.8236543E-1,-1.0117666E0,-1.0121158E0,-4.9800235E-1,-9.036992E-1,-9.9814624E-1,-9.4643134E-1,-4.4739696E-1,-8.044419E-1,1.6841017E-1,-7.9079753E-1,4.5938343E-1,-1.0156779E0,1.6207686E-1,5.898543E-1,-2.1855831E-1,-9.5767605E-1,8.395062E-1,1.3090485E0,-1.0767552E-1,-7.325661E-2,-1.033081E0,3.4317523E-1,1.1013054E0,1.7409891E-1,-4.018058E-1,3.8317358E-1,8.790797E-1,1.0500415E-2,7.62619E-1,-6.1123013E-1,-2.7433619E-2,5.905775E-1,1.3687025E0,-6.865616E-1,2.3528339E-1,-5.9208864E-1,5.6274545E-1,2.3822938E-1,-9.135842E-1,-1.9435911E-1,6.994266E-1,-2.7885774E-1,-5.0088596E-1],"categories":[],"categories_nodes":[],"categories_segments":[],"categories_sizes":[],"default_left":[true,false,false,true,true,true,false,false,false,true,false,false,true,false,false,true,false,false,true,false,false,true,false,false,false,false,false,false,true,false,false,true,true,true,false,false,false,true,false,true,false,false,false,false,true,false,false,true,false,true,false,false,false,false,true,false,true,false,true,true,false,false,true,false,false,false,false,false,false,false,false,false,false,false,false,false,false,false,false,false,false,false,false,false,false,false,false,false,false,false,false,false,false,false,false,false,false,false,false,false,false,false,false,false,false,false,false,false,false,false,false,false,false,false,false,false,false,false,false,false,false,false,false,false,false],"id":9,"left_children":[1,3,5,7,9,11,13,15,17,19,21,23,25,27,29,31,33,35,37,39,41,43,45,47,49,51,53,55,57,59,61,63,65,67,69,71,73,75,77,79,81,83,85,87,89,91,-1,93,95,97,99,101,103,105,107,109,111,113,115,117,119,121,123,-1,-1,-1,-1,-1,-1,-1,-1,-1,-1,-1,-1,-1,-1,-1,-1,-1,-1,-1,-1,-1,-1,-1,-1,-1,-1,-1,-1,-1,-1,-1,-1,-1,-1,-1,-1,-1,-1,-1,-1,-1,-1,-1,-1,-1,-1,-1,-1,-1,-1,-1,-1,-1,-1,-1,-1,-1,-1,-1,-1,-1,-1],"loss_changes":[3.6002585E3,2.1629736E2,7.73918E2,1.581701E2,5.4729004E0,2.143523E2,1.0862244E2,8.695239E1,4.9221222E1,4.3566895E0,5.8484344E0,2.7750145E1,6.912073E1,4.3194275E1,3.84487E1,2.251001E1,4.9832886E1,2.210298E1,2.1006683E1,2.7608643E0,2.538208E0,9.930214E0,2.2003174E-1,1.9276575E1,6.589031E0,1.9650406E1,3.744922E1,4.1892498E1,2.7550228E1,5.758293E0,2.883044E1,2.7867432E0,3.6072495E1,2.9157516E1,5.0443314E1,2.7148005E1,1.4048634E0,8.29612E0,1.5103122E1,1.4228149E1,7.93457E-3,4.224457E0,3.3446045E0,1.5936432E0,8.513731E0,1.9636405E0,0E0,1.9186878E0,2.8603588E1,8.567629E0,2.7564678E0,9.516521E0,4.4482422E-1,3.9746249E0,3.8994385E1,9.498575E1,3.3810562E1,8.650909E0,1.3432364E0,3.6121418E0,5.8699875E0,3.0950886E1,7.529587E0,0E0,0E0,0E0,0E0,0E0,0E0,0E0,0E0,0E0,0E0,0E0,0E0,0E0,0E0,0E0,0E0,0E0,0E0,0E0,0E0,0E0,0E0,0E0,0E0,0E0,0E0,0E0,0E0,0E0,0E0,0E0,0E0,0E0,0E0,0E0,0E0,0E0,0E0,0E0,0E0,0E0,0E0,0E0,0E0,0E0,0E0,0E0,0E0,0E0,0E0,0E0,0E0,0E0,0E0,0E0,0E0,0E0,0E0,0E0,0E0,0E0,0E0],"parents":[2147483647,0,0,1,1,2,2,3,3,4,4,5,5,6,6,7,7,8,8,9,9,10,10,11,11,12,12,13,13,14,14,15,15,16,16,17,17,18,18,19,19,20,20,21,21,22,22,23,23,24,24,25,25,26,26,27,27,28,28,29,29,30,30,31,31,32,32,33,33,34,34,35,35,36,36,37,37,38,38,39,39,40,40,41,41,42,42,43,43,44,44,45,45,47,47,48,48,49,49,50,50,51,51,52,52,53,53,54,54,55,55,56,56,57,57,58,58,59,59,60,60,61,61,62,62],"right_children":[2,4,6,8,10,12,14,16,18,20,22,24,26,28,30,32,34,36,38,40,42,44,46,48,50,52,54,56,58,60,62,64,66,68,70,72,74,76,78,80,82,84,86,88,90,92,-1,94,96,98,100,102,104,106,108,110,112,114,116,118,120,122,124,-1,-1,-1,-1,-1,-1,-1,-1,-1,-1,-1,-1,-1,-1,-1,-1,-1,-1,-1,-1,-1,-1,-1,-1,-1,-1,-1,-1,-1,-1,-1,-1,-1,-1,-1,-1,-1,-1,-1,-1,-1,-1,-1,-1,-1,-1,-1,-1,-1,-1,-1,-1,-1,-1,-1,-1,-1,-1,-1,-1,-1,-1],"split_conditions":[5.7655E1,2.4361E-1,5.7112E-2,5E-1,5.02582E1,5E-1,2.4362999E-1,4.5105E-2,5.4746048E1,5.1317498E-2,3.0624998E-1,5.2487E-2,5E-1,2.367E-1,5.9695E1,5E-1,9.4954E-2,1.171E-1,5E-1,7.18595E-4,3.1401E-1,5E-1,5.13675E1,4.7794998E-8,1.1236E-1,4.722E-2,8.40585E-9,1.24815E-1,2.43415E-1,2.7815998E-1,1.4062E-1,6.25E1,5E-1,5E-1,1.1823E-1,1.02855E-1,2.0434E-1,2.0532E-2,4.90825E-2,5E-1,2.49155E-1,2.38835E-1,2.4842E-1,2.27155E-1,5E-1,5.1025E1,-2.717756E-1,5.8195602E1,1.0341499E-3,5E-1,5.66E-2,6.067725E1,5.1200002E-2,1.155E2,5E-1,1.11095E-1,5E-1,2.39565E-1,5.989785E1,2.39905E-1,5.82834E1,1.11880004E-1,1.73485E-1,-2.9658088E-1,9.01542E-2,-2.696837E-1,-1.7588941E-2,-2.8580633E-1,-9.142153E-3,1.4577788E-1,-1.2905443E-1,2.9704379E-2,3.8295254E-1,-2.8958225E-1,-4.9851708E-2,-1.6042483E-1,-3.1515545E-1,-1.3335302E-1,1.16634615E-1,-3.0391884E-1,4.1495863E-2,-1.4470963E-1,-3.0352998E-1,-3.0363476E-1,-1.4940071E-1,-2.711098E-1,-2.9944387E-1,-2.839294E-1,-1.342191E-1,-2.4133259E-1,5.0523054E-2,-2.3723927E-1,1.3781503E-1,-3.0470338E-1,4.862306E-2,1.769563E-1,-6.556749E-2,-2.8730282E-1,2.518519E-1,3.927146E-1,-3.230266E-2,-2.1976985E-2,-3.0992433E-1,1.0295258E-1,3.3039162E-1,5.2229676E-2,-1.20541744E-1,1.1495208E-1,2.637239E-1,3.1501248E-3,2.2878571E-1,-1.8336904E-1,-8.230086E-3,1.7717326E-1,4.1061077E-1,-2.0596848E-1,7.058502E-2,-1.776266E-1,1.6882364E-1,7.1468815E-2,-2.7407527E-1,-5.8307733E-2,2.0982799E-1,-8.3657324E-2,-1.502658E-1],"split_indices":[8,12,11,4,9,6,12,12,9,11,11,11,4,12,8,5,11,12,7,11,12,5,9,11,12,12,11,12,11,12,11,10,6,6,11,12,12,11,11,4,12,11,11,11,7,9,0,9,11,4,11,9,12,10,5,12,7,11,9,11,9,11,11,0,0,0,0,0,0,0,0,0,0,0,0,0,0,0,0,0,0,0,0,0,0,0,0,0,0,0,0,0,0,0,0,0,0,0,0,0,0,0,0,0,0,0,0,0,0,0,0,0,0,0,0,0,0,0,0,0,0,0,0,0,0],"split_type":[0,0,0,0,0,0,0,0,0,0,0,0,0,0,0,0,0,0,0,0,0,0,0,0,0,0,0,0,0,0,0,0,0,0,0,0,0,0,0,0,0,0,0,0,0,0,0,0,0,0,0,0,0,0,0,0,0,0,0,0,0,0,0,0,0,0,0,0,0,0,0,0,0,0,0,0,0,0,0,0,0,0,0,0,0,0,0,0,0,0,0,0,0,0,0,0,0,0,0,0,0,0,0,0,0,0,0,0,0,0,0,0,0,0,0,0,0,0,0,0,0,0,0,0,0],"sum_hessian":[1.2270046E4,6.7976006E3,5.4724453E3,2.61747E3,4.180131E3,2.648603E3,2.8238423E3,2.0204116E3,5.970584E2,3.8639536E3,3.1617706E2,3.4598718E2,2.3026157E3,1.7786617E3,1.0451804E3,1.0716493E3,9.4876227E2,3.550225E2,2.4203595E2,1.5947712E3,2.2691824E3,9.1140884E1,2.2503618E2,3.1817255E2,2.7814627E1,1.0184358E2,2.2007722E3,1.7028201E3,7.584164E1,1.398396E2,9.053409E2,8.376888E2,2.3396054E2,2.9802557E2,6.507367E2,3.3405753E2,2.0964962E1,1.5581158E2,8.622436E1,6.0909435E1,1.5338617E3,7.234983E1,2.1968325E3,5.371924E1,3.7421646E1,4.2485213E0,2.2078766E2,2.5865017E1,2.9230753E2,9.24019E0,1.8574436E1,8.7511375E1,1.4332205E1,4.9063423E1,2.1517087E3,1.2656936E3,4.371265E2,6.415752E1,1.1684121E1,8.850001E0,1.3098961E2,1.7107686E2,7.3426404E2,8.36421E2,1.2677249E0,1.5861453E2,7.534601E1,2.5844418E2,3.95814E1,6.614711E1,5.845896E2,3.1415567E2,1.9901861E1,1.7946054E1,3.018908E0,1.09871735E2,4.5939854E1,4.8230843E1,3.799351E1,4.7403515E1,1.3505919E1,2.683099E0,1.5311786E3,2.8975868E1,4.3373966E1,1.510112E3,6.8672046E2,4.2937317E1,1.07819195E1,1.3005013E1,2.4416632E1,3.2215927E0,1.0269287E0,2.4672192E1,1.1928253E0,5.250158E1,2.3980595E2,3.3219388E0,5.9182506E0,1.724664E1,1.3277979E0,7.6534256E1,1.0977124E1,2.0507164E0,1.2281488E1,3.08282E1,1.8235224E1,1.7476913E2,1.9769397E3,1.067429E3,1.9826465E2,1.5091013E2,2.8621637E2,2.6747084E1,3.7410435E1,1.0349515E1,1.3346059E0,4.607267E0,4.242735E0,4.2009034E0,1.267887E2,1.13478165E2,5.7598694E1,5.1298975E2,2.2127426E2],"tree_param":{"num_deleted":"0","num_feature":"14","num_nodes":"125","size_leaf_vector":"0"}},{"base_weights":[-2.8022245E-1,-7.791289E-1,2.0249616E-1,-5.568436E-1,-9.1469324E-1,-2.1114904E-1,4.7917295E-1,-6.371088E-1,-2.542889E-1,-9.3318206E-1,-6.31374E-1,-3.6709946E-1,-6.845075E-2,7.028584E-1,1.2892383E-1,-9.124649E-1,-5.390301E-1,6.4199254E-2,-6.5525466E-1,-9.862327E-1,-8.948145E-1,-1.614938E-1,-7.761621E-1,-2.6757243E-1,-9.135975E-1,-1.7488627E-1,1.9757766E-1,1.9700415E-1,7.6630104E-1,-2.6784235E-1,1.9301754E-1,-4.222386E-1,-9.622965E-1,-7.08242E-1,-1.8081975E-1,1.3807741E-1,-9.1529924E-1,-5.529671E-1,-1.7071567E0,-7.3244345E-1,-9.9697495E-1,-8.51303E-1,-9.8838264E-1,1.3646422E-1,-1.0052905E0,-8.2385594E-1,7.945895E-1,-5.581674E-1,-1.4643113E-1,-5.429729E-1,-9.873256E-1,-7.385105E-1,-1.1438343E-1,-3.6879358E-1,2.8836733E-1,-1.1651977E-1,5.9182626E-1,3.0161372E-1,8.3411175E-1,-7.495962E-1,-3.4893498E-2,7.660383E-2,4.3447435E-1,-9.2624825E-1,7.021889E-2,-9.9787647E-1,-7.0789117E-1,-8.8635516E-1,-4.4449493E-1,-3.8170633E-1,4.0389773E-1,8.280106E-2,1.1260402E0,-9.632865E-1,-1.1096185E-1,-7.791936E-1,-1.22004144E-1,-2.1981614E0,-9.2187124E-1,-9.7890276E-1,2.7027074E-1,-1.0049022E0,-8.138945E-1,-8.84324E-1,-2.4245742E-1,-9.9006605E-1,-4.3123195E-1,-7.9518247E-1,8.453047E-1,1.0404343E-3,-8.348602E-1,-6.964759E-1,2.1203601E0,1.3770689E-1,-7.8122526E-1,-1.14663586E-1,-9.037434E-1,-1.0345865E0,-1.2342142E-1,-9.922745E-1,-1.5655442E-1,-2.0105696E-1,1.2240789E-1,-9.708325E-2,-8.8948697E-1,7.150255E-1,1.699625E-1,-3.1103542E-1,4.2226776E-1,-2.328823E-1,7.078283E-1,4.4344616E-1,-7.1544075E0,-1.7768952E0,8.387276E-1,9.668279E-2,-8.3506155E-1,-1.7468146E0,4.5721516E-2,2.1569729E-1,-3.853234E-1,4.8748568E-1,-4.1315767E-1],"categories":[],"categories_nodes":[],"categories_segments":[],"categories_sizes":[],"default_left":[true,false,true,true,true,true,false,false,false,true,false,true,true,true,false,false,true,true,true,false,false,false,true,false,false,false,false,false,false,true,true,true,true,true,true,true,false,true,false,true,true,false,true,true,false,false,false,false,true,false,false,false,true,false,false,true,false,false,true,false,false,true,false,false,false,false,false,false,false,false,false,false,false,false,false,false,false,false,false,false,false,false,false,false,false,false,false,false,false,false,false,false,false,false,false,false,false,false,false,false,false,false,false,false,false,false,false,false,false,false,false,false,false,false,false,false,false,false,false,false,false,false,false],"id":10,"left_children":[1,3,5,7,9,11,13,15,17,19,21,23,25,27,29,31,33,35,37,39,41,43,45,47,49,51,53,55,57,59,61,63,65,67,69,71,73,75,77,79,81,83,85,87,-1,89,91,93,95,97,-1,99,101,103,105,107,109,111,113,115,117,119,121,-1,-1,-1,-1,-1,-1,-1,-1,-1,-1,-1,-1,-1,-1,-1,-1,-1,-1,-1,-1,-1,-1,-1,-1,-1,-1,-1,-1,-1,-1,-1,-1,-1,-1,-1,-1,-1,-1,-1,-1,-1,-1,-1,-1,-1,-1,-1,-1,-1,-1,-1,-1,-1,-1,-1,-1,-1,-1,-1,-1],"loss_changes":[2.493141E3,1.528916E2,6.023082E2,4.6732605E1,1.5966797E1,4.6922585E1,2.4695569E2,4.0706665E1,5.195877E1,5.1523438E0,1.3257507E1,5.4570374E1,3.1261818E1,6.1598633E1,3.133565E1,9.345978E0,6.820068E1,1.6588015E1,1.8429596E1,2.635498E0,6.2072754E0,1.2104324E1,1.1900291E1,2.9979572E1,3.69516E0,2.6795006E1,1.6335876E1,2.6778095E1,5.361078E1,1.9220959E1,2.9753193E1,9.650045E0,2.566681E0,3.5556396E1,4.2793816E1,1.1506107E1,5.1398563E-1,1.6048172E1,3.9416237E0,1.3585325E1,8.970947E-1,2.3689758E1,8.270264E-2,2.4484325E1,0E0,1.3277893E0,1.1227753E1,3.9050964E1,1.4428559E1,5.6298532E0,0E0,1.1101994E1,1.4658027E1,6.1448183E0,1.3648737E1,1.2823117E1,9.317062E0,2.3502061E2,1.9460938E1,4.120346E0,1.617897E1,4.6098824E1,1.5681023E1,0E0,0E0,0E0,0E0,0E0,0E0,0E0,0E0,0E0,0E0,0E0,0E0,0E0,0E0,0E0,0E0,0E0,0E0,0E0,0E0,0E0,0E0,0E0,0E0,0E0,0E0,0E0,0E0,0E0,0E0,0E0,0E0,0E0,0E0,0E0,0E0,0E0,0E0,0E0,0E0,0E0,0E0,0E0,0E0,0E0,0E0,0E0,0E0,0E0,0E0,0E0,0E0,0E0,0E0,0E0,0E0,0E0,0E0,0E0,0E0],"parents":[2147483647,0,0,1,1,2,2,3,3,4,4,5,5,6,6,7,7,8,8,9,9,10,10,11,11,12,12,13,13,14,14,15,15,16,16,17,17,18,18,19,19,20,20,21,21,22,22,23,23,24,24,25,25,26,26,27,27,28,28,29,29,30,30,31,31,32,32,33,33,34,34,35,35,36,36,37,37,38,38,39,39,40,40,41,41,42,42,43,43,45,45,46,46,47,47,48,48,49,49,51,51,52,52,53,53,54,54,55,55,56,56,57,57,58,58,59,59,60,60,61,61,62,62],"right_children":[2,4,6,8,10,12,14,16,18,20,22,24,26,28,30,32,34,36,38,40,42,44,46,48,50,52,54,56,58,60,62,64,66,68,70,72,74,76,78,80,82,84,86,88,-1,90,92,94,96,98,-1,100,102,104,106,108,110,112,114,116,118,120,122,-1,-1,-1,-1,-1,-1,-1,-1,-1,-1,-1,-1,-1,-1,-1,-1,-1,-1,-1,-1,-1,-1,-1,-1,-1,-1,-1,-1,-1,-1,-1,-1,-1,-1,-1,-1,-1,-1,-1,-1,-1,-1,-1,-1,-1,-1,-1,-1,-1,-1,-1,-1,-1,-1,-1,-1,-1,-1,-1,-1],"split_conditions":[5.4655E1,5.5E0,5E-1,5E-1,5.808925E1,5E-1,5.7112E-2,1.9565001E-2,4.80185E1,5.1317498E-2,2.4317E-1,4.5284003E-2,5E-1,5E-1,8.39E-3,3.6156499E-3,5E-1,1.16555E-1,5.0516647E1,1.06445E-3,2.48265E-1,6.000705E1,1.55E1,5.9775E1,6.2260002E-2,4.21305E-2,2.2455E-2,2.49E-2,5E-6,5.98545E1,5E-1,5E-1,5.95189E1,1.02705E-1,5E-1,1.02855E-1,5.383E1,5E-1,2.412E-2,5E-1,4.49501E1,2.3906E-1,5.2730003E1,5E-1,-3.0158716E-1,5.8276154E1,8.59E-3,5.967865E1,2.43415E-1,5.9595E1,-2.9619768E-1,5.9995003E1,1.97465E-1,1.5225001E-2,5.9275E1,5E-1,5.9895E1,2.8253498E-4,4.09634E1,5.471205E1,1.70655E-1,5.64422E1,1.24395E-1,-2.778745E-1,2.1065667E-2,-2.9936296E-1,-2.1236736E-1,-2.6590657E-1,-1.3334848E-1,-1.145119E-1,1.2116932E-1,2.484032E-2,3.3781207E-1,-2.8898597E-1,-3.3288557E-2,-2.3375808E-1,-3.6601245E-2,-6.5944844E-1,-2.7656138E-1,-2.9367083E-1,8.108123E-2,-3.014707E-1,-2.4416836E-1,-2.652972E-1,-7.273723E-2,-2.9701984E-1,-1.2936959E-1,-2.3855475E-1,2.5359142E-1,3.1213032E-4,-2.5045806E-1,-2.0894279E-1,6.3610804E-1,4.131207E-2,-2.343676E-1,-3.4399077E-2,-2.7112302E-1,-3.10376E-1,-3.7026428E-2,-2.9768237E-1,-4.6966325E-2,-6.0317088E-2,3.672237E-2,-2.9124975E-2,-2.668461E-1,2.1450765E-1,5.0988752E-2,-9.331063E-2,1.2668033E-1,-6.98647E-2,2.1234849E-1,1.3303386E-1,-2.1463223E0,-5.330686E-1,2.516183E-1,2.9004836E-2,-2.5051847E-1,-5.240444E-1,1.3716456E-2,6.470919E-2,-1.15597025E-1,1.462457E-1,-1.2394731E-1],"split_indices":[8,13,6,4,9,7,11,12,9,11,11,11,4,5,12,11,6,11,9,11,11,9,13,8,12,11,12,12,12,9,5,6,9,11,7,11,8,7,12,4,9,11,8,5,0,9,12,9,12,8,0,8,12,12,8,7,8,11,9,9,11,9,12,0,0,0,0,0,0,0,0,0,0,0,0,0,0,0,0,0,0,0,0,0,0,0,0,0,0,0,0,0,0,0,0,0,0,0,0,0,0,0,0,0,0,0,0,0,0,0,0,0,0,0,0,0,0,0,0,0,0,0,0],"split_type":[0,0,0,0,0,0,0,0,0,0,0,0,0,0,0,0,0,0,0,0,0,0,0,0,0,0,0,0,0,0,0,0,0,0,0,0,0,0,0,0,0,0,0,0,0,0,0,0,0,0,0,0,0,0,0,0,0,0,0,0,0,0,0,0,0,0,0,0,0,0,0,0,0,0,0,0,0,0,0,0,0,0,0,0,0,0,0,0,0,0,0,0,0,0,0,0,0,0,0,0,0,0,0,0,0,0,0,0,0,0,0,0,0,0,0,0,0,0,0,0,0,0,0],"sum_hessian":[1.0350568E4,5.089637E3,5.260931E3,1.9300435E3,3.1595935E3,2.1086436E3,3.1522876E3,1.5245005E3,4.0554303E2,2.9638826E3,1.9571094E2,1.0067863E3,1.1018573E3,1.9230995E3,1.2291881E3,3.982131E2,1.1262874E3,2.2648515E2,1.7905786E2,1.2335521E3,1.7303304E3,4.6598957E1,1.4911198E2,8.529403E2,1.5384601E2,7.8723456E2,3.1462274E2,2.1476836E2,1.7083312E3,1.7050623E2,1.0586819E3,3.7617546E1,3.6059558E2,7.64279E2,3.6200836E2,2.1139949E2,1.5085662E1,1.6457971E2,1.44781475E1,5.2902195E1,1.1806499E3,1.1879855E3,5.42345E2,3.5057774E1,1.15411825E1,1.451793E2,3.9326794E0,2.4989122E2,6.030491E2,2.6914381E1,1.26931625E2,7.522815E1,7.120064E2,4.3043476E1,2.7157925E2,1.20101746E2,9.46666E1,2.1824043E2,1.4900907E3,5.4851593E1,1.1565463E2,7.151861E2,3.4349582E2,1.8155392E1,1.9462154E1,3.1378824E2,4.680733E1,4.5479028E2,3.094887E2,2.6969772E2,9.231063E1,2.0122481E2,1.0174684E1,1.4049825E1,1.0358367E0,1.0739602E2,5.7183697E1,7.8012066E0,6.6769414E0,4.2483765E1,1.0418432E1,1.1273472E3,5.3302727E1,1.1264401E3,6.1545483E1,5.3993646E2,2.4084663E0,1.5095532E1,1.996224E1,1.923141E0,1.4325616E2,2.0743575E0,1.8583219E0,6.0750454E1,1.8914076E2,5.7987604E2,2.317309E1,1.1717892E1,1.5196489E1,5.189436E1,2.3333792E1,5.213323E2,1.906741E2,2.9063759E1,1.3979718E1,5.7900963E1,2.136783E2,8.85542E1,3.1547546E1,1.1549396E1,8.311721E1,2.1508942E2,3.1510215E0,1.9520183E0,1.4881388E3,5.019288E0,4.9832306E1,4.271769E0,1.11382866E2,5.500812E2,1.6510493E2,3.2367776E2,1.981808E1],"tree_param":{"num_deleted":"0","num_feature":"14","num_nodes":"123","size_leaf_vector":"0"}},{"base_weights":[-2.4212411E-1,-7.161688E-1,1.6163896E-1,-4.872213E-1,-8.8847244E-1,-1.1383823E-1,4.5982018E-1,-6.034841E-1,-2.0996699E-1,-9.045912E-1,-6.60122E-1,-4.3466696E-1,-4.229904E-2,6.338139E-1,9.5449276E-2,-3.6635426E-1,-8.736054E-1,-3.5891107E-1,7.6243085E-1,-9.7902596E-1,-8.555964E-1,-7.798893E-1,-3.3185577E-1,-6.680157E-1,-1.6440961E-1,4.297873E-2,-3.367049E-1,2.8774166E-1,7.370905E-1,1.2737884E-1,-8.067969E-1,-7.9940486E-1,-1.8148834E-1,-9.3116087E-1,-3.5807574E-1,1.7077112E-1,-5.0521964E-1,1.1442376E0,-8.476037E-1,-7.457748E-1,-9.8974127E-1,-8.086022E-1,-9.629424E-1,4.4485554E-1,-7.9525983E-1,-8.016076E-1,1.601989E-1,-6.2137723E-2,-8.246749E-1,4.110724E-1,-2.4355912E-1,-5.89883E-2,2.5137737E-1,-6.3360095E-1,-1.8085805E-1,3.3436283E-1,-9.216274E-1,-2.2536572E-2,7.758377E-1,-5.284796E-1,1.6688393E-1,-8.707784E-1,1.1195716E-2,-9.0780795E-1,-2.641991E-1,-9.1707283E-1,7.852582E-4,-9.8138475E-1,-6.408209E-1,-6.183317E-3,-7.721326E-1,-4.5238012E-1,3.915498E-1,-9.9231356E-1,-3.6514172E-1,4.5261332E-1,1.6666967E0,-9.649114E-1,3.1640625E-1,-9.92333E-1,1.01175725E-1,-6.9023186E-1,-9.930407E-1,-8.503256E-1,-2.1658185E-1,-9.650113E-1,-3.6076826E-1,-7.455969E-1,-9.764404E-1,-4.2816448E-1,-9.5653844E-1,4.9154928E-1,-8.856347E-1,-8.744302E-1,3.3950463E-1,-8.7151456E-1,-5.261466E-1,-9.314876E-1,6.3326573E-1,-4.513897E-1,-8.4192656E-2,1.611675E0,-7.668129E-2,2.6434925E-1,-1.2327474E0,-8.414498E-1,-1.4680868E-1,2.8466108E-1,-2.4099334E-1,4.2197153E-1,1.0094947E-1,-1.522126E0,-5.125394E-1,-2.9081082E-1,4.916243E-1,1.3470063E-1,8.160147E-1,-2.129699E0,-4.276239E-1,1.9130518E-1,-9.772828E-1,-9.700926E-1,-9.52694E-2],"categories":[],"categories_nodes":[],"categories_segments":[],"categories_sizes":[],"default_left":[true,false,true,true,true,false,false,true,true,true,true,true,true,true,false,false,true,false,false,false,false,false,true,false,false,true,true,false,true,false,false,true,false,true,false,true,true,true,false,true,false,false,true,false,true,true,false,true,true,false,true,false,false,true,false,false,false,false,false,false,true,true,false,false,false,false,false,false,false,false,false,false,false,false,false,false,false,false,false,false,false,false,false,false,false,false,false,false,false,false,false,false,false,false,false,false,false,false,false,false,false,false,false,false,false,false,false,false,false,false,false,false,false,false,false,false,false,false,false,false,false,false,false],"id":11,"left_children":[1,3,5,7,9,11,13,15,17,19,21,23,25,27,29,31,33,35,37,39,41,43,45,47,49,51,53,55,57,59,61,63,65,67,69,71,73,75,77,79,81,83,85,-1,87,89,91,93,95,97,99,101,103,105,107,109,111,113,115,117,119,121,-1,-1,-1,-1,-1,-1,-1,-1,-1,-1,-1,-1,-1,-1,-1,-1,-1,-1,-1,-1,-1,-1,-1,-1,-1,-1,-1,-1,-1,-1,-1,-1,-1,-1,-1,-1,-1,-1,-1,-1,-1,-1,-1,-1,-1,-1,-1,-1,-1,-1,-1,-1,-1,-1,-1,-1,-1,-1,-1,-1,-1],"loss_changes":[1.695397E3,1.6028833E2,3.9301907E2,5.633957E1,7.954834E0,5.7073452E1,1.4559833E2,7.870087E1,7.545314E1,7.067383E0,5.909584E0,2.8484962E1,5.1106747E1,5.5358643E1,2.1527866E1,5.258584E1,1.6757172E1,3.502274E1,4.3550064E1,1.3949585E0,5.85553E0,2.5038376E0,1.0225092E1,2.3013496E1,9.730243E0,3.356511E1,2.1039623E1,2.0548908E1,3.5243896E1,1.8721344E1,1.3472557E0,1.1176109E1,6.206626E1,6.917572E0,8.660536E0,1.3703688E1,2.3756775E1,1.9631073E1,2.1967583E0,8.775389E0,1.1791992E-1,2.2563232E1,1.4419556E-1,0E0,2.9014587E-1,8.930397E-1,8.117264E0,1.6937202E1,2.2401123E0,8.326358E0,6.1387177E0,3.1484217E1,1.0315746E1,1.5759312E1,8.500721E0,7.0409546E0,2.558731E0,8.288991E0,2.9223389E1,5.726095E0,1.9161213E1,1.7340679E0,0E0,0E0,0E0,0E0,0E0,0E0,0E0,0E0,0E0,0E0,0E0,0E0,0E0,0E0,0E0,0E0,0E0,0E0,0E0,0E0,0E0,0E0,0E0,0E0,0E0,0E0,0E0,0E0,0E0,0E0,0E0,0E0,0E0,0E0,0E0,0E0,0E0,0E0,0E0,0E0,0E0,0E0,0E0,0E0,0E0,0E0,0E0,0E0,0E0,0E0,0E0,0E0,0E0,0E0,0E0,0E0,0E0,0E0,0E0,0E0,0E0],"parents":[2147483647,0,0,1,1,2,2,3,3,4,4,5,5,6,6,7,7,8,8,9,9,10,10,11,11,12,12,13,13,14,14,15,15,16,16,17,17,18,18,19,19,20,20,21,21,22,22,23,23,24,24,25,25,26,26,27,27,28,28,29,29,30,30,31,31,32,32,33,33,34,34,35,35,36,36,37,37,38,38,39,39,40,40,41,41,42,42,44,44,45,45,46,46,47,47,48,48,49,49,50,50,51,51,52,52,53,53,54,54,55,55,56,56,57,57,58,58,59,59,60,60,61,61],"right_children":[2,4,6,8,10,12,14,16,18,20,22,24,26,28,30,32,34,36,38,40,42,44,46,48,50,52,54,56,58,60,62,64,66,68,70,72,74,76,78,80,82,84,86,-1,88,90,92,94,96,98,100,102,104,106,108,110,112,114,116,118,120,122,-1,-1,-1,-1,-1,-1,-1,-1,-1,-1,-1,-1,-1,-1,-1,-1,-1,-1,-1,-1,-1,-1,-1,-1,-1,-1,-1,-1,-1,-1,-1,-1,-1,-1,-1,-1,-1,-1,-1,-1,-1,-1,-1,-1,-1,-1,-1,-1,-1,-1,-1,-1,-1,-1,-1,-1,-1,-1,-1,-1,-1],"split_conditions":[5.4415E1,3.08495E-1,5E-1,5E-1,5.8259E1,5.9815002E1,5.69685E-2,5E-1,5.9994247E1,5.1317498E-2,1.1729E-2,3.9750002E-2,5E-1,5.997525E1,6.036375E1,5.0245002E-2,4.214E1,9.8364E-3,6.003485E1,1.06445E-3,2.4842E-1,5.84218E1,5E-1,2.306E-2,5.6205E-2,5E-1,2.3556E-6,5.997045E1,5E-1,5E-6,6.03E1,5E-1,5.3429E-2,5.99963E1,4.117335E1,5E-1,2.64356E1,5E-1,9.5414996E-2,3.7690002E1,3.5965002E-1,2.38085E-1,5E-1,1.3345666E-1,3.6058497E-1,3.30975E-1,6.000705E1,5E-1,1.1178E-1,4.11015E-2,5E-1,3.55875E-4,6.0145E1,7.508E-2,1.8259E-3,1.22515E-2,3.42E-3,2.5290001E-2,1.7441E-6,1.0391E-1,2.44565E-1,3.5E0,3.358715E-3,-2.7234238E-1,-7.925974E-2,-2.7512187E-1,2.3557746E-4,-2.9441544E-1,-1.9224629E-1,-1.8549951E-3,-2.3163979E-1,-1.3571404E-1,1.17464945E-1,-2.976941E-1,-1.0954252E-1,1.35784E-1,5.00009E-1,-2.8947344E-1,9.492188E-2,-2.976999E-1,3.035272E-2,-2.0706956E-1,-2.979122E-1,-2.550977E-1,-6.497456E-2,-2.895034E-1,-1.0823048E-1,-2.2367908E-1,-2.9293215E-1,-1.2844935E-1,-2.8696156E-1,1.474648E-1,-2.6569042E-1,-2.6232907E-1,1.01851396E-1,-2.6145437E-1,-1.5784398E-1,-2.794463E-1,1.8997973E-1,-1.3541691E-1,-2.5257798E-2,4.8350254E-1,-2.3004388E-2,7.930478E-2,-3.6982423E-1,-2.5243494E-1,-4.4042606E-2,8.539833E-2,-7.2298005E-2,1.2659146E-1,3.0284842E-2,-4.566378E-1,-1.5376182E-1,-8.724325E-2,1.474873E-1,4.041019E-2,2.4480443E-1,-6.389097E-1,-1.2828718E-1,5.7391554E-2,-2.9318485E-1,-2.9102778E-1,-2.858082E-2],"split_indices":[8,12,5,5,9,8,11,1,9,11,11,12,1,9,9,12,8,11,9,11,11,9,5,11,12,6,11,9,4,12,8,4,11,9,9,6,9,6,12,8,12,11,6,0,12,12,9,4,11,11,7,11,8,12,11,11,12,12,11,11,11,13,0,0,0,0,0,0,0,0,0,0,0,0,0,0,0,0,0,0,0,0,0,0,0,0,0,0,0,0,0,0,0,0,0,0,0,0,0,0,0,0,0,0,0,0,0,0,0,0,0,0,0,0,0,0,0,0,0,0,0,0,0],"split_type":[0,0,0,0,0,0,0,0,0,0,0,0,0,0,0,0,0,0,0,0,0,0,0,0,0,0,0,0,0,0,0,0,0,0,0,0,0,0,0,0,0,0,0,0,0,0,0,0,0,0,0,0,0,0,0,0,0,0,0,0,0,0,0,0,0,0,0,0,0,0,0,0,0,0,0,0,0,0,0,0,0,0,0,0,0,0,0,0,0,0,0,0,0,0,0,0,0,0,0,0,0,0,0,0,0,0,0,0,0,0,0,0,0,0,0,0,0,0,0,0,0,0,0],"sum_hessian":[8.856188E3,4.0732034E3,4.7829854E3,1.7507421E3,2.3224612E3,2.4864636E3,2.2965217E3,1.2326646E3,5.180776E2,2.1665667E3,1.5589455E2,4.524235E2,2.03404E3,1.5538098E3,7.427119E2,6.5767303E2,5.749915E2,4.4981018E2,6.82674E1,8.524732E2,1.3140934E3,1.1321314E2,4.26814E1,2.4200066E2,2.1042284E2,1.5778524E3,4.5618762E2,3.5799194E2,1.1958179E3,7.1815594E2,2.4555977E1,1.9576558E2,4.6190747E2,5.165193E2,5.847222E1,9.731884E1,3.5249133E2,5.5415394E1,1.2852008E1,4.0542393E1,8.1193085E2,9.1990686E2,3.9418655E2,1.0568883E0,1.1215626E2,2.1513714E1,2.1167686E1,5.0004677E1,1.9199597E2,2.4934546E1,1.8548828E2,1.0599487E3,5.179036E2,1.5597739E2,3.0021027E2,3.454003E2,1.2591653E1,5.805648E1,1.1377614E3,4.0096786E1,6.7805914E2,2.2714752E1,1.8412247E0,1.6221384E2,3.3551746E1,9.092771E1,3.7097974E2,4.3831766E2,7.8201614E1,3.2157566E1,2.6314657E1,2.5184938E1,7.21339E1,7.7369576E1,2.7512177E2,2.465016E1,3.0765234E1,1.1830761E1,1.0212462E0,3.1268173E1,9.2742195E0,1.1137181E1,8.0079364E2,8.58936E2,6.0970844E1,3.9223642E2,1.9501401E0,9.204206E1,2.0114197E1,7.4118586E0,1.4101854E1,1.6477219E1,4.690467E0,1.6155075E1,3.38496E1,1.6429796E2,2.7698019E1,3.0873845E0,2.184716E1,7.970813E1,1.0578016E2,1.0163548E1,1.0497852E3,5.1423096E2,3.6727118E0,1.0879565E2,4.7181732E1,3.3917168E1,2.662931E2,2.5055128E2,9.484902E1,3.999713E0,8.59194E0,3.8436054E1,1.9620424E1,6.735024E1,1.0704111E3,1.1839342E0,3.891285E1,6.647044E2,1.3354736E1,1.9913637E1,2.8011162E0],"tree_param":{"num_deleted":"0","num_feature":"14","num_nodes":"123","size_leaf_vector":"0"}},{"base_weights":[-2.0557787E-1,-6.9638157E-1,9.6683085E-2,-8.266093E-1,-4.3333682E-1,-1.7375574E-1,3.2309166E-1,-5.7715374E-1,-8.722936E-1,-6.0059214E-1,-1.4247267E-1,-3.7849656E-1,-7.9512976E-2,5.3423434E-1,7.126184E-2,2.1222492E-1,-6.9639665E-1,-9.697822E-1,-8.071204E-1,-5.0484544E-1,-9.75749E-1,3.58944E-1,-2.914287E-1,-1.3173087E-1,-5.991506E-1,-6.070775E-2,-5.765551E-1,3.1815103E-1,7.12261E-1,-3.0543977E-2,2.9058516E-1,-7.5112313E-1,6.1052334E-1,-8.1816345E-1,-1.93748E-1,-9.7453064E-1,-3.8498047E-1,-7.402646E-1,-9.5522577E-1,-8.169454E-1,-3.3534393E-1,4.961419E-1,-7.101021E-1,-1.8530844E-1,-9.012008E-1,-2.3471607E-1,9.381925E-1,-6.709782E-1,2.581622E-1,-4.4908702E-1,-3.3943005E-2,-9.870764E-1,-3.884389E-1,5.108783E-1,-2.4393149E-1,4.054703E-1,8.4978086E-1,7.3293515E-2,-3.530085E-1,8.00461E-1,-3.0113965E-2,-8.937017E-1,4.2016605E-1,2.934755E-1,1.8928918E0,-8.406133E-1,-3.2718822E-2,-6.145086E-1,1.0196475E0,-8.759728E-1,-9.9817955E-1,8.6860484E-1,-8.349497E-1,-7.9217094E-1,-1.4287208E-1,-8.5073936E-1,5.6847036E-1,-4.2867506E-1,3.1873426E-1,-2.3940484E-1,7.342278E-1,3.181413E-1,-9.482549E-1,-4.402536E-2,-7.355068E-1,-1.0182735E0,-5.142255E-1,-6.7931795E-1,-8.443067E-2,-8.492577E-1,1.0951346E0,-8.4466195E-1,-3.5387114E-1,1.0210165E0,-4.239959E-1,-5.102376E-1,1.8526151E0,7.122813E-1,-4.75121E-2,-5.504173E-1,3.9397052E-1,-4.8899945E-2,6.728385E-1,-1.507869E0,-1.5018044E-1,6.00273E-1,2.746208E-1,2.410576E-1,8.744632E-1,-7.107869E-2,5.2509433E-1,3.0260516E-2,-5.0105554E-1,-1.3336393E0,8.551052E-1,-2.7823567E-1,2.4300414E-1],"categories":[],"categories_nodes":[],"categories_segments":[],"categories_sizes":[],"default_left":[true,true,true,false,true,false,false,false,true,false,false,false,true,true,false,true,true,true,false,false,false,false,true,false,true,false,true,false,true,false,false,false,false,true,false,false,false,false,false,true,true,false,false,false,true,true,false,true,true,false,false,false,false,false,false,false,true,false,false,false,true,false,false,false,false,false,false,false,false,false,false,false,false,false,false,false,false,false,false,false,false,false,false,false,false,false,false,false,false,false,false,false,false,false,false,false,false,false,false,false,false,false,false,false,false,false,false,false,false,false,false,false,false,false,false,false,false],"id":12,"left_children":[1,3,5,7,9,11,13,15,17,19,21,23,25,27,29,31,33,35,37,39,-1,41,43,45,47,49,51,53,55,57,59,61,63,65,67,69,71,73,-1,75,77,79,81,83,85,87,89,91,93,95,97,-1,99,101,103,105,107,109,111,113,115,-1,-1,-1,-1,-1,-1,-1,-1,-1,-1,-1,-1,-1,-1,-1,-1,-1,-1,-1,-1,-1,-1,-1,-1,-1,-1,-1,-1,-1,-1,-1,-1,-1,-1,-1,-1,-1,-1,-1,-1,-1,-1,-1,-1,-1,-1,-1,-1,-1,-1,-1,-1,-1,-1,-1,-1],"loss_changes":[1.1488503E3,1.00746826E2,2.935431E2,2.1981567E1,4.7563293E1,4.2127754E1,1.3870596E2,2.9172798E1,9.800293E0,2.1833511E1,2.6910463E1,3.7405914E1,1.3961584E1,5.4367065E1,2.6605728E1,1.6279953E1,1.6252243E1,1.4642944E0,9.236694E0,2.6031044E1,0E0,1.2474293E1,1.7773746E1,3.6170372E1,2.253624E1,1.4994659E1,3.8231907E0,6.976634E1,3.2449585E1,2.7296608E1,6.1788376E1,2.4646392E0,1.152942E1,3.7729034E0,2.7990433E1,6.557007E-1,4.667225E0,2.1479889E1,0E0,8.644653E0,1.9911495E1,1.3106155E1,2.704339E0,1.842257E1,1.3265839E0,1.9882212E1,9.022516E0,1.8171768E1,1.541824E1,1.4036819E1,1.3723227E1,0E0,5.1598706E0,4.3464546E1,1.9304379E1,6.016365E0,7.839508E0,4.0275585E1,1.1281359E1,1.815261E1,1.5846533E1,0E0,0E0,0E0,0E0,0E0,0E0,0E0,0E0,0E0,0E0,0E0,0E0,0E0,0E0,0E0,0E0,0E0,0E0,0E0,0E0,0E0,0E0,0E0,0E0,0E0,0E0,0E0,0E0,0E0,0E0,0E0,0E0,0E0,0E0,0E0,0E0,0E0,0E0,0E0,0E0,0E0,0E0,0E0,0E0,0E0,0E0,0E0,0E0,0E0,0E0,0E0,0E0,0E0,0E0,0E0,0E0],"parents":[2147483647,0,0,1,1,2,2,3,3,4,4,5,5,6,6,7,7,8,8,9,9,10,10,11,11,12,